YGL122C 0.26085973 0.08571644 0.19654402 0.017414454 0.037394904 -0.2758763 0.371335 0.13864848 -0.26310202 0.35565925 0.41844702 0.09959305 0.08924316 0.07676483 -0.39770794 -0.010897603 -0.055320263 -0.12045545 0.0053356555 0.1740454 0.35258052 0.12702435 0.23684946 0.03613302 -0.03139127 0.3275299 -0.12595429 0.10246679 0.10173859 -0.119354114 -0.11255499 0.11356039 -0.10248983 -0.10105949 -0.031117853 0.17252669 -0.088537976 0.03142494 0.09020318 0.089198634 -0.06211877 0.3096211 -0.1929012 -0.23572756 0.15362193 -0.04643491 -0.2511101 0.15596089 -0.07017353 0.010610738 -0.009581736 0.05146288 -0.15864196 0.1252788 0.013597097 0.046264216 0.15259445 -0.279941 -0.3813392 0.0009078955 -0.2834944 -0.2570242 -0.316031 0.08471225
YLL039C 0.104668334 0.14867258 -0.021510018 0.0994993 0.010399801 -0.3734024 0.045155045 -0.19904031 -0.3685436 0.039191473 0.43934467 -0.18817465 -0.26041088 -0.03705066 -0.1293344 -0.11719167 -0.14265563 -0.09048557 -0.02316376 0.4511785 0.34785113 -0.19281217 0.25608435 -0.1849217 0.04126801 -0.03705111 -0.19530293 -0.19649683 0.051484495 -0.1278086 0.23115516 0.021861013 -0.14038055 -0.34040222 -0.1046666 0.38697195 0.23397237 -0.10838573 0.4437096 0.16592827 0.26351535 0.11318928 -0.33321166 -0.07295326 -0.030957274 0.13932306 -0.24133262 -0.099053785 0.3334399 0.036464766 0.25688404 0.21426344 0.05955908 0.33540925 0.05270933 0.49964604 -0.1634993 -0.17147484 0.044432197 0.026124552 -0.26458028 -0.24923943 -0.6052233 0.22781476
YNL255C 0.24689198 -0.24054384 0.27488407 -0.057686925 0.08726529 -0.3252441 0.43976074 0.27855304 0.09801056 0.5023856 0.074721694 -0.032217477 -0.15499027 -0.17451085 -1.0185806 0.20861308 -0.04476095 0.025337163 0.23114873 -0.061282106 0.0701995 0.19722642 0.6469182 -0.27217492 -0.3119515 0.06308185 0.0388947 0.15447778 -0.15167427 0.061788924 0.1909005 0.2333469 -0.613306 -0.16000652 -0.18670417 -0.2908581 0.08092684 -0.281231 0.13499221 -0.08407615 -0.2292499 0.40959603 -0.18676625 -0.3000706 0.4976382 0.22413962 -0.23446114 0.16968535 -0.45594248 0.3524241 0.032366347 -0.16493234 -0.15718281 0.12350123 -0.08423794 0.025467439 -0.13498811 -0.33454546 -0.45384613 -0.1285061 -0.31772697 -0.26652354 0.06329847 -0.17968707
YBL032W 0.7354866 0.29309875 0.028517159 0.4849803 0.45065764 -0.54170865 0.17861311 0.3805483 -0.021809846 -0.061361015 -0.3294179 -0.070883095 0.2580461 0.088025 -0.2712521 0.2995031 -0.2541401 0.10170716 0.12424026 0.3608559 0.06589418 -0.2691703 0.42669916 -0.09963611 -0.39670327 0.20060518 -0.83000726 -0.10468919 0.2341534 -0.5508009 -0.3706243 -0.17889018 0.16507272 -0.2460965 0.6355339 0.14637023 -0.24285123 -0.08952455 -0.0805705 -0.07042171 0.22515552 -0.66114336 -0.1922564 0.029564364 0.19661932 -0.10562805 0.065251455 0.26139438 -0.669217 0.20785102 0.16379 -0.1637439 0.047560237 0.6159048 0.42914706 0.23493932 -0.29612902 -0.009814166 -0.48226026 -0.6669652 -0.6312085 -0.04079967 -0.13353913 0.03701832
YFR004W 0.1240298 -0.2609389 0.5323087 0.032681935 0.027182208 -0.48841476 0.2993936 -0.3225833 -0.6326546 0.17527533 0.64699167 -0.071178034 -0.2803146 0.024668671 0.25862175 -0.008579584 0.2153194 -0.1446072 0.08903066 0.7189484 0.12757187 0.44161674 0.39867088 -0.23277213 0.26183617 -0.101771995 -0.15497144 -0.012270795 -0.3009965 -0.22378069 0.3259679 0.06993311 -0.29719904 -0.1787537 -0.044309054 0.55507874 0.45092937 -0.0829179 -0.0108729405 0.021233445 0.13179547 0.47186196 -0.028186211 -0.33775017 0.27384666 0.40869486 0.017006118 0.24443044 0.31452173 0.0275326 0.17686248 0.34383819 0.23216942 -0.32592973 0.42356065 0.13025488 -0.04122286 0.143767 0.05156616 -0.06619901 0.14173621 -0.19529815 -0.20921552 0.48322582
YDR510W 0.491295 0.4003322 0.52956796 0.06772972 -0.17229381 -0.05682094 0.20926447 -0.10892799 -0.12024995 -0.11735286 0.64034724 -0.030430617 -0.14835538 -0.2822503 0.17307365 -0.04510572 0.31467465 -0.1872897 -0.19486037 0.35418788 0.054014605 0.58047783 0.38839254 -0.2690972 -0.26167315 0.20390002 -0.37188342 0.045626704 -0.556153 0.05853591 0.2023371 0.006930113 -0.3032865 0.023262093 0.05904574 0.06576399 0.60126865 0.18083638 -0.031353083 0.13306649 0.0691126 0.07274455 -0.18508983 -0.056512684 0.21550661 0.020219997 0.24139245 0.8857736 -0.12921806 0.634017 0.9301601 -0.33129123 0.21230312 0.2014782 -0.024781741 0.40846628 -0.20067978 0.083866686 -0.14711908 0.40156445 -0.31592554 -0.010156937 -0.1737556 0.45401508
YIR010W 0.64347315 -0.057917077 0.60261786 0.70531607 -0.20296602 -0.26228198 0.13166294 -0.35942507 -0.059955753 -0.18488789 0.554546 -0.32588884 0.086476766 -0.17079352 0.12514727 -0.046687197 -0.30619916 -0.04767855 -0.012810496 0.23516142 0.20281738 0.57015383 0.36657116 -0.72464716 0.03745382 0.11585894 0.18581183 0.17830248 -0.2584679 -0.3979291 0.39438805 0.059569612 -0.44956967 0.14264198 0.0252171 -0.23664801 -0.14698459 -0.47484985 0.055951264 0.29894626 0.36872047 0.24643071 0.00029186672 0.2609603 0.2959603 0.1570662 0.25144303 0.3440356 -0.12457511 0.11347441 0.7456285 -0.34269145 -0.17707321 -0.5306163 0.25509524 0.031015597 0.004521862 -0.10000783 -0.025127582 0.31042913 -0.048598427 -0.22287478 -0.037627965 -0.15345205
YPL031C 0.19273761 -0.5687643 0.39236674 -0.20684487 0.38323423 -0.52237415 -0.46253628 -0.39418152 -0.56958604 -0.44202164 -0.06062008 -0.07846906 0.123208225 0.14905277 0.52928007 0.15632556 -0.018374292 0.18422367 0.1329637 0.6825415 0.112312235 0.67087376 -0.41562715 -0.038596302 -0.5626245 0.68140215 0.14277753 0.16361038 -0.0129371695 -0.080629885 -0.34409156 -0.45258594 -0.47109723 -0.40613988 0.041861534 -0.10318582 0.4934793 -0.25173062 0.8975898 -0.4122452 -0.31648594 -0.054848585 0.21544799 -0.11162688 0.44484818 -0.103924446 -0.07899706 0.11052009 -0.052145384 0.11832907 0.1315128 0.47340897 -0.34499338 0.17241123 0.34675568 -0.1881861 -0.045421645 -0.050016258 -0.02468477 0.0558201 -0.2006156 -0.5730224 -0.61769474 0.1245997
YER151C 0.28328243 -0.3912929 0.36777386 0.35807604 0.1790666 -0.19479397 0.32258734 -0.29591912 -0.62133235 0.04894275 0.25807565 -0.17551324 -0.5468485 -0.51208186 0.061913345 0.43986678 0.08367289 0.19290398 0.52386487 0.040396415 -0.14729951 0.06768252 0.5400772 -0.2798508 -0.07194723 -0.017830582 0.121096544 0.10005951 -0.34116924 -0.50815564 0.5987336 -0.007789697 -0.3892265 0.10931008 0.07970422 0.32523862 0.11671504 -0.13589579 -0.02614249 0.23995687 0.3266751 0.54391235 -0.4502936 -0.16004428 0.638645 -0.12153949 -0.20061381 0.2269655 -0.1384665 0.3835345 0.35118404 -0.24072598 0.15454671 -0.20995882 0.14229548 0.3073548 -0.26440647 -0.108581774 -0.11893643 0.010100152 0.025881954 -0.34684655 0.31232932 0.34298214
YHR027C -0.26658127 0.018142626 0.671052 0.048502613 -0.05068862 -0.4976316 0.33595327 -0.60397315 -0.669659 0.070144296 0.6143284 -0.19157745 -0.4643816 -0.08631396 0.23729034 0.16226617 -0.0638464 0.023691509 0.28214064 0.5646985 -0.03821179 0.2825951 0.15578406 -0.5668663 0.20371276 -0.10239417 -0.08263379 0.20072271 -0.38643214 -0.16736114 0.20274632 -0.081211485 -0.47703746 -0.26705885 -0.035007324 0.5958025 0.18492134 0.0009081865 -0.07165044 0.2865966 0.2969924 0.4684921 0.13314302 -0.06522345 0.56718063 0.49001914 0.15621059 0.187167 0.53639483 0.10149164 0.18473956 0.20506264 0.014565665 -0.1731435 0.42959034 0.47046265 -0.10964684 0.107006565 0.14925584 -0.02512022 -0.07588955 -0.031157376 -0.047042068 0.52124596
YDL229W -0.06641571 -0.33549646 0.21617225 -0.31085747 -0.410689 0.21985997 0.15074977 -0.4206863 -0.44596854 -0.05434857 0.5470213 -0.6143769 -0.14512831 -0.4248099 -0.2721419 -0.5206074 0.033544842 -0.07793246 -0.026548851 0.48738447 0.5509775 -0.21285032 0.13441814 -0.35687009 -0.28026056 0.11382716 -0.040350385 -0.29591385 -0.3995587 -0.47487187 -0.09944986 0.004937792 -0.7148601 0.5166719 -0.086920515 -0.25143012 0.41892126 0.12790515 0.49333698 -0.2801675 0.42973763 -0.14815213 -0.15873386 -0.27759454 0.28408846 0.00026410716 0.2804849 -0.39943048 -0.28734636 -0.14554603 -0.14694838 0.23842245 -0.5144052 0.26447296 -0.024297342 0.33655807 0.82137746 -0.53797287 -0.9499988 0.4319823 -0.30878294 -0.03901269 -0.029728025 0.39813736
YHR200W -0.028458571 0.10076142 0.64754254 -0.028261282 -0.041913055 -0.60313225 0.24645306 -0.471467 -0.49825686 0.17550266 0.5634654 -0.097682044 -0.51270074 -0.016836448 0.07871385 0.17482087 -0.0005415796 0.09140314 0.34090233 0.613495 -0.19669154 0.31315666 0.29924667 -0.4201418 0.0684844 -0.14638916 -0.12910499 0.12791994 -0.5501353 -0.052063122 0.10269501 -0.04630762 -0.3908423 -0.22885582 -0.23640783 0.3869433 0.29861 -0.1517926 -0.17284323 0.49001768 0.0916474 0.16484024 0.1092478 -0.2524194 0.61866176 0.339235 -0.21688499 0.15789692 0.4685252 0.011039967 0.40917715 0.22120312 0.08312728 0.019652145 0.5611054 0.25650415 -0.08469515 0.20768951 0.0991648 0.13806407 -0.16495386 0.05391621 -0.032520633 0.7590176
YHR135C 0.025396846 -0.4190225 0.05547542 -0.30304235 0.20978068 -0.22366099 -0.24620989 -0.22759196 -0.0024974316 0.2002267 0.59344345 0.24942823 0.1392485 -0.5684923 0.36149475 0.3306423 -0.5803611 -0.00023482574 0.10545227 0.8563129 0.39518124 0.47849986 0.1554454 -0.024979766 -0.2944412 0.70542115 0.03688133 -0.28641155 0.07395029 0.55458885 0.2261872 -0.35040915 -0.2944382 0.08641429 -0.15826003 0.1689128 0.30318052 0.07929722 0.7649488 -0.11501983 -0.17991762 0.33458838 -0.042395342 -0.30535895 0.52182573 0.11788971 0.8323534 -0.052973203 -0.1999675 -0.04778082 -0.23716803 -0.45509836 0.39378896 0.41419813 0.48078734 -0.37469882 0.123155564 -0.0819918 0.1330956 0.09684801 0.0006784562 -0.5115316 0.031522114 0.18325803
YNR051C 0.5265567 -0.292337 0.3169599 0.4045995 -0.08716827 -0.19039437 0.38875762 -0.4231904 -0.7481987 -0.07160254 0.23635355 -0.056751654 -0.5033202 -0.26837122 0.13832662 0.39399737 -0.119990885 0.0064009605 0.6907093 0.15254912 -0.09322064 0.16830713 0.44430426 0.022017749 0.09855533 -0.07912429 0.24684195 0.21028964 -0.34131548 -0.7176092 0.70815355 0.11660648 -0.45421886 0.23014067 -0.009633079 0.31294468 0.08834765 -0.18259467 -0.07349732 0.32654893 0.2499022 0.65675277 -0.4501083 -0.13916712 0.66755533 -0.20395832 -0.36065006 0.3407534 -0.11303408 0.3318917 0.39993387 -0.19187087 0.19164957 -0.27095845 0.20037806 0.27078333 -0.17084329 -0.11900721 -0.3139627 0.17840464 -0.25073817 -0.2975064 0.3716024 -0.009929593
YNL197C 0.5471256 -0.10256349 0.59488297 0.57484436 -0.42900237 -0.53131163 -0.00825404 0.43590122 -0.69423425 -0.3143311 -0.017427308 0.12915964 0.10688273 0.011942334 0.16990775 0.04759597 -0.45725158 -0.018952196 -0.04240387 0.570207 0.668851 -0.06942453 0.6463895 -0.41887277 -0.100960374 0.84465206 -0.44156456 0.31927666 0.46624354 -0.70518315 -0.6385713 0.0073036524 0.12833913 -0.24844655 0.41531205 0.25302872 0.41025898 0.5861721 -0.2593392 0.07654878 0.041457735 -0.51174086 -0.11939403 0.47819853 0.39989582 0.20970416 -0.7270908 -0.28955907 0.040949825 0.6370082 0.19602585 -0.452233 -0.29707092 0.4131756 -0.082737 -0.0682032 0.45249054 0.28197467 0.5974852 -0.049996216 0.19191764 0.21034355 -0.0027584322 -0.24882038
YPL240C 0.4030252 -0.095141664 0.5299087 0.045183774 -0.184847 -0.73713887 -0.526069 -0.6677294 0.13339838 0.025989605 0.012675439 -0.5672194 -0.20719452 -0.7557072 0.11059082 -0.101184346 -0.14115801 0.16502382 0.05777557 0.26920503 0.2655678 -0.13961414 0.05233504 -0.09875414 0.062928945 -0.09597307 -0.43790248 0.3887468 0.002032601 -0.0094013205 -0.6238186 0.3342603 0.049697384 0.3728449 0.3705614 0.26636606 -0.020808237 0.21471706 0.3530681 0.39893624 0.03970279 -0.06358054 -0.027176823 -0.739665 -0.23282437 -0.36428913 -0.76651 0.23949106 0.0069243074 -0.4506152 0.5757974 -0.35114026 0.2294814 -0.03882222 0.5298934 0.49272752 0.32644248 -0.545347 0.2737487 -0.1297219 -0.39903322 -0.66656613 0.019734958 0.028422238
YBR160W 0.069012895 -0.04813112 -0.044694033 0.32685795 -0.03630223 0.016759843 -0.44558328 0.21650885 0.4265785 0.3654512 0.06101288 -0.37786353 0.142041 0.07307566 -0.007954734 0.42894435 -0.3985551 -0.09259865 -0.44201264 0.6779098 0.4257989 0.14130855 -0.027199632 -0.10119311 -0.220153 0.6151141 -0.5002989 0.12762491 -0.6196544 -0.4117941 -0.018467667 -0.44592035 -0.62019485 -0.1654278 0.07487582 0.33115003 -0.39838836 0.1808309 0.1415035 -0.2987121 -0.17168382 -0.4249914 -0.36105397 -0.24017401 0.16832104 -0.20751812 0.27905235 -0.27671292 -0.04642847 0.6489723 0.15098678 0.16808875 0.050429795 -0.35653389 0.57292 0.59204745 0.7054417 0.46783364 0.27909216 0.62254745 -0.59099746 0.082091555 -0.26445514 0.43016753
YKL049C 0.70619833 -0.4116782 0.120890744 0.2368936 -0.33816507 0.28427356 0.4308626 -0.57336974 -0.026471961 -0.16981801 1.080992 -0.54569465 -0.2536403 -0.12783484 0.27337366 -0.13593969 0.17740661 -0.56406367 0.13208789 0.63576037 -0.028436894 -0.0029082384 0.39901435 -0.58114874 0.100404724 0.030740278 0.16805568 0.00054075266 -0.1030272 -0.62600714 0.38691857 -0.4436718 -0.5719617 -0.51631176 -0.2158234 0.0022739223 0.20921186 -0.3074745 -0.19820598 0.2950751 0.17419817 0.0950698 -0.43127194 -0.123481214 0.13901919 -0.117223576 0.16351594 -0.10952833 0.08886662 -0.1327241 -0.27533677 -0.23518857 0.31003729 0.18461153 0.3579431 0.37671092 -0.08143361 -0.38083574 -0.23512909 0.21351986 -0.31219885 -0.047166355 -0.24527498 -0.59483683
YJL164C 0.25356638 -0.2153113 -0.14758864 0.02662715 -0.026960008 -0.14800501 -0.32229915 -0.1596529 0.2786838 0.447929 0.33864942 -0.34885877 -0.45975587 0.08417302 0.38508776 0.86893123 -0.21518892 0.17963736 0.2556854 0.7044882 0.5042435 0.5634686 0.34860572 0.1781555 0.08343181 0.5187333 0.15222628 0.010837552 0.113741465 -0.0102749495 0.15083587 -0.34531718 0.008129386 -0.21488535 -0.5444141 -0.18833913 0.72235835 -0.22626573 0.44055152 -0.24630354 -0.5780638 -0.28722197 0.30871305 -0.5756235 0.39864933 -0.27333036 -0.22274958 -0.22306424 0.022897001 0.15509547 -0.1641826 -0.42475405 -0.2710938 0.31392518 0.18017316 -0.024194824 0.5327583 -0.60779864 -0.23052451 0.13913515 -0.19419834 -0.6018896 -0.048057266 -0.033191923
YML065W 0.43815342 0.052794244 0.2791504 -0.021860354 0.027535949 -0.12034318 -0.3118169 -0.008820544 -0.22716829 0.3057642 -0.10413034 0.035366856 0.046745963 -0.5824577 -0.59057605 0.5361887 -0.29884812 0.11028188 0.33019215 0.10008437 0.15001139 -0.084524445 0.37747806 -0.62646705 0.19331002 0.24630125 -0.26161858 0.8436561 -0.5120756 -0.3661632 0.5136345 0.048736453 -1.02546 0.31987116 0.124853864 0.16354279 0.2078124 -0.10467619 -0.32575053 0.5443088 -0.039207455 0.11587793 -0.36932272 0.53841895 0.53075045 -0.37139642 0.15448584 0.44728932 -0.19846754 -0.102123216 0.42070135 -0.8641773 -0.3262824 0.1459998 0.31119484 0.031501878 0.021176789 -0.37831083 -0.2409273 0.21638589 -0.19388583 -0.31971717 -0.23107733 0.5511399
YOR117W 0.009685799 0.032129582 0.7170682 0.0614884 0.078351654 -0.7040407 0.3035178 -0.5060868 -0.3026756 0.11544945 0.60783774 -0.27030537 -0.4922337 -0.12007647 0.40566564 0.3950022 -0.018925088 0.18514661 0.43228018 0.66246057 -0.053535677 0.1281249 0.21606827 -0.5092627 0.07134539 -0.2057058 -0.043506194 0.0023251304 -0.38608778 -0.169277 0.37514403 0.002304706 -0.70997024 -0.096111916 0.041987654 0.25105068 0.15619366 -0.068167835 -0.12627222 0.33812973 0.34726202 0.33641312 0.02027675 -0.33910728 0.43503135 0.6271641 -0.1256817 0.07288371 0.4491452 -0.12276187 0.49589533 -0.08483194 -0.063383214 -0.17245516 0.41154552 0.06285031 -0.013371917 0.30605736 0.16690132 0.09590227 -0.18005994 -0.07083002 -0.0070470246 0.56588364
YNL154C 0.013298811 -0.61950713 -0.26125318 0.38027638 0.24737258 -0.8655581 -0.14914711 -0.2634674 0.031357765 0.107834734 0.71359164 -0.0018246513 -0.17331243 0.32358918 0.49881306 0.50750697 -0.42338765 0.08450464 0.68641055 0.5574177 0.7296301 0.6066875 0.45612276 -0.16525806 0.224366 0.64086777 -0.28485817 0.020198125 -0.35420382 -0.35676834 0.038383476 0.3748102 -0.2615372 0.6324312 0.15766656 -0.19026273 0.15611303 0.05959703 0.2830731 -0.32050985 -0.8211393 0.4952248 0.121284395 0.039863687 0.33097595 -0.00926043 0.53699774 0.099212535 -0.20775758 -0.16777979 -0.059631288 0.024006102 0.66522306 0.03834976 -0.14792639 -0.08615976 0.2872005 0.010412661 0.31603098 0.29543418 -0.050514035 0.047469515 -0.31988242 0.24063325
YDR381W 0.09876142 -0.7856139 0.2259507 -0.59159195 -0.42262086 -0.6802201 0.038450174 -0.092251115 -0.008714106 0.0982124 0.1008303 -0.1344367 0.22639593 -0.5739898 0.11602356 0.17413606 -0.49452174 -0.35111815 -0.09025411 0.12337697 0.35020956 0.07328988 0.14745061 -0.39558578 -0.30870077 -0.31808025 -0.18553135 -0.3368516 0.14772877 0.08948912 0.5704636 0.2969941 -0.29409823 0.63960636 0.49495295 0.20734668 0.2994883 0.48658448 0.054832615 0.06105169 0.6521481 0.23942252 0.24441352 0.49457398 1.2143477 -0.5856224 0.036661588 -0.41174805 -0.11754779 0.36405066 0.2886565 0.00061459857 0.010223934 -0.18622391 -0.07541989 0.34320253 0.6233341 -0.037884016 -0.39771938 -0.020287037 -0.23340526 -0.22097692 -0.3752022 -0.04140373
YHR082C 0.035857078 -0.64399564 0.08502179 0.10208483 0.063081436 -0.6057549 -0.13733017 0.02629185 0.0036072594 0.065924 0.20852412 -0.4597841 0.045418832 0.08750813 0.27689007 0.101915054 -0.3984499 -0.6191154 0.5901032 0.7035915 0.34220588 0.80871165 0.17555238 -0.29377162 -0.3014188 0.43588686 -0.2540579 0.39254773 -0.57737386 -0.08341719 -0.4225019 0.42133626 -0.40434334 0.15132762 -0.0048970063 -0.18773136 0.5401912 0.23427202 0.1433627 -0.14925802 -0.24795519 -0.039404657 -0.045452416 -0.58313984 0.20943668 -0.36915302 0.12163055 0.22594717 -0.38261908 -0.089220814 -0.7126103 -0.2042467 0.3995443 0.043145724 -0.48489606 0.31230572 -0.17906167 -0.38492694 -0.0095435735 -0.4383926 0.03731745 0.009439832 -0.4119719 0.38577744
YAL005C 0.08675241 -0.7468894 0.31948933 0.12432157 -0.36648867 -0.24927497 0.36698636 -0.35321844 -0.23749268 -0.27785084 0.1828465 -0.4725955 0.024456462 -0.86370677 -0.008766484 -0.15762535 0.28963828 -0.038716104 0.20004073 0.37202576 0.32364267 -0.23319331 0.8108818 -0.29494676 -0.2245283 0.24888185 -0.08810715 -0.46823105 0.39056677 -0.36487228 -0.11705061 -0.018550217 -0.032221574 -0.016658822 -0.036961507 -0.016074803 0.526291 -0.11102173 0.33564618 0.15991798 0.7304838 0.30740836 -0.016470864 -0.50068414 0.38004288 -0.016952291 0.29505414 0.09754629 -0.58855695 -0.15089655 -0.03880366 -0.59199584 -0.08394173 0.398139 -0.053135797 0.30286422 0.48688227 -0.031724665 -0.53988934 0.47332078 -0.05260621 0.5585006 -0.16756983 0.47964045
YJR059W 0.20081294 -0.19436243 0.1827153 0.04242167 0.1856267 -0.5216646 -0.5427009 -0.24322349 -0.048369847 0.550502 0.2292102 -0.5564827 -0.45705852 0.00036493834 0.27409717 0.73329026 -0.6474801 0.21366924 -0.23055683 0.2789093 0.5340084 0.568416 0.38724944 0.1859762 -0.2991372 0.5803164 0.1973772 -0.09056867 -0.044505373 -0.237636 0.31132275 -0.38678056 -0.072709076 -0.24746718 -0.063476466 0.23830977 0.49724177 0.045182675 -0.17433102 -0.43315706 -0.40816164 -0.24944662 0.8584642 -0.045394957 0.41885194 -0.6260278 -0.30406246 0.21454363 0.7583302 -0.10863949 0.010161215 -0.458092 0.040246528 0.57695955 0.022863366 -0.0091906255 0.5089512 -0.72897625 0.0068442463 0.07184463 0.20038027 -0.17993738 -0.12089166 0.24164023
YBL003C 0.7806354 -0.071558796 -0.041464962 0.34267014 -0.08929396 -0.397173 0.59781903 -0.15442204 -0.41392165 -0.016591115 0.043348003 -0.43382064 0.06017008 -0.4191282 -0.060225304 -0.035342284 -0.312887 -0.5111221 0.07651729 0.1980699 -0.12303978 0.33262953 0.2760243 -0.61623275 -0.47149408 -0.13121824 -0.3348654 0.4805623 -0.17788957 0.09041874 0.50541335 0.0041086413 -0.4145625 -0.17054254 0.19063064 0.19703484 0.35532358 0.04492022 0.18425538 0.13047996 0.28689122 -0.09102323 -0.3384365 0.2404563 0.18598205 -0.69490343 0.41463658 -0.4586591 -0.0626259 0.3871266 0.4334008 -0.4984537 -0.24656123 -0.03027082 -0.01607272 -0.6224848 0.09139448 -0.254039 -0.5175234 0.4029111 -0.5139816 0.07878727 -0.16428484 -0.09623393
YGL180W 0.32283923 -0.34106183 0.03003738 0.05123149 0.36432108 -0.22808293 -0.42489058 -0.2951168 -0.028142527 -0.03533236 0.53028303 0.2884055 -0.08402651 -0.60677576 0.59292525 0.5760363 -0.44582775 -0.048236202 -0.061850652 0.7186583 0.4289005 0.6729339 -0.060384646 0.100213796 0.06574324 0.8034134 -0.13651752 -0.02578689 -0.023730317 0.36254564 0.20239528 -0.028543016 -0.37958133 0.17791216 -0.37062195 0.0645718 0.34449223 -0.105491795 0.82607216 0.004157966 -0.4563839 0.104853526 0.16672623 -0.45233583 0.36103567 -0.023967395 0.69729376 -0.039144557 -0.41007492 0.37503758 -0.0701003 -0.23561707 0.0023870226 0.42090902 0.39885926 -0.65204805 0.21389236 -0.23491758 0.20625307 -0.12734297 0.105720066 -0.54087657 -0.06385386 0.07887046
YFR014C 0.6756113 -0.14632255 0.19963318 0.30252454 0.3948769 -0.2540259 0.3439598 -0.25067732 0.007665004 -0.31933495 0.052453052 0.44752127 0.1230506 -0.237797 -0.121522404 0.8398151 -0.48821267 0.18190181 0.47893476 0.16102834 -0.11149954 0.75131494 -0.092124045 0.045509778 0.27343065 0.3672733 0.11915489 0.18958159 -0.21543266 -0.32403332 -0.22015613 -0.24828292 -0.59900224 -0.17010197 -0.423449 0.916385 0.27859205 0.15280847 0.78455025 -0.12040331 -0.45853466 0.4134617 0.14716627 -0.10781683 0.3441468 0.11969905 0.38612595 -0.027347729 0.543504 -0.030746732 0.1584002 -0.22249436 -0.45688787 0.30800828 -0.1857738 -0.14839004 0.76668376 -0.46913788 -0.40263408 -0.17316024 -0.64772236 -0.35472202 0.30812663 0.343014
YDR388W 0.25312227 -0.58095723 0.5524035 0.14819321 0.056825012 -0.037292928 0.53822017 0.17214316 -0.69769245 0.4095049 0.2794598 -0.06337285 -0.13307539 0.053967696 -0.18866865 0.23369762 -0.21565011 0.5669665 -0.18654531 0.31081626 0.20989835 0.10265849 -0.0927646 -0.6851015 -0.44315866 0.6728459 0.32377797 -0.052135646 0.14730571 -0.34669793 0.15704764 0.4214598 -0.11556448 -0.38602546 0.15512165 -0.74177706 0.20741609 0.39242703 0.063996136 0.27681163 -0.21246298 -0.5455522 0.29268467 -0.16103183 0.2659191 -0.46434668 0.1977859 -0.5798738 -0.41110948 -0.15488684 0.69582546 0.24436885 0.038319234 -0.39651433 0.44491073 -0.17380947 0.33614337 -0.4578715 0.19607043 -0.07572222 -0.45631087 -0.6449595 -0.27444765 0.095456265
YNL189W -0.08109151 -0.4104336 -0.28942245 -0.2571325 -0.49988267 -0.27051657 0.18313216 -0.59457123 -0.2835758 0.17769499 0.58078223 -0.4995163 0.28936112 0.15527289 -0.53659874 0.6255499 0.057622746 0.26810607 -0.11526248 0.19927421 -0.22623794 0.32737115 -0.14578134 -0.2851839 -0.61034524 0.46842733 -0.57838124 0.026558895 -0.4132681 -0.012703223 -0.67549914 -0.420717 -0.08688455 -0.22190508 0.08572863 0.40762272 0.6550551 -0.35195497 0.051442888 -0.38783428 0.5327286 -0.46404228 -0.6912935 -0.24754797 0.79672796 -0.07159936 -0.10914913 -0.45382273 -0.37922978 -0.06603531 0.5994266 -0.48663017 0.46671262 0.13591155 0.24287486 -0.16072652 0.02774785 -0.33170995 -0.28150973 0.23198804 -0.3297417 0.3536787 -0.023065781 -0.30964106
YBR009C 0.4814782 0.06344972 -0.19916973 0.17566411 -0.27972335 -0.024803186 0.09067517 -0.32834095 -0.4125072 -0.010123038 0.13429031 -0.60386646 -0.25891465 -0.18526569 -0.13494606 0.2493601 -0.19076656 -0.11593242 0.26902416 0.6945826 0.04115068 0.63711345 -0.3325473 -0.6246833 -0.4856535 -0.16156533 -0.41842967 0.34136248 -0.1990057 -0.3273583 -0.018078139 -0.004506287 0.12936084 0.09600323 0.45885605 -0.039116148 -0.21479902 0.31599513 -0.54505163 0.35528353 -0.10529138 -0.21632788 -0.42515847 -0.02154606 -0.07574647 -0.48686534 0.15818824 -0.10742466 -0.21464092 0.33775115 0.35740486 -0.3341271 -0.47562066 -0.091635466 0.013685395 -0.3715003 -0.15486076 -0.21422702 -0.6559659 0.6556308 -0.45961416 -0.28247657 -0.5019266 0.54306144
YPL204W 0.42197025 -0.032148726 0.32712463 0.4984055 0.17656405 -0.667288 -0.6750421 -0.39106756 -0.584429 -0.21346274 -0.0051982747 -0.3404137 0.4486171 0.17798689 0.35130867 0.2159264 0.056588255 -0.21359392 0.13981079 0.16846032 0.651952 -0.027628608 -0.17370635 -0.41828203 0.36713648 0.3712259 -0.64652044 0.28033388 0.37538117 -0.2223912 0.34632027 -0.5045899 -0.15422726 -0.19949552 -0.46434557 0.20262547 -0.2904457 0.3316284 0.19815148 -0.24788992 -0.006496598 0.49689868 -0.44252416 -0.75922877 0.6493169 -0.53278565 0.44116133 -0.5992777 0.2698085 0.072005585 0.035282288 -0.034214303 -0.67277306 0.16021074 0.4757974 0.57535374 -0.26591545 0.107968934 -0.24557485 0.22770815 0.033554252 -0.078803636 0.1264728 0.13894281
YDL014W -0.20605136 -0.4266282 0.043952607 0.0068617095 0.14713673 -0.3120891 0.1883972 -0.122641474 -0.5927898 -0.033643566 0.2811653 -0.19483747 -0.19058703 -0.825909 -0.107933275 0.5503796 -0.49659267 0.16842046 0.028738106 0.2617062 0.38729683 0.459106 0.20550865 -0.84355545 -0.19882624 -0.21971323 -0.4595317 0.13784783 0.06719139 0.11347853 0.6410949 0.27878326 -0.33389837 0.5841657 0.06470906 -0.25302127 0.36204195 -0.22842626 -0.061281774 -0.4650023 0.09377259 0.14624926 -0.23331985 -0.0667746 0.4592131 -0.29903346 0.15791291 -0.030482722 0.35807458 0.38691908 0.2701554 -0.07287633 -0.21678925 -0.16251378 -0.066359326 0.5585439 0.38790092 0.019192146 -0.3745862 0.117171735 -0.3486375 0.07537071 -0.05769727 -0.19640201
YNL307C 0.22231437 -0.05084655 -0.009755611 0.34970695 -0.16099957 -0.48011583 0.42571265 -0.098323524 -0.46412146 -0.37386796 0.14201209 -0.1500267 0.19459136 0.2992319 0.21323386 0.2192571 -1.0522014 -0.8635382 -0.4063876 0.5882924 0.47856495 0.70346236 0.11778224 0.25242725 -0.16160476 0.49588743 -0.13367443 0.6999203 0.0471369 -0.10871258 0.05874184 -0.34327832 -0.1032024 0.10810037 -0.21797802 0.08210212 0.4249864 0.20131291 0.29181945 -0.09021502 -0.15969636 0.4038335 -0.2567955 0.23800102 0.04962376 -0.23289038 0.2536702 -0.1317961 -0.019340802 -0.1494759 -0.16664065 -0.33606997 0.34972763 0.20122898 0.13322209 0.87567866 -0.51894164 -0.81328464 0.045818023 0.19514535 0.11744302 -0.64865357 -0.24479713 0.22662944
YDR477W 0.651447 -0.36982542 -0.49371624 -0.14999193 0.34782448 -0.35541543 -0.32541794 0.012011568 -0.09256873 -0.8489473 0.22743587 0.042846996 -0.14399242 -0.054938473 0.05485141 0.75831383 -0.5365855 0.08877692 -0.08808306 0.032763988 0.09770803 0.2566441 -0.04014706 0.3020756 -0.24148643 0.94832313 -0.32407728 0.5450117 -0.4009912 0.0028271286 0.15128624 0.22365646 -0.31030896 -0.4107522 -0.21426567 -0.31274286 0.8474331 -0.3680119 -0.17750907 0.7267977 -0.3429075 -0.087459065 0.31293556 -0.71551454 0.58506113 0.07621686 0.1313612 -0.3283918 0.22350731 0.2836894 0.08243389 -0.14026031 -0.16228582 -0.0067695947 0.48806176 0.31225595 0.28821486 -0.28566223 -0.15825361 0.44596413 -0.33780184 -0.40713674 0.5628646 0.40855837
YIL035C 0.40889797 -0.22995447 0.2846452 -0.11020102 0.30153254 0.24032317 -0.5270587 -0.25509888 -0.15820497 0.11428514 0.8312732 0.3719678 -0.20639329 -0.6620663 -0.05921969 0.26676038 -0.41008794 0.26773247 0.04011147 0.40071124 0.21395731 0.6629502 0.05792062 -0.45833108 -0.0761618 -0.00986361 0.107155405 0.20654008 -0.15628721 -0.2624841 -0.2508804 -0.032084856 -0.24013574 0.13060677 -0.23585573 -0.34960434 0.29533353 -0.13194324 -0.31860906 -0.08084574 0.020256385 -0.201452 -0.35485294 -0.20851249 0.46873018 -0.59177184 -0.28338495 -0.051166926 0.061753906 0.6706244 0.11857624 -0.48292357 0.39981556 0.29405463 0.5416585 0.048824795 -0.111549415 0.26824987 -0.8166879 0.5456439 0.1660567 -0.11919309 -0.5148256 -0.0265533
YPR152C 0.43233433 -0.097064346 -0.25922439 0.7876087 0.1141192 -0.7999759 0.3156227 -0.6907664 -0.2708973 0.039908756 0.4309069 0.10052507 -0.09317025 -0.2647905 0.24454921 0.17036207 0.07842488 0.33468592 -0.04765605 0.6183195 -0.40059134 0.50801927 0.39204997 -0.71163017 -0.500448 -0.41701502 -0.039131515 -0.058930118 -0.21292315 -0.1571419 0.3205914 -0.25825766 -0.52054733 0.3901779 -0.2903383 0.0453537 -0.5412574 -0.12381255 -0.16067547 -0.008098387 -0.060519196 -0.06995637 -0.07453938 -0.096920006 0.45862818 0.40780818 -0.09866996 -0.22664468 -0.40368074 -0.057923857 0.21258532 -0.25363776 -0.22277056 0.32674566 0.16025385 0.5583136 0.48864108 -0.71677345 -0.3024937 0.06877789 0.2878823 -0.4085388 0.31493956 0.0030701044
YER133W 0.23875579 0.18076143 0.2661288 0.63947546 0.860857 0.12167829 -0.3617347 -0.0017376674 -0.4501876 -0.3572323 0.449413 -0.4027373 0.51214886 -0.50332326 -0.124313876 0.9626494 -0.19852805 -0.20888127 0.03435686 0.38989025 0.5978149 0.069540545 -0.24119052 -0.47296658 -0.31939128 0.1336454 0.10010016 0.29386273 0.02151994 -0.21221972 0.13459684 0.07029867 -0.40946856 0.2215482 -0.06860829 -0.24957776 0.25482816 -0.02657749 -0.14948411 -0.27541658 1.033665 0.47668937 -0.1420865 -0.2786077 0.5046146 0.065944076 0.019673022 0.0657383 0.15640678 0.1752628 0.049523182 0.11226547 0.6743378 -0.1826098 0.2116094 0.17076787 0.40230384 -0.24898206 -0.4469631 -0.33915928 0.15752882 -0.1348868 -0.026223097 0.49406788
YBL007C 0.6972585 -0.5167585 0.28128478 0.2529588 0.9449113 0.18194762 0.12144022 -0.6619272 -0.10516018 -0.30073604 -0.21583846 -0.21243916 -0.19302848 0.21685994 -0.2489641 0.34863272 -0.48052567 -0.4217852 -0.16536878 0.36398736 0.4471227 -0.04972312 0.1477539 -0.31357098 -0.31203377 0.3584111 -0.05085818 -0.7519033 0.032799326 -0.28612122 -0.0018425115 0.17119232 0.17497563 0.44701383 0.31379625 -0.08680795 -0.14426136 -0.6019784 -0.49039346 0.7172952 -0.3217086 0.061743293 -0.42724437 -0.4042763 0.41908795 -0.5942973 0.09229647 -0.3769784 -0.31224856 -0.10542545 0.31059095 0.13989383 0.5307316 0.1022466 0.19173609 -0.05468187 -0.6826145 -0.2077382 -0.14522634 -0.27213436 -0.45610425 0.0017402476 -0.014466681 0.60135394
YBR194W 0.48674396 -0.05530568 -0.117379405 0.7656899 0.06544099 -0.6702911 0.40736568 -0.68625927 -0.32886633 0.023300298 0.28486514 0.07183205 -0.051538117 -0.17216024 0.08149931 0.24478434 0.17787127 0.23570889 -0.024014719 0.76508665 -0.34733862 0.5993788 0.3845718 -0.63463396 -0.48869133 -0.41584712 -0.054049242 -0.018366128 -0.07614108 -0.0005834675 0.28734288 -0.24416752 -0.5100371 0.19374642 -0.13970545 -0.025728878 -0.51954746 -0.2271082 -0.15432659 -0.11354363 -0.0016015472 0.035696313 -0.0726542 -0.046426937 0.47816968 0.4256252 -0.30424178 -0.2882165 -0.43624443 -0.17095724 0.027709736 -0.16998412 -0.31521836 0.2017553 0.18410833 0.64744574 0.4381241 -0.76849586 -0.15755622 0.1362768 0.41850308 -0.48644286 0.35677776 -0.029497383
YFR028C 0.40085894 -0.02863491 -0.0037295367 0.5108765 -0.14132692 0.5218852 0.13000666 0.11013757 -0.14959545 -0.34944832 0.27856177 -0.11941864 -0.23117462 -0.2798886 -0.5910192 0.2887722 -0.46241695 0.51277626 0.13353363 0.76335394 0.47229424 0.2477224 -0.34859556 0.22605637 -0.40839788 0.04395706 -0.13981958 0.5127055 -0.18976538 -0.46585846 -0.1954201 0.09151393 -0.42456254 -0.4988203 -0.51055837 0.113918856 -0.4121208 -0.086243324 0.070377134 0.27057508 0.05500388 0.23953006 0.56451935 -0.5092718 0.02002251 -0.06341906 0.090467595 -0.2989214 -0.15855893 0.61577046 0.2619011 -0.89710915 0.45579147 -0.011529984 0.082279876 0.4024986 0.11261718 0.085447356 -0.13039899 0.79704237 -0.28830606 0.10790883 -0.37621817 0.47330016
YER125W -0.027006527 -0.020158341 -0.1156846 0.13949807 -0.12303004 -0.42657113 -1.0007759 -0.55371845 -0.12552471 -0.4270413 0.40926233 0.29623687 0.047691043 0.32458708 -0.005923166 0.49207708 -0.11446208 0.44110066 -0.51351005 0.022425413 0.77318436 0.3929088 1.0629612 -0.11427434 -0.8842625 0.33587024 0.0800729 -0.58625996 0.018002229 -0.31238708 0.37196353 0.6589767 -0.5445457 -0.14730395 -0.107702516 0.5576656 0.40300336 -0.34549752 0.11515153 0.3243035 -0.07190862 -0.2840679 0.21032482 -0.6716221 -0.26633006 -0.12670183 -0.036621697 -0.43486384 -0.33599028 0.0716678 0.48659366 -0.29175195 -0.05931734 0.10452029 0.21671079 0.00042686355 -0.38517693 0.05852355 -0.17641465 0.17057985 -0.34232935 -0.11861462 -0.82864857 0.22277376
YOR063W 0.51577824 -0.1301072 0.44529715 0.062185317 0.43466297 0.2528837 -0.30129915 -0.021361303 -0.8333627 0.031004721 0.120349824 -0.38283622 -0.17625533 -0.5405695 -0.253545 0.43045056 -0.18092108 -0.3393778 0.14881411 0.65629107 0.45912087 0.21471602 0.049994975 -0.2651218 -0.4140212 -0.17419833 -0.15847804 0.5210967 0.013125311 -0.060358662 0.7453461 0.31520745 0.029375574 0.24329743 -0.09404791 -0.13342606 0.4104991 -0.65906054 0.3455455 0.017753165 0.098382086 0.26587412 -0.2781184 0.03165841 0.85874254 -0.014850268 -0.15780114 0.1863319 -0.15382138 0.3870065 0.5253709 -0.09032644 -0.41310075 0.18498938 0.08608564 0.19945557 0.18504022 -0.19617392 -0.12468084 0.04743904 -0.36113492 -0.102417976 0.19239981 0.08867182
YJL187C 0.59832925 0.19577122 0.05499464 0.37829217 0.312173 -0.3881231 -0.057261392 -0.021916248 -0.019543476 -0.7517683 0.32647574 -0.31109166 -0.49000397 -0.7807388 0.12609275 0.032777067 -0.33177513 0.16781984 0.06989364 0.24988143 0.10263569 0.8056639 0.15669619 -0.402197 -0.52969986 0.4987705 -0.09800246 -0.34409085 0.49754173 -0.2694845 -0.14193252 -0.4774126 -0.63431245 -0.08389751 -0.34767178 0.007573749 0.35429406 0.5723643 0.6914847 0.0010051065 -0.4532531 -0.01191132 -0.17958334 -0.13356486 0.5408649 0.115530744 0.77337253 0.20464855 -0.056899957 0.7127407 -0.549917 0.22975157 0.038735192 0.18798539 0.0045988667 -0.115405835 0.3603556 -0.25652543 0.11622603 0.26734275 0.1788524 -0.33748677 0.08442437 0.1256611
YGL120C 0.24064153 -0.04689903 -0.26126742 -0.19938113 0.08496746 -0.10868223 -0.105378725 0.065516606 -0.64388937 0.026037669 0.40829137 -0.23144767 -0.26792774 -0.7209154 -0.06741621 0.38108283 -0.47164482 -0.20021601 -0.026472615 0.05430371 -0.28939757 0.8657034 -0.21127115 -0.6332891 -0.52487487 -0.020377956 -0.9307954 -0.12608293 -0.12905337 -0.040755074 0.5045081 -0.1503474 -0.1606941 0.37286222 -0.21804635 -0.08886022 -0.07906507 -0.825971 0.23686787 0.17734177 -0.09185342 0.12999782 -0.029596092 -0.0037952717 0.6105497 -0.9876728 -0.11027672 0.19443701 -0.19820549 0.2874712 0.32487962 -0.6510098 -0.10084788 0.38524133 0.18187678 0.18535864 0.2637004 -0.17721261 -0.18436147 0.16372794 -0.32144758 0.10038786 0.32159328 0.21092112
YFR034C 0.15617529 -0.7568797 0.06419148 -0.11856355 0.37706524 -0.16252963 0.55494565 0.27904275 -0.28776017 0.30593273 -0.16698493 -0.42852262 0.06848208 -0.06681458 0.22604007 0.58221626 -0.5940674 0.27122387 0.69276804 0.16157514 -0.20759438 0.23765776 0.5109098 -0.40403128 -0.16203347 0.11121942 -0.21346386 -0.03820799 -0.097481474 -0.17381966 0.85521084 -0.09565873 -0.05401165 0.121829584 0.44846183 0.88796514 -0.05535339 -0.29837948 -0.3886294 0.009351323 0.011440464 0.00026275948 -0.1326038 -0.61969155 0.44035324 0.17863561 -0.020565033 0.56739473 -0.0690908 0.80473965 0.82772267 0.11388698 -0.093853466 -0.120161615 0.14089054 0.20732124 -0.115846336 -0.13877353 -0.4727735 0.33241922 -0.003655089 -0.87114877 0.09391759 0.2954131
YBR106W 0.24721985 0.37964216 -0.2067554 0.24598485 -0.123342 -0.6932409 -0.37159732 -0.29071215 0.1766396 -0.021997208 0.2717335 -0.0010828295 -0.68438625 -0.49994 -0.08711149 0.22697808 -0.5950972 -0.05074948 -0.35411274 1.0560395 0.5600651 -0.39847916 0.17404768 -0.69794846 0.053069502 0.70352167 -0.9487544 0.20691688 0.27402997 0.5037938 -0.67174286 0.5435156 -0.011763789 -0.7951955 0.32019502 0.45282078 -0.17114139 -0.03955174 0.048492774 0.18066576 -0.4459734 0.0013088847 -0.10131634 0.16065902 0.3088892 -0.22343047 -0.059058413 -0.05076605 0.18862745 0.1172092 0.01174779 -0.23390216 0.20905648 0.05315977 0.13523254 0.14595887 -0.09953768 0.17187743 -0.40318555 -0.3501441 -0.5803526 -0.5936659 -0.003539963 0.027161913
YDL140C -0.048287936 -0.03532866 0.1826734 0.37251827 -0.07126977 0.051001754 -0.083021745 -0.10678817 0.34877822 -0.073813245 0.30471188 0.3164858 0.5810177 -0.34997585 0.643967 0.5760074 -0.19701321 0.40165117 -0.27518168 0.22033903 -0.044768255 0.37404007 0.70671177 -0.38968462 -0.3297406 0.19530632 -0.8474949 -0.3154245 -0.31598583 -0.030910157 0.38685766 -0.07968608 -0.44220415 -0.71472913 -0.04085095 -0.5138729 0.24696599 0.017030137 0.12869102 0.10712011 0.6529248 -0.10548623 -0.44468027 -0.6715978 0.5792222 -0.42010444 -0.10378002 -0.04136931 0.056464627 -0.048968717 -0.029360441 -0.21346809 -0.4803144 0.058998723 -0.072766535 0.33474228 0.198276 -0.31425917 -0.2956658 0.20132859 -0.23796354 -0.09966993 -0.54149634 -0.13611758
YNL110C 0.1675545 -0.103867196 0.17980923 0.39028403 0.3304617 -0.027736656 0.2799768 -0.08736455 -0.6354151 0.12446064 0.004132968 -0.45111963 -0.12581427 -0.97128665 -0.6398997 0.25282976 -0.3893901 -0.10003778 0.049619574 0.12777197 0.13443519 0.4685048 0.13784805 -0.36536485 -0.08742056 0.014412662 -0.41780865 0.5240638 -0.023069393 0.09838561 0.5075656 0.26913264 -0.34494415 0.55821866 -0.47620654 0.14988057 0.47834498 -0.69058174 0.15300979 0.18741946 -0.10110678 0.11562112 -0.44688502 -0.07199984 0.7656096 -0.3817328 -0.103467055 0.35546806 -0.16192493 0.42371187 0.44304323 0.05402567 -0.07851265 -0.1997246 0.2667589 0.32525805 0.25861877 -0.52134514 -0.23473552 0.06711057 -0.55173606 -0.37680587 0.36172843 -0.30675477
YMR229C 0.19446717 -0.4830938 0.31468177 -0.2388771 0.3836954 -0.77640134 0.06395528 -0.02046057 -0.39448225 -0.31937605 0.2224735 -0.423285 0.14132568 -0.602331 -0.11429611 0.48446852 -0.4346567 0.21749575 0.40234202 0.40912664 0.117412865 0.17736487 0.1330977 -0.50353825 -0.165065 -0.22968912 -0.27831748 0.27774385 -0.0145604815 -0.030206064 0.83223695 0.54258806 0.28026158 0.27839163 -0.18745118 -0.11533199 0.13259806 -0.4386517 0.37892088 0.029783798 -0.318084 -0.5844624 -0.11936747 -0.11742077 0.48507813 -0.32526618 0.16682094 0.061553575 -0.41520125 0.36609158 -0.009490328 -0.5277144 0.08937518 -0.18281822 0.0073357834 0.52968776 -0.05177104 -0.4434878 -0.6678116 0.11273462 -0.27058503 0.29077953 -0.096361995 -0.390711
YGL158W -0.089060515 0.22127399 0.4749133 -0.28930917 0.067882515 -0.6136392 0.0715773 -0.39469603 0.25042278 -0.6573753 -0.12801714 -0.52072895 0.32906625 0.070367634 -0.5071893 -0.13495569 -0.38715276 0.153607 -0.14230037 1.3773308 0.40875545 0.6734585 0.06931499 -0.04223591 0.462171 0.6976628 -0.12487684 -0.050551753 -0.6671167 -0.3617399 0.124385364 0.28189722 -0.18910684 -0.3242028 0.32777044 -0.5301024 0.21114996 0.2948034 -0.04499735 0.13881706 0.07949617 -0.09637959 -0.3454837 -0.28262463 0.36742145 -0.6167424 -0.45210037 0.081565715 0.48551154 0.1289652 -0.14938912 -0.1584113 -0.09600705 -0.10622601 0.4379637 0.7107148 -0.22750543 -0.13421623 -0.6826998 0.36017624 0.29727152 0.24599089 0.23023261 -0.12193145
YJL095W -0.51761734 -0.7023557 -0.3042367 0.7359008 0.4918077 -0.50905794 -0.015754782 0.1399554 -0.063267305 -0.05084857 0.39178157 -0.2538585 -0.016159121 -0.26056895 -0.08433899 0.26601842 -0.049094778 0.17187104 0.27385634 0.6347953 0.80623555 0.95808023 -0.023094743 -0.10432646 -0.34265307 -0.16053158 -0.020180946 0.27277103 -0.2578236 -0.5745169 0.027333202 0.42847395 -0.3079504 0.2546462 -0.21258041 0.17778982 -0.19339107 -0.39431235 0.19713932 -0.1466839 -0.18748528 0.04284226 -0.122042954 0.42905226 0.08326929 -0.6275304 0.50989574 -0.25555623 -0.1475694 -0.06834041 0.14664446 -0.4244874 0.566051 -0.16516623 0.44705102 0.2108603 0.10004785 -0.31815296 0.014532835 -0.5039338 -0.42880166 0.28982738 -0.4560665 0.6503502
YGR040W 0.45747817 0.18032886 0.5024685 0.4973913 0.048358113 -0.45749962 -0.11790738 -0.7296655 -0.23511015 -0.48944402 -0.3038342 -0.058506694 0.33354783 -0.20900752 0.13788556 0.04934722 0.20964685 -0.64467067 0.28842616 0.6536301 1.0833248 1.251869 0.017008727 0.080634706 0.26547447 -0.27061015 -0.120972686 -0.0721133 -0.07836007 -0.003999615 -0.3267873 -0.23754717 -0.38281593 -0.7938104 0.042770773 -0.3444275 -0.19246234 -0.31467947 0.27892652 0.49571842 -0.13462818 -0.14524294 0.03716678 -0.1341918 0.36656705 -0.21495424 0.06431422 0.07676395 -0.12564045 0.033142887 0.013824038 -0.48612216 0.89204764 0.17402683 0.47944435 0.4632907 0.41836807 0.046848923 -0.46501762 -0.21655598 -0.03837312 -0.20013218 0.072107956 -0.10901569
YBR159W 0.55020356 -0.22362718 -0.13082394 -0.26244998 0.14673012 -0.61798996 -0.1531007 -0.1781283 -0.12094819 -0.010589104 0.41607663 -0.19444576 -1.0068915 -0.22855774 0.4891624 0.11526389 -0.27621415 0.1312857 -0.08749722 0.67151403 0.60905784 -0.24654031 0.19271387 -0.6382766 0.07375032 0.47449505 -0.47568074 -0.043438304 0.35531485 0.6008171 -0.26256946 0.7595752 0.33596396 -0.5537238 0.5432898 0.38294017 0.4510688 0.0071281614 -0.030145839 0.097091995 -0.39600098 0.04721403 0.012029382 0.5941864 0.5054101 -0.28321412 -0.0865985 0.22791268 -0.2510292 0.38927698 -0.59369534 -0.15378402 0.09021526 0.17072195 0.40063828 0.23003381 0.22758338 -0.34506992 -0.38046962 -0.2919892 -0.57188725 -0.24032594 -0.4361634 0.42311606
YER148W 0.25974795 -0.3299302 0.08006266 0.2956639 -0.36453214 -0.090710275 0.39152625 0.0072919736 -0.45702147 -0.0100655025 0.00968372 -0.05481159 0.3360646 -0.4456771 0.2919679 0.12249757 -0.1882726 0.39821276 -0.03347053 0.5786592 -0.0070388475 0.87572074 -0.13306575 -0.40942657 0.2186274 -0.13718991 -0.42325708 -0.38072664 0.26897034 0.038939044 0.124963365 0.23221299 -0.8660046 -0.55545473 0.110552 -0.3118291 0.59271365 -0.06382398 -0.07926602 0.38404468 0.28954837 0.2123013 -0.645994 -0.18362077 0.11543847 -0.06751076 -0.3585462 0.30353075 -0.3058503 0.913894 0.19585152 -0.4626748 -0.59646183 -0.043696042 0.653033 -0.0914089 0.15524623 -0.18658973 -0.19322224 0.4965705 -0.058722805 -0.47250697 -0.09591436 0.06942252
YOR181W 0.47864503 -0.32942656 0.43179366 0.6462592 -0.08892587 -0.2993359 0.16501452 -0.22249162 0.069687195 0.046875726 0.6955473 -0.3246769 0.103895515 -0.13961883 -0.14894465 -0.058318794 -0.15482934 0.47729218 -0.25879306 0.56330645 0.4412811 0.009224412 0.2606746 -0.43614247 -0.09485936 0.4202316 0.19017527 -0.65948176 -0.0136294495 0.16103463 -0.13639288 0.09493703 0.064909056 0.113685444 -0.16634014 0.6013626 0.25454858 -0.2503599 -0.23109251 0.9190297 -0.4920003 -0.20643657 -0.14188 -0.42136237 0.12944058 -0.2556065 0.7339818 -0.09166521 -0.11286992 -0.0030423906 -0.0109169595 0.5460832 0.29300746 0.2521204 0.2551923 0.34333116 0.4144375 -0.6906816 0.23850687 0.02987457 -0.16309185 0.4427219 -0.107498 0.38463342
YOL127W 0.25724673 -0.12951587 0.30164406 0.39164197 0.16493799 0.19231802 -0.44151074 -0.24141964 -0.64330345 0.23501742 0.07143578 -0.45023715 0.011500344 -0.79005975 -0.1072929 0.14347968 -0.16932529 -0.023800932 0.061871856 0.5946389 0.3929156 0.3636175 0.18467973 -0.32752496 -0.48300472 -0.24645515 -0.1857827 0.4074638 -0.14298445 -0.15863194 0.74734515 0.24234357 -0.10425702 0.19402434 0.15209778 0.1371162 0.0871089 -0.57895243 0.31832054 0.2891667 0.004633606 0.36700493 -0.41840377 -0.020197216 1.2200471 -0.08008419 -0.14005665 0.2900642 -0.18945451 0.46671534 0.48789367 0.019998869 -0.18126899 0.21604715 0.09827217 -0.0997843 0.11392239 -0.039237462 -0.31259632 -0.059059802 -0.3050704 -0.11383798 0.0011895323 0.15057293
YBR010W 0.63111776 -0.33945417 0.015255238 0.04785596 -0.11769653 -0.24135254 0.37968582 -0.5028838 -0.005336389 0.24503186 0.42177755 -0.5637456 0.3942508 -0.12594046 -0.37206364 0.4292772 -0.24466708 -0.00016351399 -0.024633942 0.06053469 0.41170824 0.15213794 0.30627826 -0.48907572 -0.8208666 -0.2829089 -0.5420689 0.17911346 -0.6056183 0.2307837 0.057291932 -0.1291656 -0.52879304 0.24928658 0.66180265 -0.43388438 0.17478856 0.5687837 0.009124831 0.4088271 0.010834049 0.12658978 -0.25900272 -0.42773333 0.12035392 -0.14304003 0.18860716 -0.11248085 0.33023146 0.4366705 0.0774549 -0.12975793 -0.29247916 0.34362254 0.089606054 -0.37546566 0.19244999 -0.22454666 -0.66410583 1.044022 -0.15172121 -0.0838887 -0.27811328 -0.1402526
YDR064W 0.037377015 -0.3970638 0.120786056 0.28588083 -0.082919054 -0.28109807 -0.5370539 -0.4912319 -0.686891 0.47188148 0.3090161 -0.44103047 -0.14939652 -0.6542914 -0.44997677 0.28729853 -0.55415225 0.07996207 0.39903012 0.61372083 0.14369595 0.32415295 0.0027395473 -0.6634681 -0.25587633 0.02181096 -0.1714451 0.19300662 -0.23824763 -0.20155828 0.541684 0.3799116 -0.011324783 0.24724968 -0.015588872 -0.08240046 0.03207003 -0.5994277 -0.0805486 -0.043883763 -0.04115818 0.5705105 -0.38981414 -0.20140865 0.60062295 -0.25233698 0.21345781 0.5345454 0.11957258 -0.09161902 0.6911318 -0.091696285 -0.46760362 0.062723465 -0.27145362 0.40157095 0.2822336 0.12746881 -0.13844953 0.061119456 -0.57463837 0.22027093 -0.14164111 -0.046845257
YBR031W -0.05645523 0.08154329 0.28745794 0.20433874 0.11527928 0.36207324 -0.49119517 -0.398974 -0.7416907 0.09109138 0.15458108 -0.44152206 -0.34177577 -0.56063247 -0.23886476 0.09098345 -0.49734914 0.12659188 0.08971671 0.8581693 0.37796634 -0.06159547 0.198235 -0.5881381 -0.22853932 -0.26383898 -0.40957788 0.05605929 -0.32776788 -0.43670288 0.6650304 0.25080904 -0.058691338 0.12764332 -0.120503984 0.017195055 0.24070662 -0.48695666 0.32631913 -0.18962444 0.11175993 0.087260015 -0.21040802 -0.09390039 0.8567384 0.25247413 0.15739337 0.076783895 0.23618582 0.44525737 0.13158196 -0.1531693 -0.36518312 0.2612545 0.07903233 0.2318506 0.28140166 -0.19294636 -0.01035121 0.13223271 -0.4048207 0.20574972 0.24456973 -0.116744734
YMR242C 0.5224622 -0.08705867 0.35498345 0.33820048 0.18655188 0.16283678 -0.175431 -0.37826538 -0.8895139 0.17921722 -0.045149077 -0.7237977 -0.011341542 -0.43316793 -0.28876686 0.4666073 -0.23658998 0.12040614 0.11384951 0.6356798 0.31927663 0.3521407 -0.23133324 -0.32863396 -0.02806889 -0.14994848 -0.50682056 0.24763244 -0.32813394 -0.19919355 0.61460906 0.33259463 -0.062806346 0.14889117 -0.11156543 -0.0331122 0.31950673 -0.5008385 -0.006536506 0.1642569 0.12162853 0.039127287 -0.49079636 0.10745032 0.98388696 0.069302864 -0.120615445 0.36962304 0.07390705 0.30809912 0.40413797 -0.12896124 -0.6161439 -0.011875146 0.21756642 0.13518557 0.45283678 -0.116123155 -0.33210877 -0.038547225 -0.46424812 -0.10168727 0.06799866 -0.036081973
YMR290C -0.08881333 -0.12025276 0.20760088 0.010446491 0.24611267 -0.12043688 -0.24987432 -0.30189452 -0.653774 -0.16882855 0.19259882 -0.41571143 0.014052797 -0.74828076 -0.20532751 0.5475149 -0.161725 0.072393686 0.0578101 0.50386035 0.51513463 0.35381028 -0.031428773 -0.37754476 -0.08866143 -0.14874154 -0.5334275 0.5244131 -0.017806167 -0.10915572 0.6728666 0.40219364 -0.14879708 0.39565808 0.069181524 0.08595782 0.15899637 -0.7951989 0.3350995 -0.051171448 0.11965759 -0.06412831 -0.40559968 -0.026862847 0.86207235 -0.10891376 0.30984086 -0.23965108 -0.14192124 0.2988341 0.33541116 -0.3286487 0.35426128 0.31870857 -0.09236835 0.054656345 0.24572662 -0.062037326 -0.47726893 -0.04606239 -0.23377903 0.08625328 0.13953492 -0.36573508
YLR150W 0.17683901 -0.29696867 -0.09328766 0.05916848 -0.015199541 0.05349444 0.31946322 -0.39910775 -0.30912712 0.19185664 0.26820752 -0.22050573 -0.25949723 -0.89479893 -0.33368245 0.6605213 -0.31397954 -0.23627897 -0.2616985 0.33463234 -0.19534796 0.029487593 0.59784365 0.1947857 -0.47772586 0.4315477 -0.6877813 0.14146784 -0.35916927 0.08049192 0.63100696 0.00072057324 0.23511618 -0.014327345 0.3714096 -0.2486965 0.5678117 -0.45431027 -0.08807154 0.29945803 -0.08430393 0.280085 -0.25108272 0.031601235 1.0369653 -0.36371648 0.46878716 -0.24546844 0.24915487 1.0073318 -0.098129846 0.7304342 -0.38818875 -0.18326315 -0.14896174 -0.2616569 0.26290366 0.122179605 -0.31633258 -0.23565477 -0.20385674 0.20664845 -0.097636096 0.0642439
YFL039C 0.39549512 -0.15728396 0.09855514 0.37374234 0.40627694 -0.3748617 0.03666207 -0.937514 -0.08666065 -0.3976081 0.35300925 -0.532518 0.12822911 0.15292437 -0.22957464 0.082078315 0.6232176 0.15055531 0.08789008 0.5076887 0.008064258 0.3634597 -0.07191703 -0.5687194 -0.36039108 0.26296106 -0.18625008 -0.25847888 -0.25385705 0.46638435 0.47243613 0.29939586 0.17235504 -0.30460945 -0.27135372 0.5432518 0.1876695 0.6433356 -0.63416255 0.3467132 -0.27690685 0.3116768 -0.52783126 -0.47982243 -0.013817668 -0.09219952 -0.0029170485 -0.2288407 -0.55027044 0.4219909 0.57570124 -0.30075404 -0.2674007 -0.098402575 0.29396847 -0.19208115 1.0328133 -0.5666849 0.19293195 -0.18111432 -0.15444128 -0.09446175 -0.4718561 0.2074375
YGL137W 0.24913976 -0.5131134 -0.03492074 -0.018436769 0.04229068 -1.0020316 -0.309064 -0.08411628 -0.11949477 0.6361906 0.4689477 -0.4253169 -0.22271782 -0.2510271 0.25370863 -0.39527258 0.14394107 -0.096926264 -0.17095712 0.6360536 -0.36400467 0.45143363 0.0007313411 -0.85913664 0.19313867 0.59066844 0.09650876 0.11360395 -0.5945296 -0.276401 0.19149859 -0.070490964 -0.029280592 -1.1061058 -0.19656993 0.021298626 -0.11463495 0.14435424 0.14871874 0.44816756 0.3599381 0.30846718 0.20706521 -0.13321827 0.36410874 -0.046323404 0.28832173 -0.49118477 0.13130154 0.248328 0.23720232 0.14018945 0.63096833 0.16753492 -0.71760476 0.27795655 -0.29108366 -0.15642163 -0.118973516 0.16849677 -0.6322693 -0.20136176 -0.03521296 -0.02659455
YOR096W -0.0077357767 -0.39114383 0.25345168 0.1322834 0.07422149 -0.03611629 -0.20754057 -0.12930784 -0.8069671 0.20734257 0.28494567 -0.13903369 -0.31719393 -0.7402575 -0.30327335 0.5011296 -0.7636388 0.21790826 0.3694805 0.8444404 0.07927121 0.18628879 0.21851504 -0.6452373 -0.037089437 0.022317326 -0.2033379 0.25948048 -0.14137144 -0.12367691 0.6257199 0.31188825 0.028484853 0.48108992 -0.30619562 -0.1718769 -0.011456326 -0.5581392 -0.10515069 -0.12681025 -0.044383667 0.4344417 -0.37408388 -0.0741017 0.6742308 -0.099428736 0.07649023 0.36051145 0.003250461 0.22778809 0.5823991 -0.115727596 -0.53220004 0.18211609 -0.052507456 0.2748955 0.17528085 0.14688267 -0.10094637 -0.08055074 -0.6231312 0.17996204 -0.12641382 0.12559275
YLL045C 0.22704212 -0.112486266 0.33777654 0.20047739 0.3657087 0.039956182 -0.3494945 -0.3444646 -0.7287349 0.0018821621 0.44681993 -0.6513215 0.046480913 -0.59762543 -0.14980537 0.39230227 -0.30685568 0.1198142 0.14506327 0.47915494 0.12783594 0.38513088 0.03352807 -0.47224477 -0.25879174 -0.20722397 -0.34757072 0.5451917 -0.15948117 -0.048907813 0.6961065 0.43598813 -0.060077243 0.1105103 -0.12644772 0.13345374 0.032882962 -0.57036006 0.17901464 0.10936871 0.3163944 0.011990719 -0.43579367 0.17795895 1.0561087 0.093398914 -0.3045171 0.08594108 -0.01520495 0.23937306 0.4543051 -0.09334437 -0.22757396 0.13895357 -0.16605037 0.32723022 0.14818123 -0.2303704 -0.14436327 -0.15433207 -0.17433031 0.17255847 -0.0006814327 0.045157038
YHR052W 0.10407145 -0.22499385 0.3966742 0.3047557 0.6917553 0.18490833 0.1697869 -0.20200087 -0.51419145 -0.14452003 0.4354317 -0.017883833 -0.20230584 -0.8022869 -0.21477036 0.18027987 -0.33459386 -0.113255896 0.6046282 0.5815728 0.08925013 0.6199618 -0.0012341243 -0.27582565 -0.001394582 -0.31273982 -0.40346444 0.5568422 0.014811751 -0.3295931 0.67041475 0.32523385 -0.3577478 0.4765373 -0.15298143 0.18636458 0.4339934 -0.5938083 0.008317968 0.1370435 -0.110898405 -0.046798173 -0.110341005 0.21428956 1.1334018 -0.5083621 -0.0716417 -0.1934279 -0.028375877 0.2002251 0.09029759 0.24294531 0.111163706 0.24314433 0.13692412 0.087278366 0.0943249 -0.49013647 -0.17083625 0.22172716 -0.18956117 -0.088678725 0.15576495 -0.054275207
YMR186W 0.39473325 -0.33984908 0.5104317 0.1160276 -0.53149194 -0.13257195 0.06918277 -0.5448564 0.04677985 0.03999991 0.07756213 0.036536843 -0.023530107 -0.91542 -0.040579226 -0.058404643 0.048554435 0.03565615 0.09071343 0.9314804 -0.21209826 0.42889655 0.8027275 -0.3811145 0.12315628 -0.51578814 -0.7030542 0.26840737 -0.0070853042 -0.2073278 -0.06174599 -0.116615474 -0.47912237 0.03677528 -0.48458168 -0.037929088 0.5804713 0.5489078 -0.04506302 0.2508338 0.20644307 0.2707079 0.40620682 -0.26302516 -0.08394034 -0.019897463 -0.11134278 -0.4692229 -0.5446474 -0.27113637 -0.16716434 0.250633 0.13160095 0.14179088 -0.010088408 0.030684771 0.5604333 -0.5786909 0.09533125 0.20135172 -0.6101869 0.056513634 0.09569769 0.16736162
YBL016W 0.20889866 -0.3849895 -0.6593463 0.42003924 -0.3886499 -0.21608193 -0.012439372 -0.3823781 -0.44617558 0.06112314 -0.08287405 -0.06363074 0.40596682 -0.08871255 0.08431013 0.50248146 -0.041239772 -0.025217231 -0.023958627 1.020867 0.8319219 0.8335723 -0.051217526 -0.40303317 0.09631934 0.11157141 -0.24549547 0.28257248 0.2649505 -0.39719146 0.4852483 0.20112897 -0.05796396 -0.4070703 -0.42626536 -0.3497114 0.51351595 0.6259664 0.72796637 0.56656283 -0.5683682 0.304244 0.5095486 -0.25258374 0.38629746 0.27396107 0.42230994 0.25789052 -0.21381265 0.6380846 -0.04916495 -0.080612 0.6316178 0.42622805 0.21516933 -0.20675254 0.5815726 -0.011437591 -0.24967621 0.1028499 0.11809127 0.25336483 -0.3733144 0.2679691
YBL072C 0.34191647 -0.073084176 0.21182711 -0.032897357 -0.010426488 -0.10528176 -0.32603243 -0.34272537 -0.94934946 0.14024062 0.2647325 -0.19254124 -0.31738943 -0.7129277 0.09816149 0.20604435 -0.58384395 0.21504872 0.4239758 0.5940592 0.21024336 0.5201368 0.11656202 -0.77658683 -0.28391975 -0.19540006 -0.15379734 0.13251466 -0.20148192 -0.10094169 0.6722489 0.38090053 0.027644917 0.056087647 -0.052599687 -0.23791367 -0.2962266 -0.47752517 0.11418949 -0.13858415 -0.11562223 0.4450445 -0.48534942 -0.44439065 0.6103822 0.03167347 0.37587145 0.19802058 -0.0407973 0.059976052 0.28301942 -0.06026948 -0.5703984 0.026198082 -0.12999183 0.46120855 0.39131707 -0.13655584 -0.13098647 -0.11584569 -0.35442817 -0.056144115 0.09848816 -0.3810819
YLL036C -0.07796848 0.034631755 -0.19315113 0.015139254 0.12998119 -0.8004719 -0.04410615 -0.5398524 -0.7635509 0.5624566 0.6427791 -0.27559137 -0.39812538 -0.23071514 0.03310329 0.21207601 -0.5222986 -0.7891512 -0.14694169 0.6878656 -0.17279145 0.2690749 -0.03532286 0.043791987 -0.53117836 0.05698368 -0.3847646 -0.25669903 0.20539434 -0.17678945 0.15729989 -0.4872699 -0.4285672 0.59620476 -0.15534487 -0.14563099 -0.38820785 -0.07195086 -0.05887708 0.35228184 0.34974155 0.50428265 -0.07187251 -0.22259828 0.5247422 0.04636149 -0.06524198 0.2268741 -0.13921213 0.76231897 0.779756 -0.2612793 -0.8405798 0.39370024 0.20661472 0.7638736 0.5300237 -0.1607206 0.19920748 0.18800466 0.19106278 -0.13322741 -0.023679456 -0.31231132
YGR092W 0.5925877 0.10165709 0.22592033 0.047850966 0.31293294 -0.5661144 -0.22994697 -0.1800982 -0.6176421 0.16790767 -0.014843965 -0.3360473 -0.13997367 -0.1880814 0.03245382 -0.13013136 -0.4033785 0.31609592 -0.19561578 0.97243917 0.49735525 0.6012818 0.11626833 0.2881278 -0.21694192 1.0338234 -0.37192097 -0.45992255 -0.4688491 -0.35484347 0.77089703 -0.17536674 -0.26682645 -0.34075737 -0.2142085 0.124051824 0.2972995 0.36208588 -0.21655183 -0.40780243 -0.6872877 -0.1799759 -0.14604747 -0.6084323 0.10218703 -0.2933594 0.054986395 -0.06775541 0.12264212 0.05207169 -0.16974005 -0.5279061 0.8170781 -0.49981004 -0.15308394 0.28814462 0.19972122 0.04849186 -0.2532836 0.16149937 0.18552777 0.17968163 0.56122035 0.27823552
YLR291C -0.21293807 0.23388746 0.40448436 -0.5603245 0.028206794 -0.80483913 0.17791356 -0.71725297 -0.6017334 -0.2852051 0.40737617 -0.74446696 0.0068469536 -0.062486686 -0.5729483 0.6421435 -0.44743156 -0.12189388 -0.47771195 0.0030705454 0.7004862 0.78312504 -0.11825715 -0.13293096 -0.17008421 0.45826125 0.4116306 -0.4583272 0.5270573 0.49655735 -0.15781038 -0.15871502 -0.19056016 -0.46599397 -0.10233721 0.41332433 0.019858146 0.38892505 -0.2479535 -0.33497444 0.29313207 0.035383727 -0.4225223 -0.11306591 -0.047763117 0.07624631 -0.25118288 -0.7197855 -0.6663985 0.43786514 0.5442241 -0.23774 -0.06753295 0.09288102 -0.15567455 0.3880535 -0.573997 -0.43819147 0.2557475 1.0027379 -0.17790206 -0.18920924 0.24989259 0.74296266
YJR123W 0.5891601 -0.17778619 0.33196124 -0.17171071 -0.15994403 0.06301175 -0.24828775 -0.5057024 -0.60960484 0.32983264 0.061035816 -0.4742577 -0.20072173 -0.5114462 -0.07481479 0.2987683 -0.60392827 0.002325501 0.400679 0.6653564 -0.0036781947 0.4263473 -0.10239018 -0.6739662 -0.26349056 -0.2752936 -0.24896076 0.3210088 -0.11479844 -0.33240616 0.5819326 0.20318696 0.16114017 0.035253126 -0.037423022 0.14606051 0.0771675 -0.64255124 0.11953228 0.09521884 0.05849035 0.64620125 -0.0951917 -0.42465234 0.61297166 0.20139502 -0.039030228 0.541475 -0.22179048 0.42077062 0.58512187 -0.098778434 -0.5987143 -0.0062525454 -0.0036413737 0.39395148 0.13754368 0.11076045 0.028903525 -0.0648673 -0.41044182 -0.06980843 0.08062 -0.08873673
YML010W 0.4289395 -0.32569003 0.4192739 0.37083238 0.1503186 -0.08651179 -0.05975646 -0.15588202 0.08904943 0.0006178564 0.41063878 -0.05018389 0.6935579 -0.6388634 0.41873658 0.28159884 -0.62296265 -0.1080696 -0.82932687 0.22156335 0.21271184 0.44215196 0.48109204 -0.8832083 -0.36039978 -0.36073834 -0.0680343 -0.13052002 0.03621859 -0.14555651 0.811012 -0.07808997 -0.27190852 0.1077631 -0.07466079 -0.18976997 0.36435413 -0.082908094 0.4197225 -0.3586586 0.13930362 -0.2510311 -0.44376856 -0.54577667 0.6389844 -0.50046337 -0.2728782 0.32183355 -0.27505726 0.12686723 0.123241425 -0.29377154 -0.08733137 -0.34458843 -0.23479699 0.49484688 0.1083883 -0.037617624 -0.48688903 0.023064008 -0.0691257 -0.79200697 -0.39783245 -0.31868574
YOR244W 0.54237545 -0.106391974 -0.16458441 0.34437555 0.2506787 -0.5505589 -0.27771723 -0.22884908 -0.08632438 -0.14607057 0.6763279 0.07180205 -0.41039094 0.32661378 -0.27381706 0.42223087 0.27641636 -0.43064213 0.53433365 0.28991005 0.0905417 0.7801476 -0.057173844 0.24758452 -0.39056042 -0.22752446 0.40910026 0.16900852 0.14819758 -0.24070875 0.23712829 0.20255208 -0.31701788 -0.2709446 -0.1863406 -0.006187404 0.6148407 0.048333194 0.49156788 -0.13647193 -0.22663885 0.13707636 -0.87874264 -0.9287486 0.4054433 -0.3275638 0.040940404 0.061002314 0.53573847 0.5993636 0.29144529 -0.25798312 -0.5904584 0.101534784 0.60018444 -0.35047063 0.31400594 -1.0902313 -0.009570545 0.29684326 0.1836824 0.17924906 -0.303635 0.0044044023
YNL178W 0.24804987 -0.062336147 0.4632734 -0.0043339264 -0.23358119 0.2000756 -0.30196956 -0.25335467 -0.79059696 0.11455759 -0.026488733 -0.473689 -0.23944497 -0.5400542 -0.46953902 0.40915957 -0.4909929 -0.50595236 0.37041974 0.767063 -0.04958664 0.20548208 0.040716335 -0.43271995 -0.4914995 -0.1428627 -0.12145638 0.32982066 -0.36524153 -0.24610923 0.5261979 0.66487217 0.08127322 -0.15688583 -0.16432773 0.014512693 0.1486694 -0.4228658 -0.012515687 0.25315788 0.095242776 0.5203958 -0.5552715 -0.36851934 0.57191855 0.16685236 0.09890227 0.24337862 -0.057009116 0.37460712 0.4338754 -0.27046844 -0.64074886 0.071994565 0.030785726 0.34699568 0.27907136 -0.033817228 -0.10235596 0.047518764 -0.25565886 0.08277824 -0.084790215 -0.08460349
YPL153C 0.7207228 -0.16779633 0.31142437 0.69456106 -0.035908565 -0.5699531 0.50890934 -0.48465788 -0.23966119 -0.08048135 -0.13678601 -0.20071808 0.051459633 0.058228932 0.7047719 0.16224031 -0.49135637 0.016795924 -0.5794876 0.69661194 0.43819097 0.33621094 0.14981574 -0.33636957 0.012072319 0.24187493 -0.45701593 0.14469606 -0.5787159 -0.12903021 -0.56987137 -0.97179496 -0.0077861436 0.7151612 -0.13722312 0.079940826 0.120076105 0.3310872 0.3211826 -0.15086704 -0.3260365 0.14849843 -0.460952 -0.06845733 0.6092995 -0.79297566 0.5272328 0.005490495 0.27028248 0.21436466 0.34288046 0.022751208 0.22010452 -0.34992883 0.56525356 0.0031843442 0.059863746 0.063123845 0.23841232 0.42653728 -0.25436535 0.1623752 -0.5357067 0.074641034
YNL132W 0.19362228 -0.41607487 0.32187352 -0.1921089 0.21015272 -0.39794978 0.091182396 -0.2551549 -0.8673719 -0.14764 0.10133204 -0.55421203 -0.10514464 -1.0449451 0.07522201 0.14994888 -0.664935 0.21105576 0.4685609 0.5287156 0.30562887 0.37199268 -0.24968016 -0.6550093 -0.062943295 -0.070204474 -0.3315111 0.4006043 -0.13597241 -0.6638052 0.6248041 0.11025425 0.1343042 0.30084935 0.031451505 0.008607693 -0.023203345 -0.38361588 -0.29324147 -0.2641485 0.048502937 0.13706718 -0.39112747 0.023515573 0.3852258 -0.33452138 0.3685469 0.07549761 0.18557613 0.14124547 0.5527506 -0.020067548 -0.3305015 -0.12808463 -0.39253676 0.59011984 0.025345543 -0.2322436 -0.09726323 0.17168204 -0.16351539 0.0127985235 -0.5767463 -0.24841394
YDR328C 1.0093768 0.2584665 0.19345829 -0.57430613 0.6538098 -0.09474084 -0.012524673 -0.15138003 -0.08649056 0.018687071 0.41522992 0.19325331 -0.5633882 -0.35977912 -0.3351126 0.038281925 -0.4969444 0.35312158 0.4173739 0.46174145 -0.3955652 0.20545335 0.65295565 -0.5654386 -0.087510385 -0.2838574 -0.5086202 -0.13405372 0.2940137 -0.39956897 0.0048462525 -0.08173079 0.04127553 -0.53182465 0.25050205 0.40778401 -0.13041987 0.64944404 1.1632526 0.14323482 0.25578782 0.66040516 0.2185872 -0.48661914 0.8416171 -0.0031354546 -0.012108455 -0.009785701 -0.5166914 -0.6234367 0.66954523 -0.08952537 0.37376282 -0.4479523 0.2536704 0.379807 0.3900964 -0.08647233 0.029129913 0.34100512 0.5080129 0.11837165 0.019003537 0.13153926
YGR090W 0.23610367 -0.549799 0.13342933 -0.110418834 -0.26622865 -0.3866236 -0.16046453 -0.3964484 -0.25332654 -0.11397165 0.29096594 -0.047318168 0.043592952 -1.0220783 0.13272107 0.41228613 -0.40910092 0.31609952 0.27214518 0.22919764 0.5839357 0.4399414 -0.3726719 -0.91517895 -0.25911048 -0.12986024 -0.22594997 0.3511495 -0.043467727 -0.30383214 0.06396631 -0.013652094 -0.0574186 0.62351376 -0.28118008 -0.089456655 -0.18703231 -0.73192745 -0.07391967 -0.2098046 0.074328616 -0.18974975 -0.26266968 -0.3172845 0.3972931 -0.7717588 0.42882413 0.03355011 -0.012140374 0.38457018 0.4873079 0.18735446 -0.42877993 0.07321077 0.17979741 0.36734563 0.26345187 0.1651038 -0.26936385 -0.16979507 -0.79484344 0.0061651706 -0.12446296 0.07243192
YPL131W -0.2106649 -0.19814035 0.1387195 0.07793538 0.199415 0.2497096 -0.39187908 0.015768694 -0.62232286 -0.10676573 0.080572754 -0.24938019 -0.19092539 -0.50844073 0.06916234 0.40232718 -0.0060860147 -0.2512191 0.5931807 0.64583766 0.09401408 0.4128293 -0.04580022 -0.5502337 -0.34619498 -0.115827896 -0.3212113 0.108366504 -0.035584126 0.06362019 0.91761386 0.36602366 -0.34126124 0.14302154 -0.021751184 0.05306152 0.237314 -0.66403335 0.25512964 0.17375135 -0.13057455 -0.03505416 -0.41412455 0.117608115 0.97533715 -0.1577926 -0.0996901 -0.16617851 0.06652828 0.4865746 0.3893122 0.26255572 -0.17587389 0.06717468 -0.14160593 0.26204535 0.25765702 -0.6495647 -0.4815969 0.2247244 -0.4613936 0.092284955 0.018461255 0.14970697
YGR103W 0.09734113 -0.20147817 0.42219397 0.29362115 0.3133844 0.13858277 -0.012013865 0.20342486 -0.27889892 0.006936235 0.4393644 -0.34747443 -0.14645952 -1.1594291 -0.2095399 0.2593685 0.24085806 0.056673516 -0.28700373 0.61330485 0.62154925 0.5621182 -0.08377592 -0.19981872 -0.2936273 -0.28965157 -0.40766978 0.6992614 0.026247662 -0.16604303 0.45180228 0.48970315 -0.22979276 0.2814519 0.16977006 -0.26054335 0.1730726 -0.3691968 0.101752825 0.062022824 0.095057055 -0.2462257 -0.4272479 0.26019326 1.0545621 -0.06063062 -0.424095 0.107684605 0.24578924 0.332568 0.18560605 -0.018861927 0.31043586 0.15862031 0.05269089 0.17716666 0.20280951 -0.35405916 -0.3079732 0.5716046 0.01879532 -0.03457734 0.018213099 0.08431581
YPL082C 0.336838 0.34425774 0.19980237 0.3111814 -0.69989973 -0.08601349 0.45549357 -0.14966497 0.62222064 -0.21473227 0.31653926 -0.31690332 0.11663198 -0.27106252 -0.27484682 0.55047977 -0.35358363 -0.10154672 0.034702037 0.951895 -0.37405702 0.5731864 0.2058291 -0.27760953 0.26776782 0.110183224 -0.4565006 0.06201611 -0.09486206 -0.11196263 0.3684791 -0.029181017 -0.76977766 -0.05458299 0.35667202 0.03910825 0.45954928 -0.21697637 -0.1351685 0.32335615 0.43839902 0.19526392 -0.69937134 0.014663425 -0.26029506 -0.17098272 0.42365095 -0.13914822 -0.18906322 0.55921525 0.79022056 -0.29988956 -0.56652963 -0.022234922 0.07532992 -0.0030055281 0.16357812 -0.81888956 -0.439903 0.32126787 -0.035746194 0.15376392 -0.6084987 0.16668244
YJR145C 0.33708984 -0.51853746 0.22594085 0.04700907 -0.19859292 0.16385278 -0.2606556 -0.60367084 -0.710235 0.22077908 0.049983714 -0.11088779 -0.22988236 -0.7832244 -0.24673368 0.45022503 -0.45603496 0.011385695 0.5514133 0.7568453 0.30706248 0.33830208 0.30572152 -0.64129835 -0.013898659 0.12052293 -0.13255733 0.1505375 -0.111048296 0.13010703 0.9227321 0.042752698 -0.1608491 0.29174998 0.042235456 -0.022254026 0.08178013 -0.5393173 -0.16537736 -0.16472732 0.06479626 0.1958984 -0.61992806 -0.27850983 0.43882802 -0.10598667 0.07003996 -0.10685901 -0.06257966 0.2560262 0.29832482 -0.1928186 -0.56153655 0.09494453 -0.39735398 0.34543535 0.15805739 -0.008867832 -0.32081488 -0.38784128 -0.47406602 0.33432475 0.011180073 -0.12054969
YNL209W 0.20863923 -0.13243982 0.35254753 -0.38392252 -0.2799152 -0.26576868 -0.39715135 -0.18672979 -0.4774999 -0.5582057 0.7290378 -0.6624238 0.22696377 -0.58929443 -0.3706956 -0.28001973 -0.22949612 -0.08859829 0.3957181 0.6517128 -0.07275946 -0.4995552 0.82585186 -0.21053334 -0.5504571 -0.19777769 0.15267886 0.39087602 0.23449619 -0.16751057 0.801953 0.40114096 -0.2601254 0.043661427 -0.10862204 0.0064844694 0.14761144 -0.12101016 0.18118463 0.08396951 0.388177 0.12301255 0.12856562 -0.39628887 0.12650666 -0.12950233 0.0250258 -0.60454 -0.23387973 0.30983907 0.062812686 0.32215312 0.37664267 0.035647657 0.20413838 -0.009109917 0.5975211 -0.009096711 -0.4336399 0.32530618 -0.7571455 0.38983613 -0.101094335 0.53914624
YLR075W 0.38428918 -0.16509646 0.48856017 0.31759953 0.1649393 -0.058896977 -0.23534676 -0.5253599 -0.57324636 0.22430016 -0.045023486 -0.4558265 -0.5957908 -0.68757516 -0.016653078 0.12277607 -0.29844734 -0.26217094 0.07884443 0.9742987 -0.026999943 0.44754595 0.14473768 -0.6274864 -0.05702654 -0.25366822 -0.31926575 0.44394156 -0.14567606 -0.37747383 0.42864627 0.6145418 0.548289 0.020969654 0.16192628 0.04229695 0.26369327 -0.53657657 -0.3006599 0.13397118 0.2996901 0.3044685 -0.014071337 -0.055598717 0.98110116 0.17804791 0.087025255 -0.055897214 0.037376687 0.25183266 0.35337797 -0.017473672 -0.48622954 -0.07857823 -0.20408854 0.19519694 -0.15010072 -0.054251608 -0.08925895 0.102612816 -0.31368908 -0.09448518 0.119315274 0.17925978
YHL007C 0.1521844 -0.8175836 -0.40336266 0.39784867 0.30295464 -0.21167521 -0.03293189 -0.28818986 0.14404763 0.043290634 0.32826164 -0.44859546 -0.34259364 0.63061774 0.7656873 0.017974097 -0.9279351 -0.36034504 0.095400125 0.87563753 0.5268057 0.6399296 0.49935842 -0.46260214 0.15932015 0.05388292 -0.15078357 -0.18060641 -0.15468572 0.018907303 0.48890883 0.19141468 -0.6498807 0.034575593 -0.71624005 -0.21954976 -0.41795403 0.2573899 0.5876785 -0.110629454 -0.23520908 -0.48656103 0.024792656 0.07015576 -0.047847584 0.121875934 -0.08481918 -0.14434935 0.018483028 0.14917345 -0.1893075 0.15141945 0.4320518 0.42838347 0.59374833 0.04074307 0.19805461 0.020459801 -0.1097614 0.42704996 -0.39195913 -0.30038074 -0.37727857 0.31913397
YLR340W -0.09577015 -0.23341241 -0.007807912 0.35005713 -0.22642374 0.44281086 -0.08114853 -0.29774746 -0.5668341 0.45469803 -0.14726366 -0.40182728 0.041991483 -0.7862444 -0.25645745 0.5202101 -0.49494788 -0.31624106 0.25063267 0.9478063 0.33385116 0.025048727 0.27223057 -0.5225325 -0.43008536 0.036143247 -0.16020624 0.33875057 -0.10116801 0.2251614 0.60942614 0.53353035 0.029658258 -0.40318394 -0.33297133 -0.35022953 0.06755398 -0.53151065 0.094124 0.51365775 0.3938633 0.24570566 -0.36710852 -0.17294195 0.84144604 0.6299712 0.34699264 -0.07153961 -0.23798671 0.40336052 0.21877155 0.089086965 -0.21573631 -0.15244713 -0.07143033 0.114778735 0.06271926 -0.32630214 -0.32683793 0.13040453 -0.29590875 -0.10963754 0.16231674 0.108220756
YPL141C -0.18628407 -0.3342143 0.36607483 0.0022667295 0.80039674 0.006160181 -0.044221915 0.085970476 -0.11352128 -0.22785528 0.5332972 -0.31191406 -0.09230724 -0.385863 0.2274231 0.35946608 -0.27350467 -0.14174359 0.5278409 0.74738705 0.46751487 0.9217746 0.611494 -0.26441976 0.007917552 0.41444477 -0.08506804 -0.27578273 -0.0002026321 -0.10526932 -0.606959 0.3763891 -0.11879533 -0.06852226 -0.5353968 0.12228689 -0.17937256 0.42909214 0.32725552 0.31068546 -0.6491019 -0.4063293 -0.9803934 0.3993659 0.49792168 -0.9591294 -0.07643255 -0.4876645 0.5780968 -0.18781467 -0.15461521 -0.53026557 -0.022978589 -0.21012072 0.2928721 -0.08205495 0.019088393 -0.28531072 -0.16512153 0.13241856 0.050202828 -0.13334067 0.18304983 -0.1390196
YPL093W 0.07977893 -0.24705878 0.5137582 0.4927101 0.21386786 0.17234209 -0.19399285 -0.182842 -0.46328762 0.07117503 0.19567236 -0.6084059 0.053007174 -0.63138086 0.0044587906 0.588745 -0.11346961 0.1558219 -0.08285762 0.48444793 0.32300413 0.6253916 -0.23388033 -0.47313374 -0.33669448 -0.13508222 -0.39682415 0.6519566 0.28866532 -0.1914255 0.658017 0.25793934 -0.14757045 0.47001433 -0.1902163 0.4569933 0.103951976 -0.621464 0.026953587 0.105126984 -0.23248777 -0.16925593 -0.31863567 0.3545333 0.99357253 -0.2627164 -0.014168403 -0.025283106 -0.3992214 0.27498952 0.3269521 -0.078358896 0.1686736 0.09051813 0.133965 0.083964296 -0.0096743405 -0.30344614 -0.5631617 0.16137041 -0.000979145 -0.182665 -0.066603154 0.010505606
YLL024C 0.06349034 -1.0959934 0.55708104 -0.32768434 -0.32544553 -0.07998185 -0.07133418 -0.1876435 -0.23126964 -0.5711001 -0.057450637 -0.20539966 0.42062652 -0.5237921 -0.028733581 0.050192058 -0.16442837 -0.05872609 0.18191464 0.73647636 0.1496091 -0.4369656 0.6949322 -0.48364767 -0.18385367 -0.08629798 -0.048243828 -0.3614307 0.279879 -0.13752441 0.07917768 -0.3072561 -0.39472973 0.07201429 -0.0011114368 0.28458586 0.48688436 -0.11611989 0.720483 0.17142932 0.25447956 0.031489898 0.07956404 -0.3588704 0.4447879 -0.0952898 -0.30268607 -0.11972931 -0.25943124 -0.33293217 0.48831153 -0.45369288 -0.30520532 0.2542976 0.24491733 0.59280556 0.3017155 -0.1012103 -0.5346111 0.7880832 -0.17122641 0.59275967 -0.0053573884 0.32267442
YML073C -0.09991653 -0.13856511 0.60843647 0.28134078 -0.20445047 0.27607584 -0.36046997 -0.29429755 -0.80472225 0.4800026 -0.014462871 -0.6709138 -0.18483987 -0.5502694 -0.05410387 0.32828668 -0.55343235 0.07905678 -0.2794018 0.90834635 0.12817648 0.31172687 0.324988 -0.3916784 -0.22385287 -0.08696424 -0.046548635 0.41849855 -0.25704882 -0.27206993 0.479971 0.54292333 -0.15239412 0.12355876 0.0096658785 0.050419345 0.08178942 -0.6591115 0.18173401 0.06952678 -0.019020291 0.23149809 -0.52646065 0.104533516 0.8484784 0.08661561 -0.08246567 0.32538238 0.15109724 0.4517293 0.35882968 0.021477887 -0.5819562 0.22842169 0.18669121 0.22979316 0.24335435 -0.2152393 -0.14886184 -0.2983036 -0.352604 0.031703766 0.044780035 -0.07413358
YOR061W 0.40207198 -0.68079275 0.20461875 0.24010782 0.30116928 0.28958413 -0.51102376 -0.09241439 0.19478801 -0.44162574 0.79560316 0.08430002 -0.23247436 -1.0190103 -0.10935514 0.24190602 -0.48627537 0.070809454 -0.1681054 0.15323395 0.22099914 0.40280044 -0.080671325 -0.7307641 -0.009673354 -0.29718575 -0.21334603 0.33011556 0.12260565 -0.31533283 -0.3452668 0.3104536 -0.65701455 -0.035049424 -0.36280066 -0.34911346 0.085617095 0.029416746 -0.38082957 -0.29747587 0.059452306 0.006308074 -0.022245266 -0.24902174 0.22531182 -0.34332103 0.12055994 -0.5146131 0.06271748 0.67238384 0.06673982 -0.18727022 -0.031371035 0.2884578 0.36863863 0.35710862 0.07559437 0.13804743 -0.49421582 0.36138168 -0.14868985 -0.3357912 -0.15454517 0.30077875
YLR096W 0.387962 -0.53307825 0.3206786 0.7853864 -0.27664468 0.049603183 -0.35100368 0.058261454 0.084829524 0.17733702 0.291639 0.22361155 -0.25510463 -0.57349724 0.003323463 0.534676 -0.62797874 -0.67331403 0.3105537 -0.49826366 0.5991723 1.0215715 -0.058270056 -0.27897295 -0.3427472 0.7923881 -0.8390734 0.027231378 0.107878365 -0.38196012 -0.38412023 -0.3453124 -0.25950095 -0.25209075 -0.21882527 -0.30081743 0.41154101 -0.031401888 -0.4405652 -0.21295671 0.042337418 0.32589468 0.24833167 -0.425527 0.3399305 0.06939635 0.40207523 -0.64872503 0.28917566 -0.28224376 0.19463001 -0.14301254 0.4245809 -0.0027252936 0.21363561 0.14890411 0.50268203 -0.28344542 0.1718491 -0.025660805 0.12177672 -0.48342833 0.13694939 0.62524605
YBR109C 0.50260615 0.26315123 -0.04255259 0.3276867 0.50330216 -0.29685608 0.42974102 0.20309818 -0.7904593 -0.9666413 0.87231594 -0.592847 0.48538497 0.2793754 -0.010950337 0.46478727 0.051317565 0.05987921 0.011943413 0.8006065 -0.21916702 0.39223787 0.30113503 -0.42533067 -0.4064893 -0.17485496 0.021894699 0.10962215 0.24861002 0.408729 -0.65322477 -0.00035184502 0.038422994 -0.33085182 -0.0142820645 0.30039206 0.36424282 0.14938575 -0.054432813 0.35021368 -0.15985842 0.38499644 -0.17491344 -0.33396465 0.2639746 -0.85661745 -0.1059058 0.12272799 -0.29290852 0.095498204 -0.57016134 0.4106354 0.040500484 0.20084721 -0.23320967 0.30820164 0.8981721 0.35522413 0.4501909 0.14369397 -0.95377886 -0.2704998 -0.62760836 0.20895119
YGL207W 0.26393592 -0.6331458 0.15990567 0.79898715 0.05937218 -0.11795271 0.54397005 -0.10574897 0.4304125 -0.34641358 0.5345402 -0.15528214 -0.36024266 -0.728278 -0.085311465 0.3840921 -0.4563734 -0.3144736 -0.20216766 0.46780255 -0.31074774 0.4781926 0.3377528 0.20043167 -0.28049606 -0.19484663 -0.10068438 -0.028697945 -0.35035443 0.24112262 -0.20737545 -0.034257717 -0.47806942 -0.49555698 -0.07018473 -0.20230062 -0.07091649 0.014376615 0.19876668 0.1479057 -0.38968572 0.036816068 -0.573836 -0.6888686 0.33912918 -0.33445343 -0.08943228 -0.3853024 -0.20820226 0.1635779 0.556028 -0.35904783 -0.5594586 0.23657164 -0.016062869 -0.2461278 0.09458739 0.29972655 -1.043471 0.2451575 0.076070584 -0.39949632 -0.5646405 -0.10329451
YOR310C -0.029414445 -0.16486031 -0.28419796 -0.00077507424 0.31523633 -0.8113145 -0.10489066 -0.43902117 -0.7375981 -0.3030459 0.30823612 -0.25684348 -0.3479878 -0.68941385 0.22004618 0.24567814 -0.6941984 0.36474738 0.09092098 0.42340246 0.12956522 0.37390384 0.07771681 -0.6609711 -0.45578626 -0.09509673 -0.26158744 0.24430025 0.09861041 -0.23334542 0.618417 -0.30254287 -0.57441175 0.2217866 -0.15559782 0.057187356 0.30987936 -0.65712565 -0.034551736 -0.3087296 -0.031347327 -0.12427494 -0.4267762 -0.02436354 0.3969618 -0.2875873 -0.053679273 0.46628892 -0.22570214 -0.27880964 0.9000371 -0.17539397 -0.25018138 -0.093980886 0.3551115 -0.15100084 0.08433789 -0.044543292 -0.03516055 -0.14629847 -0.5307214 0.14207198 -0.023002068 -0.43392903
YMR001C 0.11426198 -0.48365176 0.13906072 0.67348844 0.20650321 -0.2650414 0.4903286 -0.46427587 -0.3659441 -0.53489685 0.27859515 -0.7589699 0.015359372 -0.018620437 0.112747595 0.48541877 -0.18416803 -0.01509556 -0.44063395 0.5992902 0.20727785 -0.21421364 -0.3200724 0.12668839 -0.44258374 0.45098296 -0.3366455 0.023727039 -0.15272956 -0.21278128 0.0026406741 0.19476902 -0.80967176 -0.3371127 0.41887388 0.20005943 -0.589321 -0.4749859 0.18578589 -0.61125296 -0.065242544 -0.09654697 0.27759272 -0.7588799 0.58347225 0.19562323 0.07897617 -0.6028167 0.24728832 0.37905037 0.04192857 -0.75415313 0.20286122 -0.9831529 0.26270965 0.12439453 0.56965566 0.15210594 -0.02093493 0.36337015 -0.11716912 0.14400597 -0.24174693 -0.013748303
YKL101W -0.06811295 -0.72341675 0.18996482 0.056881845 -0.01411391 -0.3811424 0.11898143 0.06563524 -0.27838844 -0.07200622 0.46129206 -0.6251703 0.06572778 -0.086619884 -0.32947198 0.14848685 -0.3815058 -0.21464172 0.18698369 1.1068385 0.44066757 0.78636795 0.42844853 0.53732014 0.1507452 0.37125427 0.070749186 -0.30305505 -0.3743654 0.14541781 -0.1375042 0.017118942 -0.45498687 -0.21834286 -0.52371466 0.08543175 0.080496006 0.06440501 0.52557933 0.1991112 -0.86344033 -0.21310183 -0.38311696 -0.18979268 0.0944081 -0.1342028 -0.056190066 0.15652531 0.28973246 0.061282117 0.30095077 -0.4934784 0.1890067 -0.5577684 0.114422046 0.79165894 0.33270833 -0.44372252 0.0022773647 0.29132828 0.47338516 0.073062114 -0.36471722 -0.12822339
YMR308C 0.25677055 -0.05818092 0.3880558 -0.14848116 -0.10577416 -0.20142832 0.4786745 -0.48314208 -0.040783558 0.29387683 0.111173935 -0.22781883 0.4237793 -0.34257856 -0.06628918 0.22461765 0.4180139 -0.23584275 0.2457241 0.15472512 0.5959618 0.6949189 -0.33351526 -0.6737803 -0.51906025 -0.29865578 -0.17099817 -0.084517404 0.14218347 -0.43476182 0.5810715 0.11619507 -0.18253307 -0.20761244 0.43864322 0.13089782 0.058715567 0.16890222 0.015862849 -0.6488908 -0.03890233 -0.4132105 0.054002307 -0.4842444 0.8554447 -0.05572766 -0.13962916 0.23244473 0.013522331 -0.45768273 0.26066542 -0.14277954 0.058375236 0.7378936 0.69389117 -0.16713282 -0.004677052 -0.5721487 0.17754886 1.0763227 -0.7790372 -0.44982484 -0.035638187 0.0018309108
YLR423C 0.6031821 0.20459695 0.90891916 -0.05329334 -0.2131837 0.0970063 -0.08730679 -0.76630276 -0.19639322 -0.015839696 0.4630166 -0.2125891 0.82288617 -0.14156663 0.3088321 0.55879927 -0.42390952 -0.12126768 -0.15694925 0.15628341 0.58333594 -0.2332803 -0.3164352 -0.075780004 0.42885154 1.0578983 -0.60672086 -0.61073107 -0.3572588 0.25152835 0.3735244 0.55117613 -0.66401523 0.58745867 -0.5752006 0.19927925 -0.3869215 0.23667409 -0.13562205 0.089703545 0.16899753 -0.0069262707 0.43431053 0.120852664 0.22074696 0.030338362 -0.48492727 -0.3444033 -0.86763537 0.46937698 0.2677276 -0.43714762 0.09757975 0.5484859 0.6396653 -0.3072033 0.2109837 -0.94828016 0.13946332 -0.0014515088 -0.23948948 0.42170575 -0.12651977 -0.20302781
YFR031C-A 0.14998393 -0.2693282 0.59124124 0.15747486 0.394952 0.27023488 -0.12702519 -0.07689026 -0.9431252 0.0066062296 0.28740817 -0.4633584 0.046655033 -0.5557304 -0.36200696 0.39300594 -0.44549382 -0.000580561 0.16135894 0.76017857 0.07130035 0.29174277 0.16096248 -0.41080528 -0.61936486 -0.027834289 -0.0699612 0.2492345 -0.022230007 -0.23299426 0.7113974 0.4028943 0.330995 0.12572873 0.23237838 0.25343776 -0.035107378 -0.4732612 0.1617321 0.3438991 0.179188 0.19631673 -0.66758096 0.033357114 1.2229779 0.22796236 -0.22719197 0.43609208 0.005295871 0.19446641 0.18572813 0.020437166 -0.22798042 0.029820034 -0.19269316 0.056219097 -0.13766678 0.118056685 -0.072862186 0.05385821 -0.47502646 -0.2675958 0.07487441 0.122923754
YDR412W 0.07323523 -0.08613871 0.51380414 0.74105376 0.19154568 -0.049682338 -0.23302884 0.08627476 -0.3210326 0.256342 -0.0490389 -0.7799524 0.24343997 -0.5227353 -0.4244852 0.37477076 -0.0037313956 -0.15173285 0.11512544 0.36070547 -0.14957237 0.5637618 -0.14971808 -0.3664776 -0.15889613 0.33184 -0.28694284 0.3799337 0.05846947 -0.3489395 0.94015634 0.3023388 -0.056379404 0.5001776 0.028286722 0.48250654 0.2543452 -0.515681 -0.0005268281 -0.1148863 0.4673414 0.15215461 -0.51367515 -0.12963952 1.568448 -0.2643392 -0.11799491 -0.08405794 -0.08996223 -0.080436304 0.35375148 -0.12391267 -0.0991843 0.09018233 0.16080105 0.29276946 0.06275782 -0.39463112 -0.11350193 0.34564075 -0.6618741 -0.1346594 0.09715691 0.19361535
YGL030W 0.1186395 0.107419 0.32315597 0.28492892 0.14518474 0.10838003 -0.17002785 -0.57791764 -0.75248677 0.12793024 0.14935854 -0.27076825 0.037427597 -0.64765257 -0.47955465 0.21772307 -0.35963988 0.24654776 -0.032782473 1.0713059 0.30977616 0.43802884 -0.026867194 -0.20217296 -0.33057144 -0.5262915 -0.2626157 0.2889091 -0.21515201 -0.2628466 0.4800608 0.21240896 -0.2203636 -0.120472625 -0.26828724 0.049705755 0.11076042 -0.6328376 -0.25406224 0.13566296 0.0029521803 0.047287446 -0.35938883 0.10239941 1.1602907 -0.32589307 -0.024907582 0.23181805 0.022767616 0.20149353 0.6301773 0.1804757 -0.5147442 0.092609495 0.1293549 0.023140566 -0.25387424 -0.2860425 -0.15707676 -0.12326404 -0.108713806 -0.12567501 0.05344696 -0.052928805
YPL235W 0.0068517257 0.17641899 0.11650476 0.053692073 0.22651422 -0.6379735 -0.06730253 -0.8965096 0.0025423532 0.013234432 -0.02495057 -0.19188794 0.07154309 -0.18126792 0.17847513 -0.15710635 -0.069692746 0.066724546 0.18760927 1.0607024 0.04153707 0.0014848716 -0.026896508 -0.46346176 -0.21191217 -0.40829253 -0.5588851 0.1556019 0.0073760916 -0.54968005 -0.012329898 -0.1912481 -0.71412015 -0.11969094 -0.1592514 0.6788829 0.23722385 0.13944688 -0.6335639 0.0043532867 0.1083338 0.21016413 0.03336761 -0.13464746 0.45876515 -0.59599704 0.41585022 -0.2853932 -0.68491703 0.45165455 0.7098023 -0.64914894 -0.53390026 -0.46309578 0.18269487 -0.52764565 -0.055439048 -0.49670428 0.30715945 0.14891939 0.12592469 -0.34700793 -0.4076729 -0.015611867
YMR047C -0.12198097 -0.742427 0.57737 0.32406998 -0.24924757 -0.43669927 0.34343204 0.06264953 0.028092844 -0.19012779 0.13958564 0.08998204 -0.022004252 -0.7427693 -0.34822622 0.07843523 -0.11237163 -0.047196515 0.43609595 0.4031071 -0.06135351 0.3227924 0.08841642 -0.5263275 -0.57839423 0.31055227 -0.71987796 -0.0045179995 0.8682876 -0.011968296 0.6096953 0.1179661 0.22590007 0.15474826 -0.23079748 0.11792931 0.04113268 -0.32264844 -0.011039454 -0.33964527 0.07700191 0.37897265 -0.3601535 -0.12534471 1.1857461 0.23293105 -0.2908558 -0.27891916 0.13887978 -0.43575308 0.08450177 -0.40859225 0.28180954 -0.053256493 0.4083997 -0.26405403 -0.106247954 -0.4272025 0.032074872 0.7475285 -0.34428847 0.22398497 -0.017488502 -0.120266356
YJL092W 0.09740974 -0.064380944 0.7712834 -0.010327105 -0.463849 0.023860019 -0.20261651 0.27846462 0.058912285 0.4503183 0.77389455 0.45841706 -0.067896575 0.505472 0.6303204 -0.5663088 -0.9119421 -0.23738623 0.30213907 0.9864492 0.36566418 0.29504296 0.354315 0.5534864 -0.27114233 0.12840042 -0.40067014 0.006404097 0.3157844 -0.56969774 0.10345164 0.25942212 -0.20687477 0.25057232 0.28826547 -0.07936749 -0.28559855 -0.20909077 0.0019683305 0.17168832 -0.30518386 -0.098495014 -0.7143901 -0.34586564 0.2651231 -0.7057573 0.29770505 -0.016469175 0.22581886 -0.050821688 -0.037584048 -0.05266785 0.08976316 -0.14626718 -0.12591392 0.04030657 0.80986995 -0.51658964 0.25610417 1.0063676 -0.512137 0.2518057 0.17687762 0.37258834
YML063W 0.34040666 -0.075024396 0.51160306 0.3994172 -0.31439406 0.038754277 -0.011280276 -0.21422982 -0.6970544 0.056727163 0.08455911 -0.57060784 0.049779035 -0.7524558 -0.48294127 0.49880117 -0.34854212 -0.1595125 0.13936038 0.85044456 0.181458 0.18261054 0.14738797 -0.6532824 -0.34136263 -0.25352314 -0.10481141 0.18168737 -0.29306296 -0.3967719 0.6352978 0.24337299 0.12961894 0.118068255 0.116247006 -0.09423755 -0.14709495 -0.40306306 0.062255487 0.14697886 0.05386876 0.525119 -0.5802006 -0.12751187 0.83560365 0.10782057 0.2740558 0.30708596 7.242629e-05 0.1330253 0.3527628 0.07592478 -0.37772945 0.34325787 -0.07999161 0.1025625 0.045663185 0.06527221 0.09247029 -0.35500976 -0.46359387 -0.12833868 0.055928607 0.0015118602
YLR429W 0.30524015 -0.47055775 0.09708251 0.426559 0.19865584 -0.62495583 0.24934638 0.1433252 -0.4470896 -0.2608583 0.7482522 -0.13783021 -0.09185282 -0.34499308 -0.45483238 0.13350606 -0.12362625 0.55536497 0.11815646 0.4634918 -0.0076625487 -0.26921585 0.1718378 -0.3959002 -0.11261787 0.17325042 0.17577182 -0.607035 -0.14217961 0.46163446 0.25684327 0.4504465 0.519564 0.021520069 -0.026819412 -0.11565897 0.18239498 0.49638253 0.16279796 0.40078446 0.2617075 -0.025697818 -0.05553933 -0.2117086 0.81024426 -0.78572583 0.62628233 -0.20772222 -0.035516027 -0.010665384 0.035101492 -0.22354881 0.23977058 0.15432002 0.25031453 0.011352984 0.2810926 -0.38479432 -0.043670174 0.40728012 -0.35772437 -0.2010761 -0.82388884 0.18853258
YPR080W -0.2825675 -0.35953787 0.13462138 0.18125802 0.045565445 0.2074672 -0.77390426 -0.46242547 -0.7517766 0.09748463 -0.079536565 -0.34188563 0.14548586 0.20612447 -0.010579999 0.68660253 -0.06700173 -0.58164847 0.37581035 0.6388499 -0.35133144 -0.024916202 0.48718128 -0.23498602 0.5093639 0.29950157 -0.1562753 -0.13366987 0.43455383 -0.4539455 0.25729313 -0.2508394 -0.7667422 -0.15130821 -0.60305345 0.2593396 -0.01965079 1.056587 -0.17861325 0.120228425 0.27777794 0.14199503 -0.4116078 -0.097122505 0.9168741 -0.11840555 -0.10591051 0.15752888 -0.34101957 0.070681475 0.40678564 -0.054207932 0.035113245 0.3479919 -0.52483374 0.13883016 0.23853841 -0.38920054 -0.37488374 0.32418337 -0.8121254 -0.18567991 -0.12915343 -0.08504977
YKL166C 0.6007231 -0.04142804 0.59957075 0.11452062 0.586074 -0.37302187 -0.29101577 -0.3002737 0.6432129 0.43005228 0.17574906 -0.7295223 0.7454604 -0.08331262 0.4289582 0.56228536 -0.1207251 0.10173754 -0.6623283 1.0638832 0.391724 0.38840288 0.386694 0.3548274 -0.4402048 -0.22717272 -0.16039315 -0.029141195 -0.051663492 -0.1591618 0.094493374 -0.17456678 0.21660456 -0.013716315 -0.56162435 -0.064721465 0.5443316 -0.32967773 0.20949073 -0.3361642 0.26357654 0.66501254 0.4099334 -0.27664304 -0.080984324 0.121405035 -0.17386197 -0.6900089 0.40784898 0.783464 -0.08900698 -0.13194975 0.14394481 0.9155972 0.23850507 0.20998636 0.36938596 0.2891145 -0.1792183 -0.2959099 -0.95320284 -0.43868473 0.010879756 0.011949744
YER165W 0.08238955 -0.54973143 0.026628627 0.033007577 0.12350684 -0.20623513 -0.11411521 -0.43506795 -0.19704129 0.15775542 0.254748 -0.3010703 -0.016683983 -0.422168 0.032597408 0.74016815 -0.6391632 -0.20996504 -0.025234006 0.42103785 -0.19026977 0.16933921 0.05836992 -0.42061302 -0.4092765 0.23276469 -0.5734206 -0.5591293 0.14466515 -0.29968366 0.7007011 -0.27957967 -0.0099067325 0.54189384 -0.04235448 0.31357083 -0.148909 0.13232267 0.07183428 0.59543294 0.75350285 -0.17413077 -0.07711311 0.25581223 0.7325816 0.0056758686 -0.3832297 0.08847111 -0.6224291 -0.2246976 0.25432274 -0.010351901 0.20905125 -0.2673834 0.21769927 -0.04103785 0.32141346 -0.11633652 -0.3482484 0.41542894 0.050932713 -0.07084709 -0.057665158 -0.43256342
YGL076C 0.1553873 -0.20380194 0.7412519 0.13632245 0.37658066 0.18680216 -0.44594464 -0.119735435 -0.6286618 -0.044548385 0.18943827 -0.81840205 -0.19634888 -0.7204559 -0.050868016 0.16585717 -0.066952944 0.22837585 -0.10795894 0.6333133 0.14735658 0.26469645 -0.05802492 -0.59710586 -0.052732315 -0.14968878 -0.46839628 0.33088154 -0.20854506 -0.12201478 0.5648378 0.24234901 0.1588217 0.028350249 0.07460552 0.02728043 0.014179144 -0.2530781 -0.19434868 -0.09371292 0.21970983 0.10329917 -0.26244897 0.20833698 1.2515415 0.118253656 0.16119367 0.15947506 -0.22775693 0.32928553 0.3674893 -0.1122521 -0.594953 -0.05551548 0.11344337 0.34010673 0.016520418 -0.3167522 -0.23829506 -0.0042276233 -0.37306184 -0.14783551 0.07340297 0.19606793
YDR099W 1.0281246 -0.04062822 -0.16641144 0.29972225 0.38524735 -0.2692105 -0.2398888 -0.25109205 -0.33165675 -0.44595596 0.03164158 -0.31064397 -0.18903562 0.24240467 -0.34212154 1.023858 -0.64866364 -0.3732228 0.29219002 0.19488487 0.068859175 -0.38187253 0.4309719 -0.29446667 -0.013922844 -0.38473743 -0.4049431 0.12018905 -0.57270336 -0.46337909 0.28852767 -0.26407868 -0.4088467 -0.12435011 -0.093320675 -0.11022431 0.07626136 0.1210609 -0.022219377 -0.08236714 0.16325137 -0.22401258 0.09609066 -0.56042075 0.26968798 -0.18156034 -0.31027374 -0.19002995 0.03999587 -0.14720577 0.36959517 0.08015925 0.0032602951 0.40862507 0.47474134 -0.31699723 0.5262976 -0.13661009 0.4749377 0.52465373 -0.3903733 0.30857015 -0.037469085 0.7468419
YFR024C-A 0.29253718 -0.43894255 0.78862745 -0.39072412 0.29767647 0.30690795 0.030236054 -0.70691854 0.090574384 0.010694467 0.26575944 -0.5350414 0.034843046 -0.05235503 -0.56601673 -0.0594422 -0.6335378 -0.06344242 -0.34597638 0.5387639 0.34581286 -0.1522889 0.19825882 -0.9211573 -0.77030295 0.4530307 0.20627886 -0.63406026 0.0024195581 -0.5045325 -0.34679902 0.02653082 -0.30516517 0.2830134 0.07748641 -0.08501642 0.05080624 0.14229521 -0.119929016 0.7310908 -0.3215543 -0.6436896 -0.41753408 -0.34659427 0.06365843 0.10672284 0.3747761 -0.12384914 0.09099365 -0.242759 0.29164326 0.20610097 0.47654948 0.3246043 -0.066552445 0.16952528 -0.03024568 -0.4927822 0.4442675 -0.35491443 -0.44681183 -0.40814868 -0.45722988 -0.030091101
YGL103W 0.04651407 -0.050254792 0.112753384 0.5682441 0.33516055 0.045273922 -0.29356602 -0.48799464 -0.6542657 -0.022065477 -0.053799156 -0.3591414 -0.2666563 -0.67089146 -0.3029604 0.1961455 -0.38633126 -0.12722221 0.1040391 0.8242665 0.38494128 0.47420096 0.10201057 -0.49254894 -0.4980359 -0.38381842 -0.18037127 0.19917542 -0.18232879 -0.24985173 0.55923086 0.0534704 -0.021397159 0.09838306 -0.01274298 0.19777772 0.0021692805 -0.69363314 -0.060835276 0.44638056 -0.05788194 0.34335816 -0.18616147 0.16403715 0.9543961 0.18737759 -0.32581946 0.6582857 -0.07451414 0.20282488 0.4847304 0.027502576 -0.543306 0.4130289 0.0297101 0.28097072 -0.019906754 -0.3220499 -0.07327132 -0.047171537 -0.31755534 -0.13175802 0.28539437 0.035060193
YJR066W -0.004413668 0.12625904 0.25026938 0.7968875 -0.5522057 -0.3973129 -0.45578414 -0.09221773 0.2303533 -0.45195127 0.43098336 -0.26286814 -0.112706065 0.21099009 -0.23609626 -0.15648097 -0.7429797 -0.038613282 0.29310578 0.10516628 0.764967 0.1457489 -0.1328296 -0.7649292 -0.6380834 0.28906304 -0.29838684 0.025823444 -0.5082035 0.33272254 -0.37806863 0.4004882 -0.18273541 -0.29264075 0.3115163 0.7810276 0.031626076 -0.18981375 -0.12930328 0.5206012 0.8567962 0.01436315 0.13411531 -0.3578014 0.4957871 -0.10434312 0.04485273 -0.3580248 -0.2009358 0.3510803 -0.26439106 -0.00040863003 -0.16802526 0.028545188 0.84368885 0.5931382 -0.45131275 -0.5749662 0.6087846 -0.29163316 0.055722013 0.20696123 -0.27133906 0.27314964
YMR049C 0.080689825 0.10484155 0.5537766 0.5180397 0.23557673 -0.015991675 -0.03683759 -0.15149406 -0.23841803 -0.5901175 0.6296376 -0.21858391 -0.06637504 -0.75222194 0.5819854 0.12219626 -0.251723 0.16090654 -0.11165665 0.43604943 0.5950722 0.57251745 -0.17351954 -0.15185536 -0.2123118 -0.073364414 -0.34748742 0.63319004 0.092597194 -0.005691184 0.513013 0.26996586 -0.6753941 0.3340994 -0.53811675 0.1666831 -0.22350632 -0.40374148 0.097618096 0.32862726 0.05362878 0.03981532 -0.5888177 0.27368587 0.7364292 -0.19174604 -0.06477529 -0.7811399 0.015173211 0.5138327 0.60642517 0.13412702 0.119716674 0.3228527 0.012050862 -0.16043359 0.30136558 0.06713393 -0.36735204 0.28601086 0.15132049 -0.2095205 0.47649372 0.11298285
YJL190C 0.16984257 -0.29312834 0.22001448 0.3122396 -0.020747546 -0.18231364 -0.2408392 -0.61423963 -0.89279014 0.23488945 0.25583994 -0.5001618 -0.12172338 -0.51055664 -0.25169215 0.6356109 -0.58539236 -0.15730637 0.13019544 0.5482283 -0.10711062 0.57891375 0.10457466 -0.6217203 0.0487482 -0.14932136 -0.23752213 0.43940642 -0.37836257 -0.10936726 0.6349003 0.39814126 0.032483026 0.30220878 0.13100925 -0.21345587 -0.17702709 -0.36326644 0.018242756 0.024160417 0.37171954 0.3071066 -0.40591946 -0.24022791 0.67412853 0.040886667 -0.21200575 0.077920206 0.036425058 0.12670505 0.5465132 0.11004117 -0.33276057 0.18205334 -0.15270716 0.3633723 0.09963875 0.037452184 -0.004460578 -0.17037953 -0.5600884 0.08007714 0.21962492 0.037166815
YLR029C -0.018954512 0.04356843 0.64173746 0.2912078 0.104108185 -0.10554467 -0.4568635 -0.4329569 -0.8415335 0.16093068 0.15199809 -0.6115773 -0.19050421 -0.48267847 -0.0060948483 0.27003852 -0.047114428 0.08061443 0.10372419 0.5646218 0.20655876 0.33805752 0.033439223 -0.521429 -0.1954443 -0.032344196 -0.19121231 0.25625598 -0.111494415 -0.2565432 0.74686 0.45730877 -0.15691483 0.042198855 0.093320794 0.0037786153 0.13203287 -0.59050626 0.048602816 0.184594 0.19103782 0.036189944 -0.534506 0.006826366 1.1032051 0.051651046 0.026160697 0.3098976 0.108262114 0.30367422 0.44855726 -0.19910859 -0.43181714 0.2934281 0.015570916 0.11928985 0.17710051 0.17081606 -0.3583496 0.12687083 -0.5518565 0.067454636 -0.23181638 -0.2101493
YBR189W 0.1133741 -0.41091433 0.1093979 0.31036392 -0.13453554 -0.18378292 -0.26587558 -0.69676816 -0.8301069 0.26958165 0.013910649 -0.33741403 -0.48411968 -0.6734392 -0.06663968 0.33087045 -0.444155 -0.1766139 0.17602982 0.27134928 0.2948584 0.43803692 0.22004473 -0.8133289 -0.2990878 -0.1967483 -0.33636615 -0.05536232 -0.15672836 -0.034848552 0.8901006 0.20825145 0.08643358 0.12534156 -0.079554126 0.10911169 -0.16146505 -0.5658602 -0.1719786 -0.14383659 0.07462036 0.511628 -0.08355946 -0.23827961 0.60323673 0.20363548 0.22976446 0.1589678 0.23701265 0.13723554 0.51618475 -0.009997538 -0.6481067 0.18041971 -0.19191815 0.2065099 0.29458937 -0.17921129 -0.17946821 -0.24540366 -0.34120032 -0.047427513 -0.002173549 -0.045177136
YER012W 0.04638449 -0.115485735 0.53698605 0.35096872 0.22188835 0.12514353 0.13135496 -0.10204687 -0.2748787 0.108320504 0.47980148 0.34473807 -0.019002214 -0.5169812 0.117668845 -0.06490794 -0.39702892 -0.30146247 0.56757796 0.70572764 -0.11952442 0.26395163 0.23299834 0.08791096 0.33054262 -0.22275035 -0.42640945 0.31691822 -0.26769328 0.076105945 0.79949576 -0.24659307 -0.70423526 -0.6568236 0.23151341 0.15780684 0.2368893 -0.038733374 0.06857377 -0.09201406 0.21198425 -0.10447757 0.24266471 -0.9910103 0.97565794 0.03713317 -0.36124015 0.27749887 -0.22102682 -0.004804892 0.029856635 0.19168562 0.34055835 -0.16787347 -0.021583807 0.2732218 0.05914204 -0.2592513 0.14225838 0.75986886 -0.27588075 0.1175969 -0.42437977 0.53238666
YKL180W 0.54172087 -0.17102408 0.37534297 0.12848507 0.065895505 -0.07455465 -0.37482753 -0.32605135 -0.5766719 0.1927238 0.09456433 -0.60968566 -0.058823947 -0.5242606 -0.22006811 0.5421485 -0.33611977 -0.16556226 -0.022786092 0.8462877 0.111722134 0.11881845 0.3221301 -0.45027292 0.01865603 -0.3303501 -0.27005738 0.50022626 -0.27827388 -0.19845758 0.22893552 0.54156953 -0.29151222 0.36280382 0.06895248 -0.17636426 0.3675133 -0.8939268 0.111666106 0.08755812 -0.07389851 0.3311955 -0.32413945 0.10071284 1.066631 0.014879759 0.22114024 0.622351 -0.18212508 0.2818621 0.41079974 0.34910133 -0.6216887 0.48826253 0.09230675 0.2996566 -0.23658794 -0.16493183 0.04661776 0.17182246 -0.32066408 0.016314836 -0.21599977 0.15850411
YLR347C 0.1360515 -0.09785788 0.0054394105 0.55150294 -0.63007796 0.0317198 -0.01260876 -0.21729122 -0.3269167 -0.2550569 0.15876535 -0.31614736 0.062494464 0.019803992 -0.64657444 0.2519322 0.37655222 0.0964489 0.093905345 0.6207428 -0.07069193 0.15061282 -0.30010304 -0.32154074 -0.7198937 0.32772952 -0.5633174 -0.24152125 -0.024311146 -0.28864127 0.055426728 0.097212136 -0.5278412 -0.087891325 -0.23929389 -0.030895632 -0.38542074 0.024062736 0.40933314 -0.18772228 0.26693782 -0.10849317 -0.8021193 -0.71598023 1.0083289 0.11389361 -0.27907398 -0.13664047 0.2671335 -0.48639628 0.8392799 -0.85465604 0.059997648 0.042124998 0.028987095 -0.4849902 0.1808225 -6.9950474e-05 -0.4784615 0.35759783 -0.632383 0.27224004 -0.18931033 -0.4879472
YPR016C 0.30979976 -0.14585611 0.793221 0.15555847 0.27176332 0.22836122 -0.47769585 -0.1309113 -0.7619177 -0.17629766 0.4622061 -0.32999095 0.07777178 -0.7599604 -0.06513615 0.16421624 0.031194737 -0.32015273 0.027033396 0.773194 0.47510898 0.21031226 -0.16658522 -0.32232717 -0.08998699 0.039902933 -0.18320182 0.4636049 0.8235414 -0.17272933 0.5590225 0.46819103 -0.7131476 0.57191664 -0.2568759 0.14766707 0.17849198 -0.13166532 0.23904297 0.42013898 0.2632506 -0.41529134 -0.32904154 -0.0060194195 1.0173166 -0.09348492 -0.22196129 -0.020743279 -0.1598235 0.2809785 0.043130297 0.10994352 -0.3273903 -0.0012064895 0.18501148 0.1285077 0.00028420653 -0.24045312 -0.26332 0.45966727 -0.058060955 0.35958335 0.24250849 -0.043863285
YDR188W 0.29194415 -0.35285228 0.3323803 -0.017276693 -0.21421322 -0.58121365 -0.41145062 -0.084744476 0.39007413 -0.44930416 0.15617228 -0.3083415 -0.039213423 -0.73590577 0.48320088 0.11079588 -0.073035985 0.35035244 0.2174386 0.622508 0.2925494 -0.031836558 0.08614032 0.2027392 -0.84397656 0.27251452 -0.1217457 0.4573847 -0.79388565 0.06394967 0.13922924 -0.116632275 0.09754917 -0.74579614 -0.7170355 0.012415817 0.112686336 -0.0956548 -0.58209103 0.37521395 0.4117816 0.41118756 -0.61953926 -0.014452992 0.77214795 0.1537237 0.40317822 0.18921727 -0.18169717 -0.2289865 0.526369 0.045961633 0.10223665 -0.2653016 0.25016353 0.4779601 0.5605855 -0.36396688 0.077492096 0.2523781 -0.47094986 -0.04929241 0.37301394 -0.042660173
YBR055C -0.6016008 -0.23446564 0.25762525 -0.06007556 0.2778514 -0.89729327 0.32614082 -0.6822794 -0.42509207 0.42720285 1.0203056 0.20076744 -0.1906108 0.044382773 0.05317947 0.9933078 0.015163319 -0.35645396 0.010532915 0.87197524 0.050168037 0.060470548 -0.09286891 0.020682653 -0.71081907 0.36647746 -0.6400252 -0.07383712 0.06867558 -0.43343222 0.3738471 0.03318109 -0.053656094 0.27700508 -0.43960825 -0.22934744 0.2971045 0.42775813 0.5300884 0.9376367 0.2665105 0.3782065 0.64069635 -0.04892296 0.32693213 -0.20321724 -0.1490713 0.24181293 0.082195744 0.33168435 0.20594618 0.019705873 -0.26793376 0.061585266 0.20736693 0.3402609 -0.29640287 -0.06621501 -0.18736018 -0.18213113 -0.20754156 0.7160178 0.260387 -0.07541128
YLR197W 0.1141204 -0.2819965 -0.35716206 0.15636723 0.3334209 -0.39140624 -0.0347651 -0.29412267 -0.5775436 0.07018514 0.33838144 -0.40020505 -0.32105923 -0.62758887 0.086385235 0.35439894 -0.99478984 0.164626 0.17571034 0.25731534 -0.065856904 -0.05919323 0.059200168 -0.76949745 0.039313342 -0.20236525 -0.40133965 0.20548902 0.16970295 -0.078882955 0.5760638 -0.04811717 -0.39354163 0.07368629 -0.29237336 0.2567208 0.22333078 -0.6316401 0.15175101 -0.33376285 0.120670535 -0.12194175 -0.38080692 -0.06016041 0.24191569 -0.63636976 0.36160028 0.26491484 0.16010146 0.085561216 0.6009206 -0.30852172 0.04949703 0.091273814 0.015615907 -0.14690243 0.48436794 -0.26145688 -0.27045286 0.036126487 -0.70956427 0.28883284 0.12449554 -0.17430876
YCR057C -0.11451142 -0.18088879 0.12889184 -0.35052693 0.20360808 -0.24494289 0.2861231 -0.41475034 -0.7264996 0.125367 0.05540845 -0.19394428 -0.11521949 -0.686713 -0.22505225 0.28551587 -0.6930694 0.03726996 0.53286 0.48703665 0.43369108 0.2237827 -0.12903966 -0.53484946 -0.085491434 0.07364622 -0.0808289 0.6289217 -0.12646508 -0.2875944 0.86386675 -0.012573018 0.025189118 0.17765737 -0.08129598 -0.39618453 0.25028574 -0.3905866 -0.11278464 0.040913314 -0.28343433 0.4159349 -0.63316214 -0.2818329 0.4121936 -0.29784614 0.20811075 0.459811 0.33731246 0.1410991 0.5481208 -0.22474861 -0.24042104 0.5920896 -0.11441211 0.3698533 -0.039637085 -0.11038117 -0.34709102 -0.039871868 -1.0941559 -0.08871878 -0.24373178 -0.18702033
YNL031C 0.5034383 -0.04878475 0.18461645 0.31181303 -0.023301326 -0.046870437 0.2892641 -0.45537627 0.034827802 -0.25469047 0.6145146 -0.14318956 0.116682835 -0.028097602 -0.3246209 0.33585665 0.0024576033 0.21482924 -0.07871366 0.40714028 0.27403808 0.02555601 0.38931304 -0.4211634 -0.73873436 -0.40433937 -0.46160233 0.19933316 -0.5390843 0.38623932 -0.1879849 -0.054012883 -0.66640645 0.26448047 0.8922342 -0.7578169 0.42159814 0.64319247 0.06902737 0.21629618 -0.1209868 0.28864932 -0.72809684 -0.30868292 0.4554423 -0.49374872 0.030131735 -0.21182625 -0.023671802 0.2803083 -0.022849565 -0.15915352 -0.3047397 0.21874638 0.27332258 -0.14596206 0.022203004 -0.21508121 -0.5841735 0.9763081 -0.442202 -0.12508439 -0.28671885 0.0565952
YGL059W 0.42838722 -0.15864113 0.381819 0.4317751 0.05935955 -0.45254403 -0.4219821 -0.19598669 0.36804554 0.27697027 0.3871394 -0.78852636 -0.23394896 -0.118227616 0.1393103 1.1977055 -0.25449023 0.15594335 -0.1762531 0.2985413 0.5211692 0.33542904 0.3537468 0.30124918 -0.24457256 0.25033644 0.04033325 -0.12709829 -0.02985206 -0.46477982 -0.12947159 -0.23691206 0.1909096 -0.16688873 0.01819092 -0.12696466 0.35948795 -0.3935749 0.285438 -0.27987605 -0.41176715 0.14813423 0.38355967 -0.10230672 0.25578776 -0.56547785 -0.22841668 -0.36516196 0.60445565 0.07687963 -0.35009313 -0.63376695 -0.38323307 0.60229445 0.055548828 -0.09482881 0.07031409 -0.45962983 0.1320016 -0.58220524 -0.8223157 -0.13438027 -0.067046136 0.16393334
YKR048C 0.3876841 -0.98460454 0.70720595 -0.47132352 -0.014091253 -0.4821582 0.008396725 0.37545893 0.07948443 -0.2047869 0.5667451 -0.7041792 -0.5831519 -0.05252192 -0.565857 0.11087535 -0.14218731 -0.6730352 0.03934505 0.795023 0.23111781 0.76459825 0.12359859 0.42311078 -0.08582895 -0.83773047 0.027256167 -0.12620318 -0.32846737 -0.58579755 0.4554553 0.15501307 0.055946656 -0.26067877 0.22314174 -0.15316026 -0.24076608 0.08924364 0.31681946 0.19551949 -0.4830025 -0.07158999 -0.1220961 -0.025785157 0.40653273 -0.3381532 -0.24753776 -0.30507386 0.22607476 0.40547496 -0.0056188707 -0.8097914 -0.16597843 -0.27736595 0.9097748 -0.23686293 0.14807963 -0.120512776 0.2916553 0.41224116 -0.43976882 -0.3446754 -0.075623296 -0.5124326
