YGL122C -0.08252618 -0.46228388 0.061910912 0.5406278 -0.21956526 0.0016706464 0.28832424 0.07241861 -0.074620016 0.21885088 0.085910805 -0.12700133 0.28577384 0.071363926 -0.05486914 -0.104100786 -0.32976976 0.30709147 0.19415435 0.060231075 0.23802105 0.32256806 0.34328008 -0.34723386 0.0116009135 0.063948825 -0.4090815 -0.07041246 -0.25095236 -0.18786016 0.03210767 0.2063924
YLL039C -0.026511176 -0.65714544 0.37389153 0.43034178 0.44626516 -0.1298652 0.15314907 0.18466951 -0.34905362 0.31007597 0.2607809 -0.10207268 0.07457244 -0.018977074 -0.31440237 0.073066846 -0.4560274 0.23123255 -0.14471608 0.0573401 0.07894808 0.34070227 0.07416376 -0.54761374 -0.06733985 -0.029859776 -0.23304461 0.1488906 0.20624924 -0.07566318 0.018796785 0.05547571
YNL255C -0.24594577 -0.41758442 0.03619934 0.4625856 -0.020366043 0.29459983 0.5754485 0.68511665 -0.2794212 -0.23550324 0.054535642 0.0415641 0.6490667 0.14374171 -0.011220823 -0.011492097 -0.35374293 -0.09007793 0.50037485 -0.14661689 0.2276351 0.7760351 0.6699035 -0.48312226 -0.18700358 -0.06571492 -0.28565124 -0.2233486 -0.4941529 -0.09007792 -0.10030905 0.35732698
YBL032W -0.35833314 -0.47222683 -0.41415992 0.78611785 -0.6998809 0.006424308 0.78159004 0.816984 0.112249084 -0.045374375 -0.3519131 0.2719494 0.00731541 -0.07534848 -0.05563666 -0.5301292 -0.5647767 0.91368353 -0.16397911 0.17601408 0.7750725 0.4337584 0.6646143 -0.27907562 0.25698888 -0.8591144 0.20874041 -0.7619521 -0.71824193 -0.33015874 -0.3841279 0.1915198
YFR004W -0.29078078 -0.9133598 0.65266985 0.037810676 0.6086161 0.10729182 0.46670225 0.20199351 -0.1920703 0.23174104 -0.1803046 -0.78299284 -0.33881843 0.27201447 -0.6374452 -0.077415355 -0.4893921 -0.25505894 0.17980623 0.42468154 0.08819882 0.4868609 0.6744987 -0.39744896 -0.032781992 -0.25611752 -0.3777766 0.018276706 0.082414694 0.106860854 -0.15987656 0.36086857
YDR510W -0.3882868 -0.9688021 0.35060754 -0.3993966 0.39892012 0.04707705 0.22912507 0.26940706 0.1808981 0.31536788 -0.2034539 -0.34601635 0.09995079 -0.23637715 -0.55548376 -0.4552027 -0.4471447 -0.20589021 0.4694436 0.43741032 0.2581337 0.5993538 0.7000617 0.13807988 0.23061442 -0.5759568 -1.0456737 -0.34428403 -0.28469768 -0.491168 0.020643584 -0.71705884
YPL031C 0.22409102 -0.82892096 0.5485974 0.29084307 0.9851519 -0.05702768 -0.25472263 -0.05626585 -0.38619006 0.33966437 -0.3780829 -0.4524759 0.9772306 0.3181077 -0.7116681 -0.053950388 -0.50022626 0.80114883 -0.5584573 0.30557466 0.5420742 0.50940037 0.3536191 -0.05905833 0.23609737 0.59400994 0.016535452 0.25867984 -0.7539348 -0.37317348 -0.0823061 0.13263386
YIR010W -0.39721298 -0.3292438 0.437129 0.025847824 0.16645603 -0.09801534 0.42238167 0.30821076 -0.8453778 -0.5662719 -0.49670538 -0.11840888 0.07157322 -0.20504814 0.3942462 0.1288506 -0.44518772 -0.46134323 0.37569347 0.88042855 0.51919216 0.17517038 0.57786244 -0.22785687 -0.32905313 -0.71269673 -0.7712669 0.06413874 -0.31664848 -0.37557608 -0.51187867 -0.27739155
YNL197C -0.21303095 -0.7278653 -0.9380092 0.51431423 -0.21574102 -1.4271137 0.5560985 0.16103102 0.1344984 1.3582875 -0.12633802 0.5146612 0.10885629 0.39729568 0.058589347 -0.7813332 -0.3548915 1.3648744 -0.3921309 0.4186265 0.80830324 0.52996606 0.29052278 0.28283727 -0.16482572 -0.40377253 -0.097422846 -0.33696446 -0.27536947 -1.1914594 -1.1426748 -0.5408348
YER151C -0.48445258 -0.8227481 -0.11292351 0.18741319 0.70539606 -0.22064824 0.7439833 0.42876285 -0.71679807 -0.0152630815 0.37079045 -0.5299237 -0.429237 -0.1816307 -0.21002167 0.13404585 -0.011613964 -0.4396228 0.4959804 0.540388 0.6591459 0.32834736 0.8171957 -0.15895218 -0.466713 -0.41551223 -0.67427063 0.119529925 0.09820782 -0.18161799 -0.18095978 -0.0850386
YPL240C 0.1283748 -1.860065 0.6883018 0.58087176 -0.14172707 0.016376467 0.9014758 -1.1310942 0.32999858 -0.15797885 -0.23973891 -0.05549777 -0.53111935 -0.23440997 0.54013574 0.35176614 1.0826068 0.19807428 -0.17464463 1.0212889 -0.22255537 1.2088387 -0.37208238 -1.0870988 -0.19689971 0.4574509 0.33646294 -0.4728298 0.5951252 0.32316583 -0.5668883 -0.16344276
YHR200W -0.2655245 -1.1218859 0.6972322 -0.17293248 1.0289145 0.16910613 0.10457524 0.22597319 -0.6149683 0.6802291 0.36573413 -0.34768763 -0.18138774 0.21205053 -0.47472197 -0.15220888 -0.66043824 -0.53191423 0.16523135 0.1741525 -0.16225028 0.6379199 0.44945687 -0.3187788 -0.26696724 -0.13728726 -0.6473314 0.5871962 0.07103576 0.115501896 -0.13697399 0.466568
YDL229W -0.9453365 -0.87447786 0.17544864 0.46064502 0.4081087 -0.25270498 0.27677825 -0.41492435 -0.6157785 -0.26141027 0.06693051 0.31558117 0.09793396 0.20918056 0.014040866 -0.006917625 -0.90135235 0.4209024 -0.80123824 0.28778243 -0.2001246 0.48740262 0.6122543 0.34587288 0.34731364 0.53376687 -0.6139053 0.8002792 -0.21514432 -0.19673458 -0.57569855 -0.08915872
YHR027C -0.3733914 -0.90753186 0.68264383 -0.2967571 1.0072194 -0.25953162 0.16768228 -0.1062976 -0.5164676 0.7105079 -0.2603251 -0.5659651 -0.22765115 0.24602363 -0.33910206 0.06316433 -0.7005884 -0.55315185 0.33947626 0.27273655 -0.095091276 0.62094176 0.54274267 -0.30927745 -0.5023274 -0.49423757 -0.48144242 0.6464277 0.3859202 -0.001525372 -0.09300536 0.5745738
YHR135C 0.09973434 -0.2147769 0.39623883 0.42798623 0.57653475 -0.20634773 -0.100559264 -0.57338095 -0.7234456 0.13827598 -1.190845 -0.6595771 0.97342867 -0.24474828 -0.56957346 -1.005923 -0.51747584 0.5904194 0.50868416 0.07935006 0.46897388 1.1024593 0.3874038 0.18850751 0.06952519 0.13304833 0.14767341 0.32247272 -0.36435664 0.23573525 0.5311814 -0.22910787
YNR051C -0.4103659 -0.6787733 -0.19633545 0.13256449 0.5894206 -0.3640887 0.86343765 0.35014677 -0.8732722 -0.22350451 0.39258325 -0.43016985 -0.32060987 -0.08338974 -0.30285543 0.3073227 0.10251882 -0.49264175 0.580408 0.64587265 0.5717011 0.37066656 0.8059448 -0.16746871 -0.5951327 -0.6150201 -0.70441866 -0.038229115 -0.09787046 -0.44436133 -0.31227142 0.10512463
YBR160W -0.63577795 -1.1666752 0.34432843 -0.05481508 -0.16389763 -0.22369578 -0.25272164 0.2545679 -0.5037724 0.6533942 0.006719627 0.24029985 -0.21080513 -0.7944102 -0.10074493 -0.52908176 -0.31101865 0.14300236 0.6476429 0.3839485 0.047335807 0.26717526 1.4110197 0.03850519 0.7071412 -0.47503728 0.56169784 -0.20246898 -0.45887232 -0.6058754 -0.49272084 0.33850554
YJL164C -0.77916056 -0.28872335 -0.06805725 0.6912842 1.0136373 -0.3768778 -0.18217617 -0.5865854 -0.071498856 0.23816033 -1.2379786 -0.31660587 0.9393196 -0.37317938 -0.49540964 0.009366546 -0.10049468 0.3508733 0.4421312 0.24384879 0.724772 1.210675 0.7111354 -0.07628403 -0.43365043 0.09355599 0.21488228 -0.016861597 0.5322469 -0.253835 0.032683484 0.026221294
YKL049C -0.13737781 -0.26306272 0.40691957 0.82554024 0.33637705 0.14151971 0.66605 0.10127053 -0.45715705 -0.68069303 -0.27324298 0.18907626 -0.67366123 -0.05883146 0.34273663 0.5556587 -0.6886573 -0.29813573 0.034339923 0.58987916 0.17425773 0.5306286 0.6066359 -0.042072803 -0.15334094 -1.1214745 -0.357937 -0.4268566 -0.3145131 0.04645425 -0.47723472 0.65558404
YML065W -0.7419437 -0.94981945 0.007865165 0.5042702 -0.08014538 0.43366042 0.7729484 0.16837716 -0.6450547 0.17678325 0.6712376 -0.33156794 0.531587 -0.23432173 0.5846571 -0.1913526 -0.35401675 -0.48711383 0.29789552 0.28640902 -0.122473024 0.6212555 1.0000795 0.094335146 -0.40446895 0.48659974 -0.4228685 0.021634426 -0.38393307 -0.48129693 -0.79113084 -0.3259637
YOR117W -0.09859836 -1.3801923 0.5152158 -0.25598532 0.90561026 -0.07677039 0.2989652 0.0327429 -0.4614935 0.570264 0.16267064 -0.5010468 -0.40345898 0.18146265 -0.6424492 0.097091235 -0.68941987 -0.9206143 -0.0073893094 0.507766 -0.04562266 0.62922657 0.7505303 -0.0952841 -0.3933976 -0.3301324 -0.7193695 0.6002579 -0.0021766154 0.11138729 -0.40986395 0.630721
YNL154C -0.6868953 -0.3100127 0.5291376 -0.16610901 1.1155059 -0.3031248 0.070495605 -0.4837836 -0.17870142 0.4918245 -0.9974583 -0.5582518 0.53803664 -0.37846106 -0.13512051 -0.4440097 -1.213639 1.2787813 0.037270304 0.22079125 0.37467545 0.28422678 0.8520289 0.104748115 0.31098145 -0.08050757 -0.031818736 0.27819926 -0.44542003 -0.12143193 0.5475866 -0.40248492
YDR381W 0.06147249 -0.6666095 -0.47422302 -0.23507835 -0.023192467 -0.91118467 0.07333466 -0.8717163 -0.6690316 -0.25523064 0.097870365 -0.69224083 0.40594217 -0.75053805 0.21043396 0.1708803 -0.29149723 0.26233184 0.22033766 0.3670751 -0.3422642 0.7964917 -0.077339575 0.44993505 -0.60604113 0.23135294 -0.68683213 0.6772911 0.097865544 -0.9864987 -0.25939572 0.93982935
YAL005C -1.1978359 -0.71472055 -0.53529817 1.0185995 0.20952325 -0.36178428 0.62512505 -0.70476526 -0.32310554 0.08315073 -0.56859946 -0.117112614 0.16616425 0.6277215 -0.26146802 0.35159376 -0.5543293 0.513563 -0.51639205 1.1479477 -0.2929644 0.30298382 0.062184647 0.48196584 0.23010762 0.24378422 -1.1638838 0.08536174 -0.018136038 -0.09646381 -1.177561 0.0085064275
YHR082C -0.22173171 -0.5096745 0.7648245 -0.06848966 0.7745447 -1.2141508 0.042151492 -0.8031745 -0.66933006 0.5548622 -0.6220769 -1.0620084 0.24748908 -0.13780911 0.18010141 0.04479718 -0.6190722 0.66390944 -0.023164954 0.418495 0.22949654 -0.15591133 0.639327 -0.1840487 -0.26027125 0.42407623 0.15488033 0.44445005 -0.2503687 0.26190695 0.01053837 -0.6406361
YJR059W -0.9796449 0.27308622 -0.059525754 0.72641605 0.7935481 0.12090427 -0.18647008 -1.0147388 -0.3825084 0.40665027 -0.77939206 -0.34244436 0.9217762 -0.6114332 0.13742587 -0.43912178 0.01027383 1.0309438 0.11423083 -0.17451364 0.99990565 1.2678603 0.5500194 0.022652106 -0.30773273 -0.09369337 0.090886794 -0.56183314 0.56852037 -0.22504804 0.115653194 0.4881171
YGL180W 0.12525328 -0.3172515 0.13147035 0.37632236 0.88103426 -0.011399839 -0.11306477 -0.526606 -0.5380899 0.17087848 -0.78932506 -0.41875792 1.3610859 -0.61409396 -0.5774692 -0.5927182 -0.4936596 0.5662349 0.40847433 0.19746986 0.7416664 0.992314 0.6549114 0.19401646 -0.3206732 0.1736926 0.11819721 0.17978328 -0.5280817 -0.09772422 0.76711744 -0.33969218
YDR388W -0.88604337 -0.7698394 0.015799133 0.53942764 0.23227605 -0.035730813 -0.63395447 0.43619552 0.042543523 0.0863351 -0.38596666 -0.65760237 0.49643376 -0.14232147 -0.22564834 -0.7317334 -0.21364167 0.20431311 0.042598594 0.6701477 -0.586438 1.1523851 0.3758715 -0.047825802 0.23053528 -0.3385306 -0.49477717 0.068348974 -0.79066104 -0.33456364 1.0464306 0.15071061
YNL189W 0.5976255 -0.53669363 0.38904792 0.08042186 0.24984765 -0.6335096 0.24953245 -0.10935722 -0.92737776 -0.8386244 -0.27017313 0.0054244446 -0.5987142 -0.666745 -0.70875907 0.2670801 -0.17787644 0.7986081 -0.073989235 0.19256362 -0.0638977 0.4180005 0.5072287 -0.40744266 0.48700017 0.7060611 -0.5719337 0.14951655 -0.67035055 -0.35807142 -0.52254146 0.46887138
YFR014C 0.40904734 -0.7095194 0.2189334 0.2777441 0.7655438 0.41194704 0.07210564 -0.42467022 -0.6380961 0.47402355 -0.094580494 0.22203603 0.772561 0.38439894 -0.54997236 -0.264174 -0.45371655 0.38600954 0.02975483 0.4245674 1.1063124 0.8519114 0.645452 0.27832738 -0.9796998 0.8052098 -0.32916403 -0.5329107 -0.25379875 -0.53978634 0.074292436 0.22122197
YBR009C 0.25461638 0.20329338 0.6555607 -0.046007454 0.43894356 -0.22672962 0.4389442 0.31373605 -0.69508284 -0.17051142 0.48407426 -0.3099867 0.25340688 -1.0547556 0.56257355 0.37125722 -0.29556572 -0.016906887 0.22317912 0.4076841 -0.40457603 1.0935382 0.5560622 -0.061018888 0.42340523 -0.35913602 -0.5196607 0.31287423 -0.05895011 0.32704854 -0.40496865 -0.45273495
YPL204W 0.31675312 -0.75378513 -0.14467365 0.29243085 -0.08592873 0.04869146 1.2458072 -0.46967357 -0.7076492 0.40978608 -0.27603796 -0.09123176 -0.11021601 0.5345033 -0.550013 0.37449804 -0.21566007 0.32425913 -0.13570654 0.55426717 1.0408281 0.34164807 0.9182044 0.009313437 0.80392385 -0.07844777 -0.13876197 -0.22460632 -0.22978283 0.08142578 0.047967963 -0.124032974
YBL003C 0.1715238 -0.31833777 0.16873977 0.2818774 0.6511718 -0.51433617 0.3262698 0.022404224 -0.4448743 -0.61559284 0.35975695 -0.24472292 0.47783118 -0.66679907 0.5590532 -0.044024114 -0.49314854 -0.08634581 0.21955918 0.7469042 0.10540781 0.6238586 0.7354824 0.344975 -0.4169173 -0.21646309 -0.6743702 0.0013640675 -0.2139457 -0.3131645 -0.6192668 -0.6297851
YNL307C -0.14965013 -0.36809766 0.5347353 0.41540685 -0.07866573 -0.26900274 -0.0773185 -0.760808 -1.1443014 0.40995955 -0.7664059 -0.11833647 0.08920434 -0.24066514 0.27372333 0.49731305 -1.1432014 0.35713723 0.16738804 0.48478293 1.1533415 0.37950456 -0.06920946 -0.10182909 0.2688065 0.18565091 0.5511002 -0.040055145 -0.3646019 1.1726698 -0.28712666 -0.8494532
YFR028C 0.11957036 -0.22331087 0.40213317 0.6952432 -0.11446384 -0.69695246 -0.5355784 -0.22478923 -1.0171405 0.5270004 0.68981844 -0.51752937 0.5290291 -0.16229664 0.2817626 0.5442852 -0.0055473205 -0.19017184 0.8763303 0.5996642 0.34908107 -0.005422106 0.14679186 -0.015125966 0.9331932 -0.30351686 -0.07476004 -0.25253445 -0.26284614 -0.09265428 0.05709288 -0.4797815
YER125W -0.57998633 -1.1079838 -0.275152 0.7023197 0.2174366 -0.68955606 -0.22976474 0.85889745 -0.66727436 -0.09586539 -0.54127824 -0.59824294 0.75198025 -0.25844577 -0.7620885 -0.38555446 -0.46099514 1.0209507 0.0869805 0.45967612 0.1282455 -0.082315795 0.6917823 -0.41891778 -0.8867519 0.44940466 0.10099194 -0.6096375 -0.0001256238 0.32076934 -0.0091691855 -0.15648751
YPR152C 0.20550889 -0.35238633 -0.7420926 0.15383947 0.49476537 -0.54249 0.78902674 0.7892501 -0.3886988 -0.16055252 -0.3179304 -0.4147386 -0.62032205 -0.21732898 0.26276425 0.6408894 -1.0423714 -0.16356309 0.32421213 0.82187384 1.052575 0.3610468 0.5599579 -0.065614074 -0.019704308 0.008766438 -0.7365942 0.45755792 -0.06766495 0.9453595 -0.22210793 0.29202455
YDL014W -0.2710554 -1.1659586 -0.17056037 -0.1317528 0.5937473 -0.2210855 0.9726115 -0.06656018 -0.62956035 -0.62049437 0.12134889 -0.8656087 0.86595005 -0.5831761 0.15324834 0.15718248 -0.37647998 0.09222501 0.46984592 0.18723397 -0.016153956 0.35081044 -0.013238737 -0.28936926 0.5141779 -0.5248451 -0.4854246 0.09034843 -0.15363793 -0.34186524 0.10074952 0.039978664
YJL187C 0.66832983 -0.8232615 0.007461604 0.6886294 0.20973314 -0.14728265 -0.15069279 0.08470633 -0.72238666 0.5365688 -0.13431233 0.4425263 0.6946412 0.02744282 -0.7192014 -0.19224653 -0.8153991 -0.21877976 -0.05794792 0.5259686 1.0663538 0.7059607 0.64107263 0.44487202 -0.007818011 -0.17496075 0.30906454 0.13912705 -0.6157097 -0.45252097 0.54895806 -0.3674693
YER133W -0.57148576 -1.0271914 0.1816505 -0.8406486 -0.32839993 -0.57375723 0.1372171 0.20695746 -0.82482505 -0.1929922 0.47468832 0.13376938 0.58990514 -0.16511635 -0.2975218 -0.1921115 -0.81387633 -0.08854634 -0.5105418 0.33717754 0.7357022 0.20647241 0.6912008 -0.26140678 1.3060685 -0.15491503 -0.4024936 0.2882005 0.5852027 -0.45867074 0.08418839 0.467058
YFR034C -0.47090974 -0.3461882 0.120239936 0.040776998 0.34300828 0.73224026 0.8243319 0.80853564 -0.6839549 0.24125582 0.48415485 -0.81490284 0.5441098 -0.432389 -0.36411843 0.54132974 0.39596665 -0.13372071 0.168272 0.89420587 0.08727251 0.560835 0.5292503 -0.35358942 -0.2839914 -0.4885392 -0.5950134 -0.8114954 -0.44602543 -0.6304901 -0.73752785 0.6533834
YDR477W -0.2940122 -1.1339091 0.035177357 0.7914639 0.3040721 0.40774125 0.20832616 -0.5831651 -0.35021892 0.46457094 0.76630604 -0.088085234 0.7293456 -0.52090454 -0.7732039 -0.23766729 8.384653e-05 0.33799314 -0.094385736 0.30981353 0.71762794 -0.022028318 1.051954 0.20922357 0.14384724 -0.017459353 -0.11100628 0.010239225 -0.12023513 -0.15574819 0.78151643 0.11692509
YBL007C -0.7122425 -0.46875614 0.07915303 -0.022191737 -0.4857559 0.66057396 -0.3222096 0.26653138 -0.68893063 0.078583404 0.3091195 -0.075491056 -0.041074935 -0.7397368 0.34702873 0.21541677 -0.84514546 0.4949034 -0.8214582 1.3771864 0.2137225 0.38197497 0.339416 -0.46502313 -0.35718527 -0.49311954 -0.25472426 0.1841297 -0.20310275 0.066781774 0.54285437 0.30775544
YIL035C -0.15864897 -0.1657922 0.23267566 0.8142525 0.30479053 -0.24051775 1.0158925 -0.046923894 -0.68100244 -0.42045516 0.111361615 0.19651167 0.50617176 -0.9708737 0.14633822 0.6231366 -0.532038 -0.7081941 0.40573776 -0.25004813 0.7301609 0.7079782 -0.2006834 0.543629 0.9044609 0.14706428 -0.32047376 -0.20885862 0.06739223 -0.27101782 -0.0002965574 0.46127382
YBR106W 0.18049389 -1.3655821 0.7803928 0.1460329 -0.10414172 -0.8154757 0.46412948 -0.15173078 0.27347022 0.20929468 0.4900012 -0.120100945 0.3225592 -0.5292649 -0.24698567 -0.00042755474 -1.4467226 0.77384925 0.115504846 0.15869963 0.16068189 0.66492987 -0.5589782 -0.5376993 -0.583982 -0.70230234 -0.0062275757 -0.38826677 0.44948798 0.023396743 -0.17382853 -0.16679874
YGL120C -0.24715681 -1.1885536 -0.76229936 -0.5499115 0.9833961 -0.41884238 0.4450338 -0.18143103 -0.31981906 -0.48945516 0.579522 -0.1468495 0.5463867 -0.7581991 0.51654035 0.39140445 -0.33680135 -0.055172034 0.6960184 0.5586397 0.18152927 0.49531367 0.6664592 -0.526999 0.2382092 0.23533836 -0.8940192 0.16930822 -0.39782435 -0.12068151 0.09698273 -0.29416656
YOR063W -0.19805507 -0.7419795 -0.5434816 0.009244711 0.493418 0.44931927 0.77858967 -0.023172736 -1.1313181 -0.15526147 0.5376951 -0.6603418 0.6189546 -0.23237517 0.38741505 0.02715903 -0.2622048 -0.19116338 -0.14579527 0.43239698 0.92509955 0.9842224 0.24668977 -0.6980857 0.16881989 -0.111665726 -0.5077776 0.20225123 0.07879587 -0.40396708 -0.39463726 -0.0885842
YJL095W -0.6280327 -0.58051676 0.20608613 -0.04832413 0.6665099 -0.44322383 -0.15288976 -0.64802015 -0.88602155 0.112571515 -0.50710523 -1.016886 0.29039457 -0.85201573 0.9716414 -0.10107712 -0.9414157 0.5250602 0.10640517 0.25960827 0.6222089 0.076659106 0.075562194 -0.011271047 0.18168598 0.10049142 0.24109016 -0.13263045 -0.05950619 -0.0033818549 0.60463125 -0.4295504
YDL140C -0.16324681 -0.75812787 0.25836268 0.4579844 0.063523196 -1.048741 0.08866618 0.19516554 -0.39492264 -0.13406287 -0.8877141 -0.8934953 0.34822017 -0.9173112 -0.043361526 -0.24628186 0.16880146 -0.28788343 -0.3523498 -0.03325901 0.65431416 0.15321521 0.3091306 -0.030670997 0.16704944 0.2200352 -0.987304 -0.1070574 0.1469105 -0.08166927 -0.996383 0.7534799
YBR194W 0.3316219 -0.3121271 -0.750535 0.112835504 0.22111401 -0.7054439 0.6194605 0.8542122 -0.22189474 -0.2989126 -0.33464876 -0.42454785 -0.590255 -0.14676343 0.23360677 0.5564089 -1.0833673 -0.010941814 0.3511313 0.80954355 1.113685 0.47265 0.3833146 -0.15299377 0.0399131 -0.2763273 -0.7124178 0.4844795 0.31275362 0.75023067 -0.3544071 0.2639365
YGR040W -0.23147705 -0.94030845 0.98102665 0.11259247 0.061659854 -0.603108 -0.109487094 -0.58022213 -1.0809114 0.054650757 -0.34038636 -0.13267136 0.14527044 -0.30914623 0.97058284 0.09933952 -0.07428385 0.38315594 -0.43891788 -0.15410404 0.6510537 0.5682504 0.29743338 0.25604472 -0.29721054 -0.1669962 0.52000433 -0.6473211 -0.8197419 0.25748077 -0.10830721 0.18966225
YER148W 0.18119057 -0.9562191 0.24012461 -0.055904046 -0.48757732 -0.6269497 0.21578483 0.35913593 -0.3111097 0.10042631 -0.17884389 -0.38836014 0.3962079 -0.9073115 0.62982064 0.18196864 0.1401365 -0.5556754 -0.48890582 0.0110042365 0.3495776 0.7767563 0.3031312 -0.06981722 -0.15438353 -0.3599294 -0.99169916 -0.5567473 -0.33979318 0.19404975 -0.34397435 -0.27012688
YGL158W -0.30411217 -0.88464266 0.9345592 0.09823426 0.25888145 0.3263672 0.6197289 -0.4002026 -0.661827 1.1781348 -0.4436747 0.30080244 0.33539134 -1.0449214 0.46750072 0.60838854 -0.59443396 -0.1693946 -0.4583065 -0.3796095 0.76323146 0.023677796 0.55765957 0.17097114 -0.060006082 -0.12832934 -0.42537865 0.21851033 -0.29600286 0.8903516 0.04676579 -0.21202739
YOL127W -0.15374725 -0.9087401 -0.29559562 -0.20426154 0.3113969 0.31621724 0.6394083 -0.0064879237 -1.2089568 -0.043781858 0.5967032 -0.8706572 0.36440757 -0.3618215 0.60231894 -0.14349283 -0.08973294 -0.35891035 0.08010686 0.45031598 0.61321896 0.8515475 0.3764077 -0.87739176 -0.16952771 -0.298525 -0.53223574 0.1390952 0.039865136 -0.7559733 -0.34620628 -0.17953177
YOR181W 0.016799157 -0.33317068 0.212832 0.37376025 0.5070405 -0.1993025 -0.07128821 0.71030366 -0.60709673 0.36056316 -0.22410247 -0.5945583 -0.32315373 -0.6923046 0.7745412 0.22244729 -0.59508115 0.8030956 -0.807114 0.9744416 -0.07881528 0.5467964 -0.07360484 -0.48497957 0.09143341 0.078752816 0.1033164 -0.045667768 0.07760098 0.2969329 0.47226417 0.53538096
YNL110C 0.1007097 -1.2916552 -0.24967633 -0.2090079 0.5503499 -0.020761095 0.6463665 0.060837537 -0.6789002 -0.3555916 0.5213723 -0.9332827 0.7492791 -0.39925775 0.76682276 0.16560729 -0.043772083 -0.2158218 -0.018374695 0.190044 0.5589503 0.95240146 0.30732492 -0.8259157 0.39565644 -0.25325882 -0.17874688 -0.029624438 -0.08226486 -0.69542396 0.008249111 -0.3008262
YBR159W -0.1927759 -0.6226009 0.5891528 0.5382703 0.045757204 -0.5529125 0.25607544 -0.55406904 0.29559186 0.25090304 0.5967611 -0.35268748 0.114285186 -0.4163494 0.5782219 0.14043829 -1.5739508 0.7657242 0.12519994 0.19929536 0.1435245 0.6721837 -0.40521008 -0.3122826 -0.77170163 -0.61056703 0.029984314 -0.52882046 0.104365446 -0.44805026 -0.15241589 0.25646648
YMR186W -0.07368492 -0.3735509 -0.7652625 0.924925 -0.10799795 -0.889357 0.432993 -0.3789029 -0.4034261 0.39150757 0.08801948 0.13305087 -0.7215222 0.21031103 0.31561828 -0.0067874673 0.27923983 -0.71334684 -0.27625173 0.6086035 0.36751372 1.3168389 0.08371114 0.03674719 -0.15284131 0.079565294 -0.99560064 -0.43246666 0.073518425 -0.09047935 -0.021192176 -0.15751709
YDR064W -0.15910119 -0.93506116 -0.24282756 -0.04112046 0.776546 -0.2836091 0.9755906 -0.2153541 -1.2539023 -0.16077508 0.46258092 -0.7150377 0.8746484 0.019199343 0.45136267 0.07323596 -0.06491188 -0.024792084 -0.10360871 0.53085387 0.16384917 0.7482614 -0.18225583 -0.7342537 0.07349874 -0.46862003 -0.81498915 0.6943132 -0.1916136 -0.11529162 -0.1605293 -0.29590517
YMR229C -0.3720322 -1.0107962 -0.29639137 0.06349886 0.93511266 -0.29906628 0.8680094 -0.08474103 -0.6668071 -0.3057765 0.08221249 -0.74328387 0.3655812 -1.1092697 0.49711433 0.19472897 -0.45449647 0.017808367 -0.004545939 0.3204912 0.3325313 -0.051020067 0.06639557 -0.26713395 0.21372026 -0.24993972 -0.13795498 0.047384053 -0.28173074 -0.4750468 -0.07565169 -0.09021399
YGR092W -0.76767445 -0.5676105 0.4459652 0.22418462 0.4931583 -0.37733 0.7396034 -0.4104929 -0.6046059 0.8697272 -0.43906763 -0.8431174 -0.14768663 -0.52502257 -0.06166201 0.5923749 -0.14065865 0.8035514 0.3882748 0.35210857 0.7302109 -0.10057478 0.8675238 0.23220773 0.14297687 -0.5542099 0.22538391 -0.61893874 0.17351449 0.4940206 -0.007087881 -0.25665346
YMR290C -0.27595037 -0.7017641 -0.21777917 -0.19581099 0.68666226 -0.12273607 0.8538217 -0.5996919 -1.0099653 -0.53765225 0.41298583 -0.72663695 0.40688285 -0.5759997 0.36060733 0.049513254 -0.5148725 -0.07873764 0.17964977 -0.10416985 0.6327704 0.25609043 0.33495763 -0.8717904 0.36743835 -0.2963069 -0.47128403 -0.12580822 -0.09065099 -0.52396786 -0.28194767 -0.1219224
YNL178W -0.097062305 -0.30937216 0.057951815 -0.11463139 0.24106736 0.032319177 1.2020032 -0.15690443 -1.2133812 0.080773786 0.4742699 -0.5144194 0.76527846 0.19394857 0.21268292 0.22440574 -0.1188101 -0.22252014 -0.2595817 0.42023554 0.4395938 1.06179 0.40988615 -0.44243872 0.12666796 -0.5070987 -1.0892025 0.6014993 -0.12570062 0.010160919 -0.33538556 -0.29651216
YFL039C 0.18793543 -0.5313892 0.07472378 0.063184164 0.4445185 -0.729495 -0.3916181 0.56513655 0.21845071 0.08384523 0.31934986 -1.0797472 -0.0066584046 -0.6158468 0.26710865 0.4670553 -0.17383929 -0.023047006 -0.7428596 1.155697 -0.45198795 0.81019366 0.7272282 -0.39349225 -0.37146595 0.36814258 -0.8032369 -0.29870152 -0.14582221 -0.031956095 0.018680166 -0.11314116
YDR328C 0.1717302 -0.2485991 0.5900906 1.1474705 0.6847266 -0.08106887 -0.3894701 0.3719603 -1.3363423 0.009084506 0.16114923 0.17248157 0.5868112 0.91489893 -0.6321411 0.49055094 0.43294907 0.5144763 0.6507882 0.30951738 0.21595009 0.8532595 0.8968035 -0.5157777 -0.36569273 0.24104731 -0.52126473 0.16307478 -0.064812884 0.21420205 0.01207097 0.011932701
YOR244W 0.4584804 -0.3813597 0.028825983 0.15172477 0.88932705 -0.3804735 0.2348791 -0.1138897 -0.53268707 -0.32340515 -0.34899715 0.14089568 0.780676 -0.2160556 0.16195188 0.22384927 -0.45092127 0.2537506 -0.80268097 0.35642198 0.48369786 1.0985547 1.5609957 -0.0066255806 -0.114531994 0.50501096 -0.37122533 0.26857468 0.510501 0.022026086 0.020375416 0.25611925
YGL137W -0.16779013 0.008413208 0.9989965 0.5293272 0.8911595 -0.43103725 0.99695 0.3618859 -0.18975325 0.25592047 0.078542694 -0.66789883 -0.7807547 -0.3064619 0.036063798 0.216773 -0.020763196 0.12774116 0.1861432 -0.010872889 0.043966733 0.29851615 0.59690535 -0.9092221 -0.33560944 -0.50501263 -0.28872046 -0.2032915 -0.28253794 -0.26076797 0.77634776 0.47529435
YBR031W -0.18868424 -0.7505194 -0.23497927 0.03326789 0.42731053 -0.017878031 0.7865144 0.075334445 -1.3127854 0.11804524 0.4192115 -0.7591524 0.36864468 -0.16718322 0.05741379 -0.29056966 -0.16394588 -0.23727138 0.173493 0.20886534 0.7156353 0.8171465 -0.03122646 -0.6722991 -0.122778974 -0.3487074 -0.26042122 0.454856 -0.18089996 -0.21883526 -0.3593253 -0.30520374
YBR010W 0.5527294 0.050871037 0.6559709 0.6220141 0.19268735 -0.5172206 0.33011344 0.009234214 -0.2746463 -0.5923143 0.19772752 -0.23883593 0.7384951 -0.9803483 0.28768063 -0.19897291 0.109801635 0.12297212 0.18633312 0.43409458 0.25884917 1.1032377 0.910269 0.3313997 0.7336034 0.3149535 -0.83426183 0.5453871 0.12724853 0.066273116 -0.44618714 -0.098616235
YLL045C -0.25288782 -0.94728255 -0.15245417 -0.12071997 0.44385073 0.22809157 0.6933968 0.13336255 -1.3788936 -0.21844882 0.5457926 -1.0541537 0.39056414 -0.4214633 0.36104882 -0.033722706 -0.5386969 -0.19900563 0.0885355 0.23381086 0.74774647 0.44497496 0.06987209 -0.77573085 0.13108014 -0.2434334 -0.6716864 0.48993826 0.17325437 -0.4799128 -0.30461738 -0.0029589995
YLL024C -0.33828628 -0.8383543 -0.5151546 0.6095828 0.4373465 0.09108954 0.44088757 -0.47817752 -1.007004 0.08533911 -0.27286035 0.3503496 -0.110716924 0.11568813 0.12795703 0.122585215 -0.02806767 0.23396546 -0.55653304 0.7805592 -0.45275888 0.77072895 0.17046134 0.06196172 -0.0438598 0.26113474 -0.88346946 -0.3284203 -0.19638275 -0.2025859 -0.7050585 0.09632412
YNL209W -0.43916488 -0.71249926 -0.64134336 0.74586254 0.5164579 -0.65913135 0.2911622 0.03590412 -0.8142026 -0.12490472 0.64400524 -0.43181834 -0.05561239 0.14274451 0.04762648 0.1785078 -0.33976302 0.25992167 -0.564773 0.46478555 -0.5210742 0.10184786 0.7644963 -0.34984183 -0.119344085 0.31151137 -0.83864933 0.18221216 0.3275886 -0.36111572 -0.32590368 -0.164656
YBL016W -0.31623313 -0.43057635 -0.21989276 0.3821831 0.90288025 -0.39526603 -0.28867054 -0.23611875 -0.59383434 0.94256073 -0.22822733 -0.34913832 0.54761094 -0.8909305 -0.022694716 -0.48077348 0.36999288 0.25685364 0.19202171 0.09724418 0.6750448 1.1273208 0.5252842 -0.070200995 -0.20773895 0.101018846 0.23949674 -0.38595146 -0.40472177 -0.21170728 0.6991483 -1.0434462
YGR090W -0.25893104 -0.72163266 -0.39895093 0.7205813 0.8030582 -0.43412727 1.1678363 -0.14236845 -1.0203292 -0.5564006 -0.062096994 -0.34247258 0.9319141 -0.5525255 0.537212 0.20675057 -0.20438458 -0.1151707 0.16106951 0.39318573 -0.12692702 0.47923595 -0.061473403 -0.2890567 0.5832885 -0.31764153 -0.32374665 0.37639993 -0.3428407 -0.41715395 0.24416113 -0.21653317
YLR150W 0.14854443 -0.5432393 -0.0902625 0.16772169 -0.016052084 -0.27734593 0.70007455 -0.50673103 -0.69767576 -0.17439029 0.6023289 -0.25477841 0.7434585 -0.7826573 -0.18083107 -0.016371999 -0.15164857 -0.21980818 -0.28481674 0.63365036 0.44134125 0.50545657 0.28276497 -0.19515792 -0.5350991 -0.5628028 -0.36051843 1.0162957 0.60645807 -0.32690254 -0.19323863 0.014873254
YMR242C -0.3557271 -0.79165024 0.0689197 -0.5123893 0.29842073 0.18527967 0.90967554 -0.28944564 -1.4512779 -0.17962651 0.3434491 -0.73298454 0.47555685 -0.26101038 0.33225706 -0.11510595 -0.25425303 -0.30178705 -0.034142468 0.34434113 0.7628695 0.9535924 0.27950403 -0.6744086 0.20820397 -0.40999967 -0.70160586 0.3220011 -0.06410924 -0.5333637 -0.19763619 -0.09191487
YPL153C 0.16679423 -0.38581628 0.7138966 0.3033219 0.861341 -0.34932345 0.2057123 -0.48770714 -0.34533757 0.5570393 -0.5756365 -0.29533437 0.09108075 -0.6750048 0.5367225 -0.089141846 -0.40717283 0.5179768 0.05651184 0.97734225 0.22162272 1.042513 0.13089785 0.8809944 0.88889074 -0.017408807 0.20948553 0.6016757 0.026333412 -0.035029583 -0.38174987 -0.23600665
YJR145C 0.078209735 -0.47084242 -0.25183266 0.3140165 0.6958642 -0.1921684 1.4270228 -0.20326291 -1.1751804 -0.18424606 0.3445596 -0.52144516 0.731539 -0.15962534 0.44020402 -0.1617405 -0.09508239 -0.3236851 -0.08427763 0.4004103 0.2593393 0.56947637 0.29469144 -0.5539608 0.027758377 -0.5770246 -0.83953255 0.41272944 -0.21550561 0.20717931 -0.32922968 -0.23546419
YJR123W -0.1716819 -0.7158544 0.16343118 -0.10419309 0.8324847 0.3014663 0.8988833 0.14501484 -1.291525 0.24752362 0.46109608 -0.48571843 0.55249405 -0.007501366 0.15741545 0.14157365 0.072884865 -0.22733472 -0.010596451 0.4595378 0.25556633 0.8194567 0.16730566 -0.7979547 0.0010356163 -0.53303313 -0.8726315 0.6167233 -0.0032141937 -0.2322088 -0.2966113 -0.048612304
YMR308C 0.7178936 -0.3080142 -0.40315872 0.39150435 0.70469666 -0.1665839 -0.6823251 -0.12770396 -0.5324732 -0.19333915 -0.55756587 -0.66485214 0.19264363 -0.2831303 0.83835286 0.26055202 -0.19147928 0.28322616 -0.021914253 0.034520846 -0.5667032 1.177277 0.4918356 -0.92689854 0.7312811 -0.4338519 -0.60479265 -0.7436437 -0.24473508 -0.588467 -0.5954624 0.3618274
YLR075W -0.34558684 -0.37090552 0.21672545 -0.042781956 0.31846982 0.018950032 0.9599584 -0.111734055 -1.4121513 0.13415344 0.47101858 -0.7791824 0.15947902 -0.22424503 0.44701827 0.09937063 -0.34992152 -0.09354982 -0.05015774 0.41767454 0.2520642 1.1372367 -0.091158494 -0.43788308 -0.28088906 -0.60090053 -0.27567294 0.86248076 0.24216461 -0.10105052 -0.85288227 -0.09903485
YOR096W -0.3126681 -0.943464 -0.40302998 0.0025491724 0.6351837 -0.060500074 1.2648962 0.08181494 -1.1812383 -0.07218142 0.25484508 -0.7089359 0.7135998 -0.13916515 0.09400217 0.021069083 -0.17220984 -0.21818294 -0.08026975 0.37986517 0.3953058 0.8599603 0.089063615 -0.5866467 0.06930249 -0.5900161 -0.82999855 0.5400175 -0.1263351 -0.079134524 -0.12374005 -0.34241784
YDR099W -0.3043251 -0.32328847 -0.7391195 0.3015915 0.21000148 -0.23395035 0.35396346 0.42540175 -0.7626379 0.37778988 0.54628986 0.33707663 -0.043192107 -0.6640848 0.14893024 -0.2826924 -0.201384 0.4284707 -0.4297741 0.5586426 0.14398567 0.74896 1.167061 -0.085538104 0.688597 0.1439334 0.0402487 -0.17771944 0.50536764 0.023307437 -0.10999189 0.48017687
YHL007C -0.67615986 -0.4438726 0.2819594 0.2565123 0.5818829 -0.24953455 -0.29213592 -0.2676645 -0.19479333 0.69348747 -0.14178619 -0.5737489 0.15697376 -0.47035342 0.19889614 -0.00055331836 -0.630503 0.42148793 0.15424085 0.24594472 0.5180304 0.95384395 0.46471676 0.27128762 0.078536786 0.10038809 0.5306874 -0.15823297 -0.85716873 -0.15494505 0.5112872 -0.4289734
YLR291C 0.21712746 -0.14095898 0.096500576 -0.030700054 -0.35110208 -1.2023569 -0.28827256 0.122282274 -0.7114729 -0.20849898 -0.29506493 -0.1972225 -0.23978445 -0.18010004 -0.6479227 0.6036555 -0.28755996 0.30139208 0.18553725 0.03595503 0.3466614 0.082888775 0.6049059 -1.0490737 0.88586503 -0.16788365 -0.74491924 -0.65574175 -0.4031996 0.320455 0.48737 0.29208297
YLL036C -0.47560984 -0.6775917 -0.39653832 -0.29023412 0.52803046 -0.41213584 0.32963443 -0.52564174 0.016588591 -0.1329583 0.51379716 -0.0007767753 0.29331395 -0.23774867 -0.09300226 0.18954088 0.033773154 0.5494061 0.64924175 0.78374296 0.3980782 0.6946837 0.6385479 -1.2365518 0.048597082 -0.1073916 -1.0839908 1.062656 -0.48908237 0.9745023 -0.5005556 -0.034800824
YML010W -0.45095974 -1.1034135 -0.13520338 0.19814977 0.36619198 -0.6124076 0.15592384 0.20147465 -0.7105613 -0.6086056 -0.42951098 -0.71982694 0.57176334 -0.98591024 -0.28415826 0.32220915 -0.15826072 -0.47365326 0.27135187 0.49239174 0.22674039 0.046189748 -0.22371566 0.13513912 0.60067034 -0.38282746 -0.82750136 -0.3106833 0.0012443648 -0.5355824 -0.51150024 0.34099984
YER012W -0.11383861 -0.748054 -0.36278027 0.8771558 0.80979306 -0.4793246 -0.30040118 -0.23866002 -0.6836541 0.5152963 0.192483 -0.31291392 0.27130318 0.17086774 0.16794339 -0.32379064 -0.20802486 -0.60486424 0.09904076 -0.3079514 0.14018753 0.24629815 0.7572593 -0.6047745 0.27568063 -0.72710466 -0.6595824 -0.37951952 0.12699494 -0.09054756 -0.7497257 0.4102848
YLR096W -0.26824066 -0.63376963 0.36663932 0.60207295 -0.5862434 -0.7170724 -0.046314392 -0.35150906 -1.3048676 -0.13267653 -0.6137484 0.26461858 0.119607754 -0.11351207 -0.25629166 0.34577242 -0.29978582 0.25054458 0.22245362 0.8286042 0.337052 0.8391557 0.050240587 -0.02935821 0.65206 0.3441258 0.8137218 -0.05063506 -0.26687172 0.2993105 -0.4346963 -0.18042246
YOR061W -0.08850844 -0.36452425 0.1560393 0.4171391 -0.120678045 -0.71383184 0.85365963 0.026004076 -0.9018538 -0.369187 0.0817274 0.4286121 0.4737262 -0.8114795 0.24977036 0.4639933 -0.9208908 -0.50776833 0.05165655 0.013334172 0.2372229 0.52358764 0.11581643 0.4305096 0.73940295 0.18584387 -0.18721825 -0.38278902 0.42699164 -0.17744935 0.034475245 0.16306077
YPL141C 0.13630785 -1.1210783 0.618139 0.23314661 0.03495664 -0.49491337 0.29728222 -0.7830594 -0.32134008 -0.13516659 -0.5964264 -0.67250115 -0.22750628 -0.21970086 0.30812824 -0.12592247 -1.1560903 -0.3166469 -0.11930349 0.6723152 0.94317526 0.1305026 0.09518439 0.26375714 0.19527575 -0.09071982 0.36011347 -0.3872843 -0.38085738 -0.21519542 0.053382814 -0.40438026
YJR066W 0.14882123 -0.6300617 0.62762827 -0.10849567 0.14466135 -1.6533549 -0.48721242 0.79257566 -0.9432345 -0.016984167 -0.13824002 0.46473652 0.046181355 -0.24987058 0.54331654 0.37581712 -0.9191962 0.49362737 -0.7191388 0.5786095 0.060326766 0.15419169 0.15381049 -0.74570143 0.071476676 -0.85300106 0.47766945 0.37093052 -0.25528812 -0.42547187 0.016356682 0.2781327
YHR052W -0.2739902 -0.59869736 -0.5237489 0.41563353 0.60865027 0.15273139 0.12134678 -0.35253593 -1.074743 -0.61750555 0.75805396 -0.74796766 0.6391864 -0.48421788 0.83137167 -0.018794972 -0.56846946 -0.45546308 -0.07625876 -0.043191466 0.8538327 0.66349846 0.2239111 -0.7777314 0.21376827 -0.19890785 -0.44598815 0.11896946 -0.07106742 -0.5061327 -0.25857267 0.20091799
YKL101W -0.45181078 -0.6674231 1.3470759 0.13836716 0.58187276 -0.07784162 0.17396912 -1.0671958 -0.91757345 0.37498817 -0.28366125 -0.2515238 0.23838343 -0.0853106 -0.055994987 0.6143648 -0.2770775 0.1669018 -0.15099907 0.8803616 0.6023233 0.2073257 0.16728061 0.16485561 -0.1877092 0.19706097 0.07377588 0.08050908 -0.5740009 0.47467712 -0.04321607 -0.28420642
YKR048C 0.20574386 -0.067788236 0.28072408 -0.007862294 0.14554377 0.09284084 -0.055908572 -0.44025305 -0.89544046 -0.07958429 0.08136553 -0.71139175 0.54058933 -0.4745943 0.55910814 0.4258287 -0.06574554 -0.07656576 0.08003266 0.63345134 -0.043304242 0.94036186 0.36212435 -0.12777945 0.2930209 -0.08688934 0.014016663 -0.4642307 -0.21996424 0.1005085 -0.51023096 0.72541
YBL072C 0.08867097 -0.6334461 -0.109297924 -0.20012383 0.52401143 -0.48644447 1.238294 0.16524155 -0.90996766 -0.28775 0.15065214 -0.6339016 0.66896427 0.16608377 0.15739036 0.07172523 -0.14706591 -0.11755853 0.15117314 0.50074655 0.35012296 0.74247104 -0.044187967 -0.90660924 0.07158374 -0.5809588 -0.7106079 0.5695955 -0.14343244 0.16013318 0.110970825 -0.25763947
YLR340W -0.23373431 -0.49969888 0.2408916 0.029259903 0.26417866 0.2331854 0.6665558 0.047772925 -1.3280122 0.10005908 0.19575682 -0.6667779 -0.008854761 -0.40118298 0.313633 -0.48752308 -0.08279045 -0.4422572 0.19245863 0.26922458 0.40937456 0.8376507 -0.22345038 -0.6532172 0.27104524 -0.48323187 -0.7612312 0.6039218 0.087972246 -0.5588421 -0.3576019 -0.2951881
YKL166C -0.2009151 -0.32544768 0.034593355 0.32500812 0.6147012 -0.25772643 0.5006536 -0.30643588 0.24415395 0.8608054 -0.46026754 -0.45388225 0.26206565 -0.56542724 -0.07906879 0.11589068 0.13982561 0.13347813 0.024137598 0.33953366 1.7796714 0.4360324 0.5842862 -0.39707354 -0.19130173 0.52077216 -0.08443762 -0.14072287 0.7026388 -0.6434648 0.1352383 -0.006989271
YBL002W -0.03321741 -0.48467237 0.5156135 0.14503247 0.5282649 -0.6125483 0.22307827 -0.07302856 -0.38004446 -0.08394772 0.62700814 -0.07715801 0.47844714 -0.9848172 0.43443444 0.4651454 -0.16775192 -0.2035957 0.22530685 0.43183434 -0.31246415 0.9486858 0.5733565 0.66240776 0.19205928 -0.0993304 -0.87011474 0.052023593 0.047299407 -0.04899046 -0.6505831 -0.4153666
YPL093W -0.32447848 -0.78443426 -0.44166046 -0.25121152 0.59610045 0.096395135 0.07137025 -0.27349478 -1.0346981 -0.4215847 0.54745936 -0.85809743 0.25605288 -0.63918716 0.596747 0.30588773 -0.76559466 -0.4204174 0.082938105 -0.0015420726 0.88120586 1.1080399 0.50168765 -0.5075799 0.4266155 -0.2400105 -0.3966156 0.07108511 -0.041776747 -0.56451344 -0.2757604 -0.18831019
YNL031C 0.58073914 -0.04515815 0.51672566 0.7555066 0.021503268 -0.37434444 0.15155081 0.4879913 -0.28232548 -0.85017234 0.13008907 -0.50698423 0.96105975 -0.93072295 0.12482032 -0.2865299 -0.32406205 -0.059268326 0.07779056 0.67698646 0.2008303 0.96985054 0.97875184 0.25177592 0.70750165 0.31711024 -0.7912961 0.35449332 0.29383874 0.13468136 -0.38566285 -0.020759339
YPL131W 0.058980826 -0.51545554 -0.54118115 -0.1497296 0.6092631 0.1481636 0.67560565 0.07476831 -0.8064258 -0.35402802 0.62013566 -0.7475702 0.09230295 -0.41949552 0.5319238 0.080932535 -0.9339424 -0.35433695 -0.008848527 0.2655586 0.8645896 0.6650512 0.20330964 -0.8412001 0.23896103 -0.23147464 -0.653615 0.30358127 -0.007139178 -0.37607932 -0.2679179 0.11700304
YBR109C 0.35274032 -0.8638594 0.5162867 0.5492387 0.0960579 0.035941847 -0.3093251 0.602303 -0.14828871 0.31872374 0.5689889 -0.7243354 0.36304137 0.19060017 -0.12322364 -0.15921804 -0.74510014 0.35336664 -0.32407027 1.3768382 0.4347451 -0.10679541 -0.086523496 0.1964764 0.4369682 0.64169437 -0.44314608 -0.04100332 0.062107008 -0.040666208 -0.27282077 0.5553051
YPL082C -0.14411514 -0.09449046 0.53476113 -0.10404176 0.20874316 -0.46007726 0.2102851 0.034080297 -0.30048773 -0.07241927 -0.2707275 0.36002156 0.46424583 -1.1899495 -0.023906821 0.14572383 -0.40895402 -0.6034196 -0.43750057 0.12416337 0.45168284 1.2439148 0.8163913 0.0122919055 -0.037488557 -0.6054619 -1.2694331 0.14264256 -0.6002721 0.15323262 -0.37695846 -0.7298285
YPR080W -0.11518628 0.08711525 -1.027739 -0.13462171 0.2370354 -0.38096237 0.25698707 -0.23572615 -0.91876304 0.6886044 0.49079505 -0.47726005 -0.73800945 -0.5648444 -0.5876212 -0.25740555 -0.35745317 0.4337533 0.28626946 0.09442981 0.049260214 1.0572361 0.33516008 -0.16653533 -0.34761313 -0.19271454 -0.8870357 -0.022561278 -0.5392325 -0.12190874 -0.21144624 0.16464834
YGL059W -0.88982284 0.099465586 -0.26632437 0.8948865 0.52061874 0.028332686 0.29223007 -0.93082607 0.0327729 0.45673856 -0.5914194 0.08098006 0.5226532 -0.48198178 0.20749548 -0.4214481 -0.27405939 0.49932888 0.22747053 0.54346037 1.4555376 0.99957895 0.8865292 -0.5653884 -0.5144944 0.3604367 0.34702736 -0.13107821 0.8969869 -0.09497076 0.23970033 0.27653408
YML073C -0.39532763 -0.7675177 0.17449595 -0.33367443 0.3291242 0.16718209 0.95231926 -0.034941792 -1.3332437 0.03318319 0.37238964 -0.97356546 0.60712767 -0.18206604 0.23163372 -0.023701916 -0.15646252 -0.12889287 -0.06313457 0.18129538 0.78959274 0.9479537 0.25063068 -0.8809553 -0.013463696 -0.25128075 -0.36254072 0.38348988 0.034029473 -0.137902 -0.61829406 -0.21745446
YLR423C 0.030685473 -0.43505788 -0.13144207 -0.43559554 -0.29465696 -1.1507884 -0.6954457 -0.6261775 -0.14766787 0.42214444 -0.6322897 0.10441197 0.065967046 -0.32460782 0.94016933 -0.33618468 0.13695969 0.81705457 -0.06600515 -0.19074348 0.20883533 0.5339422 0.97459036 -0.89182997 0.13153344 0.13711758 -0.9925656 -0.1693036 -0.42844978 -0.6891617 0.30414006 0.47096047
YIL095W -0.6157743 -0.4148343 0.018652773 0.06426073 0.079704 0.0028282548 -0.16173497 -0.2516009 -1.002504 0.81943387 -0.72416633 -0.67048305 0.22452132 -0.82432145 0.7524999 0.27602103 -0.8426649 0.14596716 -0.25092205 0.6321825 0.18229447 0.8416047 -0.30868933 0.4503531 0.087063804 0.32300502 0.13179862 0.2000388 0.06193785 0.31117755 0.334693 0.38348994
YBR189W -0.2887566 -0.5729453 -0.19649732 -0.22899117 0.78779614 -0.28295767 1.0591086 0.004413334 -0.99168944 -0.27395272 0.4908824 -0.7171732 0.68076503 -0.1476629 0.21449849 -0.04544528 -0.38227224 -0.08535171 0.2369773 0.57312953 0.1707118 0.74505585 -0.12757753 -0.9738691 -0.1510449 -0.66443217 -0.8429709 0.6087728 0.0049565663 0.28274795 -0.17320009 -0.2644604
YNL132W -0.3672505 -0.6246188 0.06397184 0.13317668 0.85145944 -0.53158367 1.0601907 -0.30114332 -1.2063053 -0.3919465 0.1132288 -0.56017035 0.73739094 -0.45013723 0.525711 0.39907232 -0.005017156 -0.20448416 -0.0408916 0.14449582 -0.056768056 0.59610987 -0.071529716 -0.81325084 0.36477515 -0.59021 -0.41091573 0.47828788 -0.2780055 -0.2671807 0.0048034326 -0.19905144
YMR001C 0.27255845 -0.82794 0.37874275 0.13533562 -0.19861023 -0.33909225 -0.33904228 -0.70524985 -0.801401 0.4511512 0.29585493 -0.17032713 0.2502351 0.011500188 -0.23034452 0.1085354 -0.99658096 0.086312994 0.44685128 0.65299493 -0.03865591 -0.20047152 0.9895743 0.14375786 1.0708413 -1.0193465 -0.22386679 0.2421357 0.14751923 0.21353078 -0.7062108 0.39602634
YLR429W -0.049115274 -0.4042823 -0.11067919 0.83323616 0.5337723 -0.22150503 0.23622435 0.26842248 0.14536723 -0.3061622 -0.26892805 -1.2795957 -0.05509566 -0.46058592 0.20655324 -0.6147286 -0.80686766 0.5644492 0.010949281 0.9936689 -0.4627837 0.6893624 -0.017761003 0.2525136 0.3698622 0.09684153 -0.5547464 0.13260387 0.27884987 -0.07757627 0.2778085 0.19635797
YBR059C 0.06360484 -0.098677516 -0.64037615 0.8655115 0.12426592 0.049316756 0.16557726 -0.36379582 -0.63101375 0.45134935 -0.75587416 -0.178468 0.43383217 -0.0070279636 0.008257026 -0.14052469 -0.5063358 -0.2655253 -0.35052812 0.75074726 1.1516315 1.0613537 0.20593752 0.22482269 -0.16762081 0.33238482 -0.31338114 0.009535429 0.19747959 -0.14682616 0.62594575 0.6560426
YDR174W 0.004224865 -0.5005042 0.15581198 0.22483917 -0.25365302 -0.515786 0.46893555 -0.4343425 -0.17859437 -0.47348082 0.40152782 -0.6103168 0.40467414 -1.0337712 0.004808506 -0.38644108 -0.18818104 -0.13540627 0.48347324 0.67956686 -0.58291215 0.9488334 0.5600515 0.29885364 -0.052866373 -0.21849935 -0.9098579 0.32235587 0.28983277 -0.22265075 0.116548866 -0.577023
YHR079C -0.41541332 -0.5557728 0.9329392 -0.30210513 0.5253809 -0.42452207 0.18090402 -0.29589397 -0.4675439 0.7743005 -0.6171837 -0.05300834 0.6770578 -0.5223309 0.1567794 0.09148884 -0.9067186 1.1368392 -0.40904462 0.4886021 0.5820456 0.328074 0.9397676 0.34234178 -0.45012236 -0.1477192 0.36990076 0.16835637 -0.61769474 0.2317919 -0.009041761 -0.46732652
YGL030W -0.25677934 -0.8570023 -0.19175182 -0.27855697 0.39195874 0.21781851 0.6732551 0.083641894 -1.2577549 0.044355914 0.6402755 -0.85305244 0.56046605 -0.4338833 0.63910705 0.18990695 -0.2403066 -0.33977914 -0.23738097 0.17094445 0.54244787 0.9197053 0.096517675 -0.5197073 -0.16225879 -0.5588271 -0.81167305 0.3739568 -0.1384746 0.16868258 -0.04041477 -0.02256366
YFR024C-A -0.31642815 -0.2329214 0.25911415 0.7918598 -0.61481005 -0.05275359 0.11089597 0.30771858 -0.3103889 -0.067155786 -0.4433891 -0.74730825 -0.03628549 -0.5973315 0.07242891 0.37106565 -0.64841807 0.25099525 -0.5858098 1.5130337 -0.4732016 0.90925395 0.06043704 -0.1657638 -0.5440957 -0.20341362 0.022129057 0.53646564 -0.4430112 -0.34336588 0.41918212 0.35319123
YJL092W -0.10501122 -0.3011914 0.63665783 0.73579943 -0.33836573 0.07533091 -0.046067763 -0.61586004 0.1274032 0.6475914 -0.1879698 -0.40539533 -0.5165351 -0.73364186 0.44668257 -0.72588307 -0.12565415 0.0819935 0.2594388 0.5383521 0.13111779 0.49762684 0.18987 -0.26081818 0.8286016 -0.5835082 -0.49720725 0.15239026 -0.27464715 0.19873421 -0.23424193 -0.58300793
YGR085C -0.45842096 -0.97711134 0.18488705 -0.33886012 0.4285913 0.17725879 0.98018295 -0.058165092 -1.416898 -0.013965736 0.46906063 -0.944289 0.6197391 -0.14762014 0.2805426 0.0059870915 -0.22972965 -0.1983796 -0.05584902 0.26801503 0.5895037 0.8869414 0.10024222 -0.7282415 -0.25221613 -0.7796204 -0.5995839 0.45859066 -0.039536335 -0.15667084 -0.43659428 -0.0884915
YGL207W 0.1233347 -0.34623742 0.38813844 0.6927618 0.4207487 -0.72070295 0.26501438 -0.10154215 -0.42565152 -0.3683301 0.2091421 0.08132916 0.69382125 -0.6908519 0.09462385 -0.09027698 -0.5472589 -0.71543115 -0.35695276 0.2913578 0.30800658 0.7468471 0.04238979 0.41575983 0.35323703 -0.2724656 -0.35217246 -0.21736963 0.13374777 0.57954365 -0.66227216 0.26475638
YML063W -0.33497885 -0.59016556 -0.16636299 -0.0934023 0.40869352 0.057632662 1.165901 0.13774347 -1.3211435 0.19269294 0.06715876 -0.7632444 0.5311388 -0.12808117 0.36406007 -0.24946342 0.0106321 -0.14935361 -0.05630982 0.54842156 0.39455685 1.038151 0.014123052 -0.9268282 -0.103599764 -0.5502239 -0.60246134 0.5068174 0.0806616 -0.06934605 -0.16302627 -0.220105
YDR432W 0.21179797 -0.63893485 0.0259867 -0.27303195 0.25687584 -0.2726697 0.29891294 -0.033296477 -0.6783724 -0.9528734 -0.022368157 -0.4129104 0.43562302 -0.86264783 -0.126604 0.38984525 -0.5291578 0.2409538 0.52699304 0.55584735 0.2159818 0.27471846 -0.018648556 -0.42424735 0.15019195 0.44915593 -0.5717078 0.17908005 -0.6721614 0.49331233 -1.1462126 0.8732787
YER165W -0.010694009 -0.59834963 -0.6530359 -0.14601034 -0.012816856 -0.10301252 0.09795094 -0.19108108 -0.4974497 -0.24066892 0.2113499 -0.74896616 -0.34304523 -1.0249724 0.060462814 -0.07252537 0.12408827 0.2105493 0.5494224 0.5752916 0.48373297 0.5677116 -0.11993716 -0.27984092 -0.0006928741 -0.27987933 -0.9125198 0.076713525 -0.95799315 -0.091041364 -0.78817284 0.4305419
YDR188W 0.108801745 -0.25394842 0.5618049 0.010514241 0.5397142 -0.55193603 0.7441027 -0.63890046 -0.5921967 -0.07683168 -0.47378758 -1.0297674 -0.75510323 -0.055562567 0.50379544 0.31836706 0.15962052 -0.19131728 -0.2630749 0.8651587 0.37394208 0.5494841 0.43755347 -0.23237753 -0.086315446 -0.46560368 -0.5049051 0.102738194 -0.3649595 -0.3626652 -0.1094038 0.38555345
YGL179C 0.27318713 -0.864093 -0.0032963173 0.84427434 0.45400554 -0.15216307 -0.016401883 -0.70317334 -0.11473885 0.15785857 -0.7215861 0.10841949 1.1779786 0.07157613 -0.29057777 -0.5243599 -0.77407724 -0.18006626 -0.45105353 0.43221274 1.0277193 0.7937663 0.49008223 0.20839944 0.28062558 0.008594311 -0.09275439 0.2821883 -0.13694341 -0.19891769 0.9194393 0.0284637
YFR031C-A -0.24111235 -0.7836906 -0.39372894 -0.22774862 0.22917324 0.4628055 1.0146227 0.21473958 -1.3658499 0.12585065 0.3593596 -0.7829315 0.34563282 -0.35784552 0.04231319 -0.17249322 -0.30926442 -0.06910881 0.124211624 0.49461293 0.576372 0.84937125 -0.042762112 -0.735443 0.37685132 -0.26774812 -0.8144625 0.57928926 0.048058745 -0.43852827 -0.53629863 -0.09137582
YDL147W -0.27283368 -0.627751 0.24068654 1.0079864 0.52920973 -0.02135933 -0.5349816 -0.5708204 -0.1512387 0.44084737 0.34540555 -0.35515377 0.3657559 0.4261302 0.5949753 -0.082099065 -0.4583261 -0.34714326 -0.57405466 -0.24703541 0.33096543 0.7708287 0.0663482 -0.7893539 0.19856137 -1.4127805 -0.6528515 0.04625996 -0.0039688097 0.17625265 -0.82944715 0.7629716
YHR007C 0.4373357 -0.8824356 0.7802327 0.5119263 0.030113446 0.062520675 0.6699682 0.42819703 0.10924797 -0.08582379 0.4613748 0.10363119 -0.013314038 -1.2106307 -0.32836533 -0.32096067 -0.95353967 0.71014565 1.0306251 -0.012764046 0.48319918 0.9891564 -0.78705776 -0.6043109 -0.37488073 -0.3877386 -0.5144898 -0.5834477 0.8810572 0.07365854 0.75375545 0.16723204
YER177W -0.53043294 -0.6360141 -0.6703917 0.30947933 0.1578708 -0.47294438 0.100671984 0.37520242 -0.9659452 0.17140955 0.20704475 0.03348852 -0.011337147 -0.096401095 -0.23526846 -0.29300147 -0.019202264 0.37510517 -0.1817813 0.6980378 0.34764788 0.6510183 1.2353158 -0.18096364 0.50300086 0.19983135 -0.07414071 -0.3649035 0.6072462 0.19699524 -0.103252016 0.023653455
YML064C 0.5709612 -0.06769298 0.5146468 -0.35228783 -0.13944879 -0.7562657 -0.21189535 -0.59371614 -0.50704455 0.15865777 0.43131503 -0.74525845 -0.21089634 0.18359941 -0.33203682 0.20637447 0.02192622 0.7463138 0.33363703 0.18428534 0.6723745 0.7200878 0.5389128 -0.48465583 0.87592024 -0.44719234 -0.46434554 -0.40218738 0.23778164 -0.14348686 0.03456174 -0.0053156614
YCR057C -0.21443829 -1.0872953 -0.39201805 0.45555943 0.72866094 -0.2555548 1.3757178 -0.2991617 -0.72175527 -0.13788632 0.005853327 -0.8661517 0.9443423 -0.16845526 0.24121535 0.15115483 -0.018617501 -0.2260909 -0.07859238 0.3434148 -0.14435916 0.6230914 -0.10698557 -1.0537528 -0.035773788 -0.6204761 -0.42103392 0.3530088 -0.19869374 -0.14914726 0.055272184 -0.31770986
YLR197W -0.05384277 -1.0748928 -0.58911186 0.46269754 0.88487 -0.5270778 1.1959598 0.13568774 -0.58793926 -0.644829 0.4167817 -0.5981065 0.35913727 -0.47571248 0.18167964 0.1967773 -0.095604755 0.06531022 0.26954332 0.503118 -0.050593518 0.5545287 0.042387478 -0.25967082 0.31008685 -0.3187835 -0.42829588 0.14785178 -0.08790108 -0.15169917 -0.011053458 -0.17862447
YLR347C 0.7998604 -0.2698803 -0.41986966 0.5668998 0.31008044 -0.05113588 0.084266715 -0.029705836 -0.783756 -0.2608948 -0.34544975 -0.49450976 -0.36696902 -0.23429523 -0.17023453 -0.18742512 -0.110310785 0.13432586 0.26146874 0.30018324 0.28359044 0.9674724 0.53080714 -0.6356329 0.34716564 0.31323218 -0.8831187 0.35162184 -0.73431486 -0.27002794 -0.88798684 -0.46229517
YKL180W -0.33396593 -0.5338291 0.024659075 -0.24933372 0.5542338 0.5978259 1.2467319 -0.05484005 -1.1809661 0.046356987 0.23053023 -0.19588746 0.75291973 -0.28179002 0.43222785 -0.27576852 -0.1798235 -0.14409894 0.06787185 0.4753589 0.7402376 1.089648 0.41368294 -0.891997 0.16539036 -0.35369787 -0.8307058 0.5892372 0.49084586 -0.455101 -0.26529837 -0.23464525
YLR029C -0.2831821 -0.83844084 -0.034343924 -0.013163683 0.36596763 0.28681955 0.8644137 0.08045276 -1.3405066 0.029974908 0.34421366 -1.0787954 0.5615276 -0.2602895 0.63803416 -0.2431574 -0.5540261 -0.30887777 0.046483804 0.2057687 0.36460108 0.6843142 0.17458516 -0.68450564 0.007533271 -0.5069772 -0.5726803 0.1950091 -0.0679859 -0.35352772 -0.63960046 -0.32227218
YHR165C -0.74360645 -0.65580386 -0.3607667 0.2567483 0.09779295 -0.5327877 -0.109941 -0.5413228 0.22222428 -0.38058147 0.5239919 -0.0062613646 -0.08295814 -0.65384334 -0.07064129 0.3142751 -0.30861434 0.40019855 0.48459056 0.70710284 0.8511858 0.7511749 0.16977061 -0.4074685 0.2365326 -0.13923556 -1.0204966 0.7014265 -0.73715234 0.8003043 -0.09515025 0.17121516
YLR372W -0.18504944 -0.8560785 0.5933114 0.25589117 -0.3521808 -0.4933166 0.10540486 -0.6206909 -0.0349144 0.5956286 0.8869534 0.04414388 -0.20212027 -0.6478951 0.08215831 -0.25976738 -1.7675802 0.7644728 0.34511966 0.044334 0.21573249 0.9173275 -0.4674627 -0.4580278 -0.6720951 -0.80929804 -0.18542355 -0.2884362 0.16644883 -0.27156246 -0.16917297 0.08783436
YGR218W 0.6980709 -0.7284903 -0.40681705 0.35724887 0.014623523 -0.05922346 -0.26679993 -0.2120754 -1.0042349 0.63191634 -0.39432397 -0.56322885 -0.68285733 -0.45263737 -0.5845333 0.4042665 -0.14702618 0.19629669 0.009951036 0.42210695 -0.26296887 0.8871769 -0.07937094 -0.49690866 0.54085207 -0.731569 -0.4774578 0.42480788 -0.113668576 -0.15743643 -0.019372879 0.18796688
YGL076C -0.48687193 -0.54684174 0.05930361 -0.28256017 0.25371268 -0.12706366 0.8029602 -0.053879786 -1.328774 -0.34965655 0.34744745 -1.0094761 0.12614451 -0.2341231 0.45355898 -0.04472668 -0.3079246 -0.118763715 -0.09972005 0.29855695 0.6027823 0.8438479 0.39846745 -0.7699522 0.009174906 -0.3201487 -0.45508575 0.44689664 0.118809015 -0.5404661 -0.5744176 -0.02649224
YOR204W -0.5225107 -0.35257763 -0.7684129 -0.40024343 0.09153554 -0.24179274 1.1535428 -0.24690789 -1.2270079 0.2548925 0.25431812 -0.718857 0.3596836 -0.026117379 0.469686 -0.3544398 -0.13908704 0.27692664 0.5762107 0.27784294 0.08742054 0.8685692 0.24546042 -0.3603626 -0.093397886 0.25119737 -0.67099106 0.26835507 -0.98269 0.13421704 -0.4334034 0.4728973
YER112W -0.63063556 0.06738102 -0.21175705 0.31324175 0.3684792 -0.4144672 0.34170222 -0.27364287 -0.4157273 -0.04575034 0.39188483 -0.079500765 0.031817134 -0.6356597 -0.15539807 -0.08023825 0.28918478 0.85864735 0.8802414 0.30228344 0.9160442 0.84935075 0.05475984 -0.043068565 -0.088859566 -0.28157043 -0.6179929 0.5470046 -1.0853254 0.2997606 -0.38851553 0.31075454
YDR447C -0.25761765 -0.7492549 -0.14110601 -0.07603297 0.3822275 -0.06978724 0.9578178 0.11983187 -1.5101339 0.24090162 0.30259132 -0.63984865 0.7976293 -0.025660025 0.29846364 -0.06330016 0.06773457 -0.35345614 0.18425003 0.3530124 0.5390489 0.5256185 0.20224945 -1.067522 -0.29259357 -0.46759698 -1.0272827 0.55236 0.18218979 -0.21416943 -0.10265223 -0.5148216
YKL145W -0.06251358 -0.46409234 0.00999273 0.7195838 0.37730893 -0.22596225 -0.18894993 -0.20800991 -0.30786774 0.52867717 0.7201691 -0.8351488 0.02105119 -0.22645167 -0.1909793 0.05365701 -0.7414985 -0.40273574 0.24441254 -0.122497685 0.037767455 0.6343805 0.4260804 -0.219255 -0.080372036 -1.2784319 -0.32596874 -0.08734992 0.2724625 0.6150583 -0.8075124 1.0558572
YHR114W -0.9292127 -0.32962424 0.16602166 0.29982662 -0.7976597 -0.2306068 -0.35749802 0.13947468 -0.5089699 -0.010737436 0.14467873 -0.44936365 -0.055187874 -0.7892887 0.027208738 0.30071774 -0.6460442 0.8812276 -0.46134576 0.78792214 -0.2123051 0.22127868 0.22352153 -0.78273916 -0.11634846 -0.8012277 -0.29958215 0.644218 -0.1984943 -0.5283244 1.139345 0.16832697
YJL190C -0.29741487 -0.78161585 -0.18242733 -0.4188025 0.41806805 0.06204553 1.1302394 -0.16034248 -1.263101 -0.13543393 0.36833137 -0.73647654 0.42110863 -0.04238855 0.33377686 -0.19451684 -0.19858515 -0.19800247 -0.003172308 0.72836953 0.34287652 0.6193432 0.122208744 -0.7536092 0.36677006 -0.55781317 -0.9377099 0.49487293 -0.12588523 0.09942429 -0.25806588 0.239187
YPL235W 0.42223987 -0.4863073 -0.021843215 0.22182295 0.43390167 -0.4122413 -0.12277745 0.20578024 -0.45038572 -0.047103457 0.3351712 -0.32647067 -0.10501507 -0.64560246 -0.059756383 0.8857232 -0.1391923 -0.013216881 -0.11273523 0.39354572 -0.346367 1.4065224 0.766536 0.0180371 -0.6568669 -0.4405588 -0.8602201 -0.6747434 -0.26719466 0.8327527 0.16371289 -0.25640702
YGL103W -0.49903634 -0.52971935 -0.18249713 -0.19968753 0.46393734 0.3031049 0.52935183 0.13608313 -0.9440871 0.08403795 0.44435355 -0.6522831 0.41094705 -0.29879126 0.5912466 -0.21044813 -0.34212804 -0.07119686 0.24603103 0.30260065 0.96311694 0.9654322 -0.21354538 -0.8559339 -0.22826466 -0.58898413 -0.88760555 0.82499045 -0.016456224 -0.049312823 -0.29894173 -0.17948471
YPL004C 0.20167781 -0.47784352 0.011846195 -0.10862418 0.8242194 -0.198415 0.437677 0.5630893 -0.25047418 -0.09606027 -0.37932336 -0.31934598 -0.42672348 -0.4415245 0.9826534 -0.8226611 -0.40113 0.61507505 0.19755557 0.5656871 0.26768574 0.5814493 0.25043038 -0.54173285 0.136837 0.030172294 -0.3815272 0.004512624 0.035323735 0.1986425 0.52799684 0.35214028
YPR016C -0.36647093 -0.72323155 -0.71140975 0.12750702 0.35756668 0.25609332 0.4698589 -0.3464722 -1.2363586 -0.33829352 0.46585098 -0.4077647 -0.15085787 -0.39189807 0.5730483 0.04752835 -0.5142305 -0.22643314 -0.10318381 0.05108897 0.662088 0.79231906 0.3116438 -0.6833977 0.4976966 0.097488 -0.5100333 -0.25688058 0.0475347 -0.6374452 -0.46030578 0.1054156
YMR049C 0.15027599 -0.84930295 -0.2094292 0.07313583 0.52210295 -0.35241398 0.39898485 -0.08265602 -0.8088405 -0.5648955 0.49608377 -0.29220948 0.2210146 -0.39930275 0.31611884 0.04659889 -0.9143869 -0.48610047 -0.11627864 0.110326536 0.9797498 0.53799975 0.53613216 0.04417731 0.2666117 0.003030161 -0.4122453 -0.15386467 -0.07231497 -0.49408937 0.0023387216 -0.36984578
YDR224C 0.4521952 -0.5586078 0.447512 -0.108166076 0.39736736 -0.55267626 0.031834625 -0.15522717 -0.42171174 -0.19388801 0.12261596 -0.2789218 0.7371107 -0.7127609 1.0381521 0.37245452 -0.16514336 -0.056982424 -0.08356035 0.55996895 -0.3529066 0.95101285 0.53423274 0.18055108 0.23499446 -0.0288646 -0.73131025 -0.45736954 -0.23283476 0.23072465 -0.63056034 -0.40027547
YDR412W 0.20737414 -0.8019661 -0.51462436 -0.27794528 0.18980005 0.5653805 0.13064969 0.04432862 -1.3334316 -0.31595376 0.18992285 -0.7719953 0.16980247 -0.7063273 0.19872667 0.24213481 -0.6292173 0.0342775 -0.010100652 0.12565657 0.84394574 0.8931891 0.20309202 -1.0182836 0.27924484 0.11421574 -0.5810077 0.3425299 -0.1292029 -0.70955837 -0.71253747 -0.12660123
YMR047C 0.53665316 -0.4491406 -0.88901633 0.39709997 0.23490918 0.14701189 0.08494345 -0.7406998 -0.71166945 0.27487653 -0.39683333 -0.5648134 -0.08668173 -0.40449485 0.24572475 0.6517748 -0.63503915 0.24465843 0.31636629 -0.04774254 -0.14282285 1.0349478 -0.024861725 -0.74985594 0.50225025 -0.04926618 -0.836206 -0.0975953 -0.41727197 -0.07791133 -0.7536806 -0.67054504
YLR448W -0.34337345 -0.6510014 0.16807246 -0.4522012 0.019285483 -0.10336902 0.76998895 0.2795578 -1.1088454 -0.28866178 0.18356517 -0.74923533 0.7096593 -0.2827691 -0.058617823 -0.5210077 -0.116487324 -0.22431113 -0.09007786 0.4744101 0.70787436 1.0777647 -0.12684554 -0.95077014 0.16993783 -0.47712687 -0.9458686 0.631293 0.25237826 -0.6721505 -0.48243383 -0.08608002
YHR203C -0.4748014 -0.96574396 -0.017785465 -0.18028808 0.86814314 -0.12058254 0.93116957 0.05672068 -0.97464544 -0.047205642 0.23689707 -0.82662785 0.781747 -0.09596108 0.28338194 -0.21718255 -0.34448588 0.04110568 0.026075907 0.4120094 0.3944775 0.41829622 0.025553355 -0.9597547 0.17278491 -0.6459067 -0.7321285 0.81113976 -0.0948335 -0.002374037 -0.51612353 -0.27990928
YGR103W 0.07590402 -0.7873283 -0.16213013 0.0344276 0.2899289 0.37034407 0.25581196 -0.13296497 -0.8179318 -0.5197883 0.50109434 -0.7462055 0.19677395 -0.7167795 0.61793643 -0.08941928 -0.7301503 -0.17314465 0.54794914 -0.06567269 0.7994793 0.9760021 0.1465583 -0.5325741 0.75132596 0.09057253 -0.24822436 -0.08996418 0.40522817 -0.41848615 -0.6377857 -0.09582072
YIL133C 0.04851392 -0.5946876 0.21626899 -0.17588069 0.5174583 0.30320722 1.0660454 0.14191416 -1.1586698 -0.06423782 0.36764282 -0.9942294 0.5659593 -0.48641852 0.27581427 -0.0069080954 -0.32883957 -0.29657653 -0.009739077 0.14390895 0.73841745 0.7339789 0.4401564 -0.6725346 0.19697024 -0.36546165 -0.7548154 0.5512436 0.038182236 -0.5449424 -0.5091303 -0.22197318
YPR110C -0.934501 -0.8203349 0.9458966 0.5580547 0.92441267 -0.36325493 -0.12766834 0.4934859 -1.1564683 0.10992623 -0.08798221 0.037173275 -0.16278236 -0.30419564 -0.2838823 0.110934034 -0.3576818 -0.38910234 0.53916234 0.107752874 -0.11229146 0.2768687 -0.090018876 0.37828928 0.14731212 0.43076286 -0.8922366 -0.44927764 -0.9729816 -0.16537836 -0.0320138 -0.24118568
YDL082W -0.19939446 -0.7302534 -0.14326285 -0.37860116 0.013535772 0.029577956 0.9889191 0.08232061 -1.38994 -0.06563655 0.45832974 -0.95621204 0.76497513 -0.22412309 0.279933 -0.4321372 -0.16368409 -0.0946266 0.10716301 0.32085848 0.73004425 0.84913975 0.013532047 -0.9367596 0.27749237 -0.5679646 -0.6815762 0.5670145 0.054893687 -0.5878943 -0.4978065 0.13214673
YJL124C -0.35256964 -0.77315843 -0.31293055 0.43090886 0.34376413 -0.32932642 -0.18601096 -0.36055958 -0.54575133 0.06841811 0.5009488 -0.21774754 0.333458 0.08962448 0.018385932 -0.0323492 0.2879429 0.36993873 0.65536344 0.26125422 1.1418233 0.7867817 -0.49943992 -0.4250985 -0.20573287 -0.18676609 -0.2864499 0.3210267 -1.085304 0.5544359 -0.5142997 0.2658789
YJL106W -0.1838663 -0.28574052 0.56461567 0.53461504 0.6410311 -0.11547106 0.1419605 -0.39194456 -0.77480435 0.9997289 -0.4819788 -0.57648075 0.425422 -0.68973446 0.5006348 -0.07879442 -0.87992173 0.6978483 -0.09658432 0.7513413 0.7412084 0.116702035 0.94372046 0.5998545 -0.26618043 -0.33043247 0.51735365 0.6873638 -0.12285066 0.43164775 -0.41541836 -0.54799
YLR432W -0.37643763 -0.52229965 -0.06504955 -0.22514331 0.1395941 -0.8075477 0.45843625 0.060290918 -0.9529012 -0.3737134 0.52625674 -0.7286509 0.2564352 -0.44781333 0.51454836 -0.64132994 -0.11083724 -0.10026115 0.60518885 0.3491172 -0.06259194 -0.10412932 0.5453124 -0.42642346 0.1757866 0.0824829 -1.0315417 0.68616945 -0.105697915 0.1966414 -0.3883833 0.7101035
YNL124W -0.52133286 -1.1861745 -0.41101557 0.32913533 0.3677718 0.29775208 0.9616346 0.36208716 -0.82622045 -0.33578774 0.1492274 -0.22180232 0.2625825 -0.21552728 0.12834413 -0.4296396 -0.0024246841 -0.27224374 0.0059463526 0.8928599 0.381167 0.67016894 0.25035688 -0.45064604 -0.18355931 -0.182071 -0.58086926 0.0963407 0.0339677 0.07463023 -0.9946675 -0.2495912
YML012W 0.11404348 -0.4787819 0.7173309 0.621682 0.07952137 -0.7136341 1.0879472 -0.2850661 -0.18323752 0.072963275 0.5350536 -0.72955984 -0.156626 -1.1402259 -0.36878487 0.040677123 -0.9374808 0.095529966 0.21896377 -0.12102658 -0.3558898 1.0067793 -0.5083003 -0.19449897 -0.3405053 -0.3927922 -0.10310615 0.16218834 0.7835778 -0.26079464 -0.09701831 0.030328522
YOR310C -0.11216248 -1.4739333 -0.5838062 0.03325883 0.96979696 -0.5214084 0.7881651 0.2639205 -0.6997024 -0.5869841 -0.113280885 -0.48595545 0.5556667 -0.18399732 0.28355175 0.36688235 -0.29445997 0.30854025 0.18098012 0.24313708 0.37647498 0.44197932 0.037733965 -0.4217745 0.06720767 -0.57180995 -0.5502805 -0.12937336 -0.5297922 0.11788783 -0.021921761 -0.42552957
YDL126C -0.46251082 0.63125086 0.33118102 1.2733042 0.32073194 -0.029918555 0.0788979 -0.25509495 -0.8178261 0.5951977 -0.006467793 -0.915022 0.3495019 -0.35746452 0.12329681 0.0374819 -0.38198847 -0.1555633 0.11568157 -0.049499825 0.5336587 -0.05431688 0.4573835 -0.73637 0.31805608 -0.24692664 -1.0363339 0.020900683 1.1056806 0.52570343 -0.23265287 -0.44934478
YHR030C -0.038303945 -0.850252 0.5054555 -0.204016 0.63788754 -1.2856843 -0.13275388 0.11016122 -0.51325417 0.46333402 -0.26857865 -0.053668797 -0.2195902 -0.11389576 0.12307424 -0.56793797 0.036265716 -0.41118556 -0.4698019 0.3631183 -0.025205137 0.3678258 0.6360611 -0.5913023 0.014576294 -0.5243787 -0.049945567 -0.6577317 -0.48700985 -0.33991238 -0.27384827 0.15540597
YHL033C -0.053879343 -0.52729976 -0.080628216 -0.15848088 0.3499386 0.030074129 0.85186327 -0.12376897 -1.141341 -0.03458429 0.14751422 -0.9331632 0.71614856 -0.35198876 -0.018267473 -0.40737036 -0.21847717 -0.40687522 -0.57613164 0.23350821 0.5302973 1.0217466 0.22935918 -1.2199177 0.18371518 -0.23320287 -0.5824667 0.5507572 0.2893273 -0.15641573 -0.27255255 -0.16197503
YDR012W -0.48294857 -0.6746035 -0.40909484 0.18686093 0.32324702 0.2692507 0.61565477 0.19614922 -1.1762588 -0.13727213 0.29497954 -0.64066523 0.23589613 -0.4821632 0.31651002 -0.18496247 -0.5345917 -0.3916853 0.14531179 -0.027915614 0.97347575 0.7835578 -0.05789701 -0.7271775 -0.1326193 -0.35744256 -0.4895221 0.5032655 -0.38811672 -0.41012818 -0.6214324 -0.061016433
YNL030W 0.708976 0.04627313 0.63019675 0.49940968 0.25434068 -0.31935427 0.37658572 0.4284606 -0.44802904 -0.6271026 0.27719566 -0.23875578 0.4713005 -0.8445453 0.2699914 0.30520734 -0.46083403 0.009218434 0.29284543 0.59853554 -0.38358894 0.8585256 0.53027964 0.16089994 0.53821 -0.33512452 -0.91194886 0.34339285 0.11721028 0.16760871 -0.5242318 -0.01778898
YAR007C 0.37654087 -0.29567188 0.7596799 0.6723651 0.40671694 -0.5196308 -0.09691343 0.17916165 -0.50768346 0.009493104 0.3709606 -0.3526669 -0.27588573 -0.9558742 0.64069635 -0.7178665 -0.09607595 -0.30345604 0.39355603 0.83424187 -0.2080848 0.68649393 0.16154675 0.25225928 0.29295203 -0.23499914 -1.0828267 0.011096926 -0.1003525 0.43394515 -1.0244915 -0.6078858
YIL070C -0.23018362 0.24344368 0.32684863 0.009640524 0.3915192 -0.04666846 0.887075 -0.4648021 -1.4162488 0.35763815 0.015236307 0.18273649 0.027253162 -0.76126444 1.3911214 -0.5662489 -0.51207393 0.22621569 0.45237225 -0.0045252056 -0.13821323 0.42933112 0.41335544 -0.1622985 0.40139595 0.729865 -0.58968884 -0.5019595 0.30511904 0.089087725 0.51110715 0.89957523
YBL026W -1.0284501 -0.49031836 -0.05327514 0.61874974 -0.008121029 -0.74087 -0.16958924 -0.04880928 -0.3841356 -0.19641449 0.5619451 -0.70523584 -0.039892387 -0.9211979 -0.22581749 -0.014545742 0.28795442 0.5954145 0.71659917 -0.2593447 0.79003286 0.6693506 -0.5234325 -0.31278878 0.2042356 -0.1567941 -0.38417244 0.97664404 -1.2641994 0.1340564 -0.2135597 0.21540767
YER102W -0.40676725 -0.69109136 -0.5033938 0.102788605 0.56426316 -0.2868503 1.4196895 0.37823302 -1.0747218 -0.012320017 0.26895717 -0.8604685 0.7974458 -0.11905788 0.3820824 -0.14620747 -0.14226426 -0.27296436 0.31610748 0.378717 0.20130481 0.46355167 0.2747907 -0.7991153 0.1319259 -0.6812359 -0.7350564 0.3024787 -0.3690228 0.0048511866 -0.32535955 -0.024386397
YAR027W 0.3898981 -0.31071913 0.76603764 0.85124457 -0.3783473 0.11141225 0.35369864 -0.15379268 0.1041776 0.61733 -0.063202836 -0.4833245 -0.043954387 -0.41343772 0.02651491 0.020387992 -1.6216313 0.5830193 0.228706 0.45875973 0.22782068 0.65101576 0.20596844 -1.2186286 -0.8266912 0.23303662 0.1879658 -0.45917222 0.3671458 -0.35684362 -0.59562933 -0.44964346
YGR270W -0.399677 -0.45010954 0.3293551 0.3552866 0.54114485 -0.9694555 0.11505432 0.23146814 -0.39118087 -0.3702822 0.2143043 -0.057688016 0.043277685 -0.67675287 0.28659496 0.23272675 -0.32042667 -0.5571167 0.6475551 0.4216462 -0.02795169 0.9884173 0.66551906 0.47320503 0.47206342 -0.025233218 -0.735461 0.15830702 -0.2787598 -0.08044247 -0.66715837 -0.7542931
YPL203W -0.23265131 -0.89463437 -0.03642051 0.8294318 0.28921878 -0.8684729 -0.28335816 -0.52815104 -0.6073664 0.45342934 -1.0811831 -0.14403917 1.0442504 -0.6766847 -0.59155935 -0.22849664 0.21094048 0.0018119259 -0.14239669 0.42970774 0.9346264 0.33846813 -1.6293285e-05 -0.04361202 -0.6234158 0.6116009 -0.37063396 -0.83549815 0.2691861 0.018810395 -0.18604259 0.057335008
YJR010C-A -0.54354084 -0.66104496 0.46674767 0.5215497 0.27747092 -0.18368776 0.23491551 0.0029884682 -0.29480115 0.03524458 0.73733586 0.15112281 0.54687166 -0.9213483 0.23382501 -0.13049835 -1.2154721 0.3589411 0.31206048 0.06740011 0.22481734 0.7714933 -0.39253977 -0.4031434 -1.1567627 -0.8915921 -0.23679048 0.23304471 0.59591687 -0.5554898 -0.35376665 -0.46209195
YLR175W -0.12818891 -1.0614903 -0.4532847 -0.052996013 0.7014818 -0.1752563 0.8375337 0.084922634 -0.5874151 -0.55708784 0.059063442 -0.5812087 0.37696996 -0.642808 0.29267073 -0.31418315 -0.14063779 0.081886224 0.19731177 0.34706938 0.35695443 0.22767206 0.062009394 -0.7480946 0.38989854 -0.5302912 -0.36937404 -0.22643891 -0.25343382 0.07706628 -0.2466311 0.0728829
YGR252W 0.49934366 -0.47989202 0.35188964 -0.21959157 0.24360749 0.2208748 0.27126724 0.32040766 -0.5104987 0.503675 0.03026 0.13880956 0.5950211 -1.0317425 -0.2979347 0.16734977 -0.12092038 -0.26028758 -0.5305153 0.0040475894 0.29597828 0.70072293 0.71525997 0.048923828 0.36798418 -0.47653165 -1.496206 0.22452986 -0.047201253 -0.14253065 -0.0003746274 0.07597547
YPL129W -0.1863032 -0.6991211 0.58557475 0.32962206 -0.13375613 -0.33064234 -0.108241744 0.41948876 -0.24827841 0.09580399 -0.5554979 -0.41446957 0.39818487 -1.5469306 0.1224883 0.13594945 -0.06745113 -0.6052783 -0.37566504 0.3487018 0.1932785 0.31239673 0.7090992 -0.4842123 -0.6068241 -0.3862965 -1.4736729 -0.5181072 -0.46956226 0.4113636 -0.4624876 -0.4531034
YBR055C -0.71184516 -0.9197605 0.059345182 0.1095175 0.8363916 0.05799225 -0.17911562 -0.82442355 -0.18721525 0.17117493 0.18527246 -0.084124625 -0.026759159 -0.4252064 -0.3696264 -0.24671984 0.10268364 0.1378447 0.8821007 0.42641878 0.8354336 1.24959 0.13592224 0.10042817 0.022923663 -0.031407945 -0.9539165 0.70323026 -0.12596637 1.1319745 0.62940687 0.82985073
YOL012C 0.32180724 -0.50313526 0.12138375 0.21044527 0.119281724 -0.47436315 0.30298302 0.21468076 -0.249105 -0.59411913 0.47622618 -0.36437687 0.39379 -1.1073226 0.50471514 0.1130913 -0.40386274 -0.19714405 -0.2556192 0.3951513 0.0017878878 0.87298566 1.3392487 -0.18389727 -0.2463043 -0.05299142 -0.67665654 -0.24364991 0.27412635 0.5009556 -0.3143645 -0.6086371
YPL209C 0.28466332 -0.494587 0.44467038 0.4248929 0.4229689 0.34604645 -0.1169753 -0.6681972 -1.3430339 -0.23405029 -0.59620315 -0.5108703 0.8938423 -0.53670186 -0.2349959 -0.14065725 0.4289422 0.16685268 0.46880075 0.36743933 0.515851 0.35530156 1.1933637 -0.37605992 0.07913466 -0.15167907 -0.17798573 -0.2756895 -0.02747466 -0.38954014 0.67256737 0.055666067
YER110C 0.7353778 -0.3424686 0.007702362 0.24639866 -0.0359564 0.109620005 0.06582659 -0.01724003 -1.206425 -0.061014745 0.102747366 -0.34818888 -0.5764911 -0.59187895 -0.0736521 -0.20985168 -0.6343678 0.0015824178 -0.19698958 0.33706865 -0.46739718 1.1720158 0.37823638 -0.11071167 -0.23856282 -0.13062115 -1.0166552 0.2749541 0.08727915 0.15821844 -0.4485137 -0.28220272
YDR130C -0.78982157 -0.65411407 -0.10124557 -0.29883656 -0.0060291807 0.63714826 0.2994672 -0.17278498 -1.5074381 -0.019751593 0.055906482 -0.030693496 0.31698385 0.03443456 0.30075157 -0.228756 -0.17722644 0.0038775532 0.44065714 1.1113002 0.102478854 0.32010943 0.7785846 -0.6339515 -0.31872246 -0.8951339 -0.61965734 0.08533816 -0.039567348 -0.39245674 -0.2929876 0.1134548
YDL055C -0.08613138 -0.14137171 -0.21563949 0.12442277 0.7819065 0.071934074 0.28908068 0.027656175 -1.0401467 0.8173756 -0.111034505 -0.8033344 -0.3734826 -0.24411519 0.08040612 0.18691601 -0.33296525 -0.3765489 0.7031903 0.33150297 -0.10159691 1.2045747 0.37099823 -0.04635659 -0.27082554 -0.7219543 -0.60126734 0.041431222 0.41944724 -0.00083303085 -0.09590068 0.3798639
YPL106C -0.12727205 -1.2468767 -0.14784925 0.5288914 0.5916609 0.19363578 0.05712322 0.11424415 -0.659105 0.4794345 0.034414444 0.1113921 -0.37321776 -0.07810826 0.038783457 -0.3648116 0.035473753 0.27502358 -0.54778266 0.6361538 -0.27866435 0.5412869 0.26694697 -0.21201211 0.09520439 0.4367538 -0.6398787 -0.05555837 0.14253542 0.0012981752 -0.8157128 0.37002972
YCR034W 0.27410626 -1.1158814 0.5471147 0.62223977 -0.3909956 -0.67605835 0.42742777 -0.2992883 -0.11099509 0.49895367 0.8025765 0.2887567 -0.19985753 -0.79398674 0.12149869 -0.020887157 -1.529513 0.97166556 0.54532397 -0.06649905 -0.07801923 0.8302663 -0.56164724 -0.23908827 -0.5828993 -0.6922347 -0.32242724 -0.36031497 -0.0349276 -0.35474917 -0.31338495 -0.40918258
YGR060W -0.16291352 -0.94952655 0.7552008 0.31352875 -0.0018313327 -0.27760977 0.5538557 0.19506462 -0.25759792 0.39426237 0.60652775 -0.37897193 -0.07035128 -1.1903001 -0.37712178 0.37625873 -1.322025 0.84889233 0.5332098 -0.1126728 0.1530851 0.9355126 -0.39369294 -0.5995172 -0.66041833 -0.8021387 0.07519096 -0.37907648 0.81294733 -0.18508123 0.21731517 0.31721604
YNL061W -0.24292855 -0.9743403 -0.28648385 -0.36692265 0.3560486 0.036290053 0.50737494 0.01810904 -1.0448343 -0.5296408 0.46528926 -0.7138695 0.4689721 -0.7244348 0.69868195 0.18324183 -0.8570644 -0.06809669 0.13850485 0.0678735 0.80257636 0.6307913 0.05040448 -0.40951374 0.37910965 -0.29057828 -0.37366885 -0.091479026 -0.080373935 -0.8154968 -0.24688621 -0.14072312
YOL139C -0.12595247 -0.25715563 0.07091601 0.025859619 0.56440204 -0.5010883 0.5881316 -0.3238049 -0.62586683 -0.0483271 0.1244395 -1.0876935 -0.028452726 -0.34389356 0.30753765 -0.06541267 0.323441 0.48954263 0.3759467 0.66495097 0.80860454 -0.005045604 -0.23119022 -0.4032323 0.05913239 -0.302117 -0.57458645 0.14289935 -0.5472934 0.5651455 -0.021225194 0.318474
YJL014W 0.34333026 -0.17138568 0.59195524 0.37161955 0.32495224 -0.83831257 0.5278668 -0.35045278 0.22525091 0.17371994 0.073121086 -0.8130124 -0.3213028 -0.043331914 0.6904479 0.113784894 0.17879838 0.40435076 0.049135216 0.6225257 0.2529423 0.5171097 0.0019981456 0.39768174 0.13414986 -0.93208903 -0.96678865 0.004662647 -0.114383675 -0.46757123 0.44074637 0.28103575
YER006W 0.0824334 -0.9480219 -0.58732444 -0.036339283 0.41378662 0.022106018 0.68252367 -0.053805057 -0.64669615 -0.29415578 0.5262932 -0.646795 0.1734202 -0.46393776 0.66476244 0.26900387 -0.6322175 -0.41594437 0.13579465 -0.08180626 1.0883884 0.56325173 0.29729718 -0.83527535 0.26746008 0.2622541 -0.66751194 -0.3343501 0.14529133 -0.63216627 -0.2134391 -0.26816612
YPL012W 0.046019983 -0.7748727 -0.5753839 0.25955033 1.0657808 -0.060039677 0.9675977 -0.5437558 -1.1635264 -0.38970372 0.16156024 -0.8023705 0.28551477 -0.34170046 0.74884206 -0.08611309 -0.5259186 0.072336465 -0.09869203 0.49977818 -0.011677268 0.4854199 0.02482926 -0.84702575 0.40357777 -0.5093131 -0.41657555 0.094285935 -0.54710543 -0.25002217 -0.05726895 -0.33550656
YDR025W -0.03390969 -0.6733343 -0.32080135 -0.40778446 0.24968816 -0.15832497 1.2570156 -0.1690606 -1.0280178 -0.049607538 0.106125444 -0.592361 0.7829113 -0.046349287 0.2725624 0.07695483 -0.2663044 -0.12573881 0.06402527 0.5740615 0.23683101 0.64898396 0.190929 -0.78339183 0.17024735 -0.7431423 -0.8209288 0.5144267 -0.24328595 -0.0097432975 -0.09949601 0.013057357
YHR121W -0.14701019 -0.7875528 -0.59645665 -0.15971078 -0.26586238 -1.4064127 0.3471108 -0.45828986 -0.6047954 0.28627777 0.058815442 0.12814778 0.33985934 -1.0074316 0.8428662 0.078460194 0.2034066 0.27190918 0.21805461 -0.07347144 -0.041204456 0.35506687 1.0367041 -0.36985144 0.68151295 -0.23981129 -0.45316747 -0.010411858 1.1330756 0.10700286 0.31580645 -0.44328913
YNL069C -0.20233259 -0.8180774 0.07066388 -0.3063072 0.15123926 0.106034845 0.8885191 0.1851765 -1.2807051 -0.054353636 0.20223485 -0.80431914 0.6456777 -0.08183166 0.14894065 -0.48590142 -0.17897418 -0.25327492 -0.18430169 0.53760844 0.42572486 1.2023625 0.053815503 -0.9412786 -0.008236538 -0.3638096 -0.752757 0.7766326 0.059937347 -0.2472882 -0.6265402 -0.14688765
YDR471W -0.19826607 -0.63050497 0.2454415 -0.2499686 0.6421551 0.17455466 0.85412407 -0.017312229 -1.1989348 0.19203605 0.40672415 -0.64410865 0.4504872 -0.07204294 0.36865178 -0.51226604 -0.37176457 -0.18157841 -0.14986973 0.4175207 1.0463332 0.77318704 0.110977404 -0.789095 -0.30107126 -0.33858275 -0.7975319 0.5474637 0.1926302 -0.43794003 -0.5127467 -0.49586254
YBR048W -0.26372325 -0.86484766 -0.22003768 -0.26394516 0.58578193 -0.031482574 1.1879524 -0.07795032 -1.252776 0.22741546 -0.029667864 -0.79993373 0.8371856 0.090632096 0.19304095 -0.03273897 -0.41159505 -0.1957695 0.032465313 0.26155534 0.3881715 0.6396354 0.017196352 -0.8800472 0.1145203 -0.6080643 -0.89013493 0.5162676 -0.17660393 -0.089329645 -0.17746767 -0.31651622
YML048W 0.24471484 -0.9073228 0.4516572 0.6594349 -0.028012766 -0.6585752 0.27422276 -1.1800556 -0.33247593 0.40476346 0.58678186 0.6157987 0.079080366 -0.5681271 0.037812144 0.1072243 -1.4704752 0.7474415 -0.15722609 -0.046675622 0.22499886 0.6171843 -0.43162385 -0.25486538 -0.84075147 -0.38542023 0.08338 -0.5755196 -0.04446101 -0.1514188 -0.32439804 0.16422255
YKR081C -0.36229056 -1.1761298 -0.18616198 0.03955073 0.32900155 -0.06285773 0.3983664 -0.053594798 -0.85688823 -0.6132684 0.8344036 -0.9190076 0.5932549 -0.86568034 0.61662155 -0.6475143 -0.7695211 -0.2300521 0.09223401 -0.10270889 0.6247599 0.42559114 0.32749337 -0.3830223 0.039762374 -0.08792296 -0.20575896 0.14779878 -0.1059882 -0.6825594 -0.35802507 -0.0840059
YOL051W -0.109925345 -0.74653244 0.51643336 0.44196254 -0.25577536 -0.1953185 0.4814263 0.32286766 -0.56892467 -0.006980102 -0.8235579 -0.07743778 0.42742112 -1.5062847 0.13712095 -0.08640108 -0.12420493 -0.40371808 -0.43202442 -0.28659725 0.31017855 0.20219083 0.53913844 -0.74000245 -0.14403005 -0.05603016 -1.6503963 -0.14861217 -0.3210153 0.5197944 -0.5727769 0.027574843
YPL198W -0.23194689 -0.8151501 -0.06552526 -0.13025934 0.7735993 0.23900549 0.9116404 0.30565548 -1.2876151 -0.18243685 0.4081322 -0.8129309 0.5550385 -0.63502175 0.822755 -0.27925062 -0.41965723 -0.26062697 -0.038614333 0.22014587 0.711203 0.88954145 0.16220292 -0.6728381 -0.08206208 -0.35363725 -0.5316147 0.51265335 -0.06821686 -0.37391236 -0.32179287 -0.13371532
YLR249W 0.2557756 0.034466702 -0.5032584 0.2832821 0.22487472 -0.7553886 0.053563215 -0.42672482 -0.580056 0.23831402 0.38386708 -0.16116627 -0.31131142 -0.4407646 0.1645535 0.5670255 -0.31617022 -0.7452412 -0.0537103 0.57037014 0.20388484 0.8502887 -0.14021942 -0.23366168 -0.1804019 -0.039878402 -0.93376994 -0.05153625 0.28283235 0.35586837 -0.4652958 0.38588688
YDL075W -0.41848025 -0.71326965 0.021391366 -0.18054573 0.16046359 0.41084602 0.641137 -0.09896657 -1.133561 0.038185976 0.5299438 -0.81177735 0.525681 -0.014323067 0.6226599 -0.088662066 -0.09161776 -0.17682078 0.25504273 0.3852179 0.8992832 0.84471124 0.14000198 -1.070908 -0.012550667 -0.31626177 -0.7024115 0.37533423 -0.06604251 -0.5414941 -0.5950135 -0.29275692
YKL203C -0.06548104 -0.47258735 0.25209495 -0.18117681 0.37872845 -1.4305011 -0.061474267 0.79478127 -1.1277357 0.49261895 -0.04739996 0.23133604 -0.11571606 -0.25420222 0.92393214 0.06792461 -0.7566738 0.8777856 -0.4137775 0.17850077 0.51890635 -0.011025841 0.112383075 -0.7063487 -0.004964827 -0.65582985 0.44466135 -0.1833164 -0.14200263 -0.48863494 0.19717075 0.02342007
YIL061C -0.24537532 0.10286738 0.14335634 -0.047715038 -0.015993046 0.15623523 0.37049043 -0.5247282 -0.09026877 -0.16564555 0.4249994 0.03395488 0.067097954 -0.49293324 0.08403788 0.75429845 -0.48695508 1.0089136 0.50908595 0.6940178 0.38988757 0.7749997 0.24765424 -0.3020149 0.22341603 0.20214 -0.914573 0.34432185 -0.9187749 0.67666847 -0.3419136 0.15777645
YCR031C -0.51386905 -0.9245081 -0.0154225705 -0.3603048 0.45669115 0.06559877 1.0011504 -0.17260508 -1.1705701 0.019931413 0.33252963 -0.908137 0.69689757 -0.13023351 0.28951064 0.0032875652 -0.08349612 -0.10045897 0.11017493 0.5001953 0.223694 1.1298767 -0.0943735 -0.9083048 -0.29010734 -0.6152135 -0.7526506 0.77686894 0.056832746 -0.38538706 -0.39829072 -0.17706326
YKL009W -0.20771487 -0.63146603 -0.52907175 -0.17876561 0.46534768 0.21843876 0.51465595 0.024638804 -0.8490931 -0.29850113 0.6929388 -0.90399945 0.23002759 -0.44867715 0.2622569 -0.023142584 -0.76190525 -0.29386798 0.25640512 -0.012486775 0.7506701 1.0409979 0.3552887 -0.6784797 0.22377843 0.0041171713 -0.6876843 0.14865425 0.3017148 -0.48697868 -0.44884533 0.07709949
YDL192W 0.006567162 -0.30135113 0.9831479 0.64866066 0.4167315 -0.36307243 0.49870643 -0.049758434 -0.407098 0.53784907 0.53424203 -0.053889073 -0.7130102 -0.23030733 -0.7280143 -0.3377641 -0.73194695 -0.31449753 -0.12718344 0.29796883 -0.2268508 0.945306 -0.27663952 -0.9711755 -0.14897725 -0.014736145 -0.29456878 0.25043818 -0.06391344 -0.7587373 0.5945467 -0.27094594
YOR206W -0.18332247 -0.9402596 -0.40499336 0.18840428 0.5623102 0.063507594 0.4331782 -0.11849502 -1.1032397 -0.7728887 0.3988781 -0.94998115 0.22798623 -0.8827888 0.86571115 0.25223568 -0.5794397 -0.3136377 0.19742724 0.19051467 0.5935354 0.57167596 0.5210486 -0.52161694 0.1488941 -0.08924923 -0.41207683 0.0022572014 -0.089583874 -0.7381006 -0.35049862 0.026604746
YGR162W -0.0070387283 0.22985913 -0.22373489 -0.2086194 0.020759923 -0.36639124 0.56681514 -0.6270083 -0.8889684 -0.18187656 0.42828354 -0.6479598 0.30805874 -0.46253067 0.57843745 -0.124285266 0.24846208 0.1409732 0.4736605 0.6989358 0.3276129 0.78349495 0.05840165 -0.38512594 -0.047743052 -0.18244636 -0.80876315 0.41214982 -0.4116762 0.4719462 -0.22281523 0.45731384
YHL034C -0.27756512 -0.34115073 -0.16833077 -0.25322506 0.78063434 -0.39044118 0.9602571 -0.10242614 -0.9790491 -0.32005647 0.5348249 -0.95681965 0.35631976 -0.27154106 0.5002364 -0.15587807 -0.22613814 0.14437054 0.51776946 0.5635334 0.19201986 0.55002284 0.46999827 -0.6637703 -0.33095902 0.25275323 -0.30461907 0.556705 -0.6485316 -0.021347769 -0.37483382 0.2631207
YER029C -0.17366266 -0.9136242 -0.6151432 -0.028888417 0.05553576 -0.28255513 -0.013612747 -0.7429772 0.11402919 -0.17181292 0.4103752 -0.022610037 0.3918493 -0.74948657 0.11939566 0.7276116 -0.3201685 0.49964163 0.36269617 0.22417356 1.2809805 0.933896 -0.0046149227 -0.61264604 0.04049234 -0.21914174 -1.0213479 0.61377597 -1.0233921 0.831706 -0.25357646 0.11662967
YOL133W 0.7537138 -0.2649272 0.20564978 1.6404567 0.79712 -0.21432301 -0.47723025 0.9078697 -1.2306949 0.23777322 0.6445239 -0.6040479 0.30871302 -0.004018859 -0.22707424 0.8447819 0.32153225 0.7459755 0.40229338 -0.2625945 0.22727187 0.3190704 0.57552993 -0.3730183 0.2677471 -0.19427902 -0.4492759 0.15868942 -0.07775971 -0.061425615 0.19420709 0.2403289
YDR087C 0.12840587 -0.9205535 -0.34442833 0.2173634 -0.15154903 -0.042714275 -0.020357963 -0.1303248 -1.1287614 -0.4425186 0.6127689 -0.27638063 0.25832894 -0.494586 0.24378853 0.4656243 -0.8285104 -0.7446126 0.28236613 -0.11818604 0.8044906 0.9530336 0.19822107 -0.3540541 0.69782805 0.0039862995 -0.11280034 0.16575377 0.35371336 -0.69324565 0.11678874 -0.21015634
YHL004W -0.45696276 -0.13781725 -0.22633399 0.21322243 -0.49268404 -0.5475954 1.0081105 -0.3718285 -0.5000548 0.85520154 0.2796141 -0.5083136 0.09954677 -0.47199452 0.79307306 0.19109666 -0.38073763 0.28043118 0.54107136 -0.37496465 0.027799377 0.6243029 1.1871746 -0.41969866 0.0641376 1.0992293 -1.2873856 0.036795158 -0.8062204 -0.17291348 0.17517835 0.6225647
YPL220W -0.22132199 -0.77801865 -0.40198606 -0.05103604 0.5041774 -0.14407428 0.58999133 0.11055137 -1.2795544 0.025642524 0.4964656 -0.7964986 0.022050187 -0.45302427 0.38883975 -0.25808442 -0.15901229 -0.35121185 0.09377225 0.2501327 0.70015436 0.8640158 0.046597436 -0.79261404 0.07665114 -0.646966 -0.24479918 0.67259306 -0.43078622 -0.22046138 -0.5538927 -0.22105084
YPR010C -0.2584962 -0.84130204 0.17102185 -0.040741034 0.97243285 -0.32288188 -0.043145385 0.61191475 -1.5833884 0.32056716 -0.001926642 0.25870115 -0.08408754 -0.63440526 -0.38437617 0.41461122 -0.19941385 -0.3318024 0.54377836 0.2590959 -0.052560415 0.59640247 0.17971458 0.17578979 0.268505 -0.21291573 -0.72474104 -0.7615647 -0.26932806 0.17679264 -0.11611678 -0.57700646
YDR382W -0.4539947 -0.69613767 0.44517663 -0.3439326 0.18710884 0.29281798 0.50363153 -0.006236194 -1.1530049 0.15348828 0.39850593 -0.7092843 0.44673637 -0.19794224 0.1437186 0.0830393 0.2533272 -0.39563528 0.031656194 0.6362946 1.1923409 0.83670825 0.034747493 -0.87096685 -0.23384354 -0.26615745 -0.41845286 0.6741081 -0.15305437 -0.24643806 -0.3136765 0.01370021
YDR190C 0.5487444 -0.4811606 0.35324475 0.12233379 0.49253774 -0.6021046 0.2844121 -0.0048434683 -0.21082918 -0.23699185 0.39189067 -0.6715004 0.118961565 -0.98526776 0.35544372 0.60312355 0.085188694 0.37395245 -0.06314509 0.5004891 -0.35325384 0.8558273 0.86087334 -0.15785372 -1.0498935 -0.26545203 -0.866648 -0.74469894 -0.38236508 0.8696677 -0.27114967 -0.36342952
YIL018W -0.38525882 -0.7976156 -0.23890603 -0.2536364 0.55683357 0.094812684 0.8565123 -0.03909879 -1.2577248 0.17865278 0.50015056 -0.82695323 0.48732248 -0.122370645 0.63985926 -0.70042557 -0.1523636 -0.33829588 0.26371485 0.38720563 0.681442 0.93388164 0.26160684 -0.8976195 -0.027276322 -0.34270284 -0.6461882 0.7297487 -0.06341906 -0.27746934 -0.6494795 0.12461477
YJR022W -0.48976356 -0.6366139 -0.96463114 0.93172497 0.16410166 -0.36790806 -0.50107086 -0.29744965 -0.45235157 -0.0010911803 0.5975183 0.18408142 0.12577689 -0.011120061 -0.26515105 0.17747405 0.014981584 0.79094094 0.59633696 0.03497625 0.9445744 0.77151316 -0.7643542 -0.46837565 -0.18910143 -0.38727167 -0.66430557 0.19896661 -0.78076446 0.08487679 -0.24192567 0.50231856
YJL177W -0.47838035 -0.45857382 0.1608159 -0.16248037 0.3971865 0.2375911 0.9454056 0.29884082 -1.2308081 0.2778933 0.36000222 -0.9199362 0.63712543 -0.14755791 -0.009581064 -0.3352301 -0.14287727 -0.32175776 -0.03263088 0.34490827 0.89416546 0.7284813 0.2843604 -1.1225679 -0.2140756 -0.1567664 -0.83382064 0.62828183 0.07108574 -0.2854733 -0.5046192 -0.17809959
YIL069C 0.099693574 -0.4892213 -0.33072206 -0.05391039 0.279247 -0.09193604 1.2639842 -0.05506595 -1.0292006 0.37898034 -0.11125202 -0.89281076 0.64482605 -0.2572225 0.43170798 -0.07543182 -0.11743908 -0.09698209 -0.069675416 0.22506186 0.36009347 0.9690736 0.22690493 -0.7185 0.20494951 -0.7804987 -0.30165634 0.58745337 -0.03961647 -0.2936395 -0.5766242 -0.28268394
YAR014C 0.059758767 -0.063633345 0.2721925 0.31173277 -1.0450504 -0.6803154 -0.18227635 -0.4426705 -0.93111795 0.3312863 0.731339 -0.16465749 0.25137085 -0.5623972 -0.027483067 -0.08006162 0.358715 0.66745204 -0.5688014 0.3800882 0.7636767 0.24088097 0.35449457 -0.7630593 0.6280647 -0.17376608 0.031201595 0.24910434 0.30759034 -0.78151965 0.5323694 0.5066934
YER172C -0.47370225 -0.6272645 -0.4589261 0.25109255 0.09112662 -0.49228594 -0.049823076 -0.17536262 -0.040159028 -0.38218418 0.40338552 0.14366171 -0.43152037 -0.49851224 0.34734774 0.5283705 -0.27574372 0.44893697 0.91930145 0.6626694 0.8474115 0.8792281 0.3002315 -0.4660525 0.24592033 -0.09435003 -0.7849406 0.81457835 -0.73718584 0.61746424 -0.19563112 0.36215073
YMR109W -0.1502818 -0.33334184 -0.029412596 0.5443774 0.04208663 0.2862683 -0.34266764 0.6123606 -0.6062033 0.4364284 -0.090500005 -1.0735557 -0.43101767 -0.75628 0.39145505 0.15307625 -0.56047666 0.7873906 -0.57244664 1.2367702 0.56368285 0.271627 -0.36407098 -0.048552535 0.35433382 -0.27510673 -0.5033103 -0.3298366 -0.24254511 0.02316252 0.50608337 0.20313531
YBR247C 0.10236909 -0.60043985 -0.3263816 0.2538774 0.8573509 -0.3376257 1.434544 -0.3239471 -0.8886094 -0.0009591162 0.049421497 -0.45303944 0.86882275 0.0193336 0.2987467 0.10914962 -0.3609578 -0.24190804 -0.0823828 0.6058076 -0.10930323 0.69467044 0.018806892 -0.58314556 0.1543728 -0.6368219 -0.6835842 0.4416557 -0.30952454 -0.03416966 0.037656333 -0.6347885
YHR016C -0.4235044 -0.5456865 0.32647556 0.6238946 -0.8316825 -0.012377421 -0.42617804 0.56767124 -0.2672043 0.18944381 -0.45837736 -0.94546527 -0.08691382 -0.954259 0.007840695 0.12422061 -0.43411556 0.5431575 -0.5689553 1.3815122 -0.3278214 0.837535 0.12738673 -0.38347775 -0.18675923 -0.12003344 -0.018222837 0.12228882 -0.32029054 -0.328894 0.7201494 0.710521
YDR247W -0.272731 -0.51467884 0.045065988 0.5772697 0.9233933 -0.09516338 0.53584653 -0.089176364 0.17132582 0.39252198 -0.047704734 0.15251137 0.99659026 0.25002787 -0.15671773 0.052703645 -0.3873697 0.23222479 0.5746055 0.46855006 1.0809639 0.3687025 0.78426576 0.16169216 1.3663803 0.41299513 -0.3111385 -0.28658658 0.18059367 0.20481493 0.21127291 0.08453063
YMR125W -0.091026925 -0.71842575 -0.43463558 -0.34295225 0.0754133 -0.22121647 0.14742367 -0.5449627 -0.029021397 -0.5161158 -0.37956873 -0.35498995 0.38174903 -0.95848 0.14998512 -0.028196275 -0.42435607 0.5014765 0.24861392 0.5747646 0.29871786 0.9194526 -0.035050314 -0.50352234 0.29671368 0.067310154 -1.219379 0.71504086 -0.7394668 0.7167438 -0.7700827 0.72332186
YOL086C -0.09271522 0.22682635 -0.18638436 -0.078927934 0.3415658 -0.87359977 0.24857081 -0.1360346 -0.46141097 0.334958 -0.31654772 0.28181607 -0.6694571 -0.27332526 -0.51242614 0.14354017 -1.1029465 -0.8194234 -0.05030665 0.2688814 0.020938504 0.8822261 0.05228375 -0.3993901 -0.23692475 0.06098558 -1.6414552 -0.02212369 -0.06322812 -0.4116727 -0.24475893 -0.107647814
YDR496C 0.1521293 -0.9133263 -0.25445372 -0.014076033 0.7220892 0.06594192 0.8061835 0.099981114 -1.011544 -0.60665655 0.49119985 -0.6956189 0.35453597 -1.0147914 0.50179714 0.031888086 -0.58186245 -0.38377562 0.0933275 0.13444734 0.9552495 0.611528 0.24668136 -0.44808057 0.23095334 -0.054084614 -0.37058067 0.20131582 -0.1821975 -0.451005 -0.05222026 -0.12824044
YIR038C 0.38213292 -0.47542247 0.6754348 1.1979046 0.07952714 -0.075021744 0.5422324 0.041162297 0.2935965 0.13672008 0.22900003 -0.7277808 0.37883914 -0.33660796 -0.51921946 -0.31310543 -1.0665935 0.67001164 0.08879396 0.09677284 0.5801364 0.9996204 -0.52254796 -1.1263801 -0.51064414 -0.0046985224 -0.063719675 -0.024121715 0.7644513 -0.5004369 0.16345614 -0.5213931
YER021W -0.14235254 -1.1730978 0.23050605 1.0126585 0.85377395 -0.7683842 -0.06175057 0.15237679 -0.048967537 0.71880156 0.16739327 -0.20317045 -0.116816364 -0.032424614 0.26819405 -0.4371689 -0.56634784 -0.14105761 -0.3044261 -0.13902189 -0.39846227 0.1471626 0.20911235 -0.29075897 0.28324097 -0.4939775 -0.12799941 0.17358646 -0.28067404 0.2860883 -0.8534031 0.7966917
YBR079C -0.28396127 0.13483445 -0.2292157 0.13200183 0.31396645 -0.5149238 1.0397007 0.6616131 -0.94069225 0.3018594 -0.12138921 -0.6904104 0.058798738 0.068169214 0.15074216 -0.074009605 -0.1567048 -0.27918404 0.007731635 0.4234644 0.27568424 0.3768894 0.37451428 -0.16199043 0.033659093 -0.7514945 -1.1672701 0.14780098 -0.5768153 -0.08491033 0.20714085 0.6819714
YDR394W 0.20062636 -0.43470964 0.41183195 1.0070462 0.56540954 -0.25334108 -0.046977364 -0.07095977 -0.43193603 0.7132683 0.012033355 -1.0684267 -0.46901196 0.0045138258 0.21024169 -0.028603947 -0.4203831 -0.43094197 0.11725565 0.04592267 -0.0568998 0.6161281 0.6982318 -0.23601289 0.31254554 -0.876121 -0.4817851 0.04447963 0.07937488 0.7977252 -0.61105335 0.9901194
YGL048C 0.31472436 -0.9023869 0.098073974 0.5058679 0.4205175 -0.39803377 0.07011113 -0.23083335 -0.18709004 0.46867785 0.34483808 -0.63905174 0.052143645 -0.6367728 0.21551709 -0.33049572 -0.1370837 -0.61314505 -0.32671925 -0.391381 0.24504426 0.50951046 0.28024724 -0.16069108 0.11265602 -1.2241812 -0.86976045 0.07693456 -0.13817686 0.33896655 -0.78181154 0.9559352
YGL173C 0.15015817 -0.5700541 -0.4902473 0.13004449 0.503634 -0.22708577 0.758879 -0.064089246 -0.8093185 -0.45397606 0.5951253 -0.6558984 0.24196813 -0.6579304 0.0633083 0.0060932855 0.4712311 0.6278296 0.71899253 0.3937423 0.79599386 0.4511637 -0.14831054 -0.3438715 0.018296206 -0.053638637 -0.5274928 -0.027570544 -0.6606708 0.17719626 -0.30939266 0.27866885
YDL083C -0.46165898 -0.7510173 -0.0031771837 -0.5108398 0.32378483 0.08975839 0.9496008 0.09095571 -1.246209 -0.06765835 0.54699624 -0.7128696 0.7875183 0.0114704855 0.5055171 -0.26058632 -0.01817755 -0.32172135 0.16651076 0.62742674 0.61244786 0.8628946 0.35158798 -1.0516477 -0.21628435 -0.3605689 -0.84582734 0.62700295 -0.094376005 -0.092011996 -0.27183717 0.23078156
YDR507C 0.45949936 -0.32107982 0.51093304 0.18686274 0.07724777 0.3519981 0.028879337 -0.7962028 -0.6580591 0.04784613 -0.40575534 -0.32987046 0.14498392 -0.033509992 0.47047246 -0.12294205 -0.60880023 -0.16576394 0.7018733 0.8903378 0.4338342 1.1241977 0.15045547 0.15912576 0.35824555 -0.026912538 0.13864759 -0.83015496 -0.47809696 -0.58614296 0.082523815 -0.10305246
YBR017C 0.61174273 -0.6841029 0.35851273 0.17014208 0.4109245 0.33647683 -0.0433131 0.19004118 -0.91186017 0.1305172 -0.6824747 -0.88015115 0.12038984 -0.31189215 -0.4462768 0.32962626 -0.81562656 0.12297111 0.47884876 -0.28043956 -0.5270923 0.94492346 -0.26225635 -0.51635456 0.029244727 -0.3425246 -0.799405 0.06963606 -0.16025008 0.27548125 0.19801627 -0.19975306
YLR441C -0.34962162 -0.90317714 -0.059781928 -0.24844483 0.6234082 -0.1121278 0.9396598 0.22074461 -1.2615588 0.24176164 0.35213175 -0.6107614 0.71592873 0.01178875 0.26401398 -0.06036868 0.027841093 -0.24152519 -0.10134321 0.57851255 0.5749406 0.7828177 -0.024182267 -0.8184211 0.05774646 -0.63978356 -0.75742966 0.5690521 0.10612721 -0.34970105 -0.14832066 -0.44864824
YGL245W 0.2721446 -0.010114974 0.25580427 0.13361388 0.6796951 -0.5419275 0.0027115527 -0.43575963 -0.8738945 0.4426764 -0.07014668 -0.053036377 -0.49596366 -0.6702925 0.64696366 -0.3190958 -0.41930446 -0.20141184 0.07533256 0.48861995 0.36165106 0.68838274 0.44577944 -0.196909 0.25321484 -0.64392793 -0.12312095 -0.31478176 0.43078777 0.6030688 0.34339163 -0.20129503
YKL173W -0.6318216 -0.87370765 -0.37352294 0.05423919 0.67981166 -0.57288605 0.07066015 -0.7838125 0.036191396 -0.3947168 0.4648772 0.046630926 0.17055728 -0.6665111 0.3630406 0.39375436 -0.22929515 0.54922724 0.61114305 0.46049845 0.8124823 0.81172645 0.20652543 -0.6297553 0.0680174 -0.04528172 -1.0336977 0.9523216 -0.83436316 0.72973955 0.13709882 0.3826936
YJL109C -0.39076924 -1.0902067 -0.45085242 0.4274995 0.8996335 -0.24920759 0.84224683 -0.5109508 -1.17071 -0.72851354 0.18566632 -0.0037716457 0.4649835 -0.19059266 0.5350692 0.19933794 -0.12602073 0.056163374 0.0539621 0.59520596 0.10725509 0.4591131 -0.41329175 -0.36254388 0.14965653 -0.5523615 -1.008939 0.27468315 -0.38922328 -0.6493373 0.36758545 -0.18928367
YBL085W -0.45810464 -0.43813986 0.3733544 0.055171743 -0.48746234 -0.24489833 -0.5879617 0.15108015 -0.5013363 0.5394416 0.25972795 -0.53542244 0.13050772 -0.82430446 0.08740497 0.6240805 0.24540567 -0.049366806 0.44167113 0.53526306 0.34475783 0.855644 0.1914841 -0.13906476 0.6271678 -0.4136317 0.09555318 -0.1969384 -0.7676286 -0.6404398 0.64188683 0.17758621
YDL213C 0.22565576 -0.9739573 -0.073188946 -0.15904763 0.65380687 -0.24562432 1.0862349 -0.2304687 -0.62489396 -0.6088258 0.10063906 -0.7277316 0.51503915 -0.6625222 0.5827841 0.011111373 -0.41109467 0.17694214 0.3830568 0.2347454 0.23615849 0.12804498 0.2123081 -0.1160715 -0.0331459 -0.11027555 -0.823459 0.055577077 -0.44095483 -0.5499294 0.23678766 -0.074763
YOL041C -0.10921997 -0.5653922 0.15605405 -0.18658671 0.6167418 -0.23663457 0.45241368 -0.38708577 -1.0001518 -0.5821669 0.5157226 -0.7614577 0.6628171 -0.835069 0.796068 0.027972782 -0.38380206 0.050540157 0.25180116 0.46617222 0.8686827 0.4879293 0.03626581 -0.33375773 0.033886984 -0.399121 0.15786733 0.0115035 -0.15134087 -0.676413 -0.32457823 -0.11752463
YER018C 0.1916504 -0.4105231 0.044233203 0.5085704 0.1594317 0.39607877 -0.39957857 -0.2738148 0.24705374 -0.025922477 -0.6810413 0.63705474 0.5966382 -0.8719931 0.35242712 0.61559016 -0.32479918 0.4735719 0.5149141 0.70113546 0.6563386 0.13501236 0.75609165 -0.5894534 0.7563056 -0.7770972 -1.0682905 -0.26041391 -0.58036923 -0.45600495 -0.42298937 0.0564594
YBR200W -0.5959747 -0.70687914 0.84172326 0.45225716 0.1296902 -0.5414048 -0.6416665 0.7882067 0.07276687 1.0706979 0.05635882 -0.13109943 -0.38813284 -0.6420952 0.38038927 0.34386727 0.21757723 -0.3610428 -0.21842699 0.6846338 0.74885046 0.52480745 0.42608216 -1.0430615 0.4105516 -0.005338984 0.18412201 0.42277288 -0.6396199 -0.7610564 0.21348771 -0.11272755
YJL138C 0.09607081 -0.70996064 0.18299732 -0.13247526 0.11992588 -0.62904966 0.41027766 -0.119807556 -0.13366024 0.022019269 0.2722503 -0.6220586 -0.4386338 -0.14037669 -0.1016734 -0.48869312 -0.06505901 0.11618443 -0.041892383 0.5719579 0.6173978 0.92712057 0.16962554 0.22424676 -0.113812245 -0.07820986 -0.5016067 -0.5394537 0.33126456 0.43160036 -0.027943425 0.52700317
YHR010W -0.12552397 -0.67234266 -0.6804458 -0.22124153 0.60036564 0.13318317 0.6939582 0.08273752 -1.362472 -0.21205918 0.68375003 -0.24661203 0.21671261 -0.7182252 0.34046865 -0.2838928 -0.7077898 -0.018853271 -0.18258013 0.14401352 0.9542363 0.6839225 -0.24181856 -0.62622046 0.18155883 -0.32147038 -0.63091874 0.3918889 0.15625015 -0.54054433 -0.055500053 0.08580253
YDR060W -0.33869156 -0.7856629 -0.49276102 0.019018618 0.6534627 -0.049581435 0.5695809 -0.14410953 -0.9588936 -0.42216027 0.5841732 -0.7860404 0.1883422 -0.24976273 0.56259245 0.19721372 -0.5930988 -0.0149677135 0.017023204 0.2377536 0.9087687 0.76897734 0.028025758 -0.5155936 0.17279057 -0.21566318 -0.52685314 0.15742376 -0.18722808 -0.81642395 -0.48479596 -0.359908
YDR418W -0.14779408 -0.70626783 0.019610314 -0.45674348 0.42585665 0.3656057 0.47304845 0.08731576 -1.5567085 -0.06072752 0.47208995 -0.59038377 0.58979934 -0.05654941 0.20653644 -0.19518441 -0.3015944 -0.1448216 -0.10833729 0.33447987 0.58173174 0.9458584 -0.07933495 -1.128212 -0.005759933 -0.5085044 -1.0018873 0.5390071 0.08421391 -0.06764354 -0.3429623 0.09130652
YDR448W 0.7664998 -0.79581314 -0.036741532 0.21166113 0.15129328 -0.7233952 0.1788043 -0.034243643 -0.05561365 0.76962745 -0.3130762 0.39504728 0.4020883 -1.0504218 0.42130154 0.10825515 0.22149587 -0.21744972 -0.5781658 -0.31024292 0.25288984 0.8133484 0.55179894 -0.016622176 0.29395458 0.07890319 -1.4722942 -0.046429228 -0.6917911 -0.17802003 -0.030501535 0.0870037
YOL016C 0.06833782 -0.3267228 0.1380573 0.5768505 0.48633954 -0.190434 0.37511212 -0.4504181 -0.24574105 0.37118614 -0.06760146 -0.4278572 0.26868665 0.30246252 0.3956074 -0.21231957 -0.059490234 0.40108413 0.40334663 0.84301215 1.0230488 0.6234299 0.034740776 -0.09299511 -0.05461729 1.155302 -0.05105139 -0.84439194 -0.4415294 -0.032692414 0.15380594 -0.05194459
YHR197W -0.123834014 -0.862308 -0.28432238 -0.1775394 0.39671552 0.27497977 0.34965256 -0.20591974 -1.1101037 -0.39605296 0.49423206 -0.84922135 0.6237962 -0.54663694 0.7308934 0.21228041 -0.45272774 -0.118081525 0.5271949 -0.2984157 0.8323833 0.8278411 0.67161655 -0.66405773 0.120803036 0.20374388 -0.67130905 0.03895355 0.17122646 -0.4984775 -0.54776824 0.08208571
YPR161C -0.09864053 -0.8075234 -0.19704506 -0.08326113 0.51590616 -0.55176383 0.21721418 0.37367925 -0.5211128 -0.5405199 0.124927305 -0.6863352 0.6871949 -0.53146744 0.5890561 -0.29119873 -0.5488321 0.21408693 0.707325 1.0423619 -0.11901521 0.1914297 0.013756874 0.06531032 0.21464668 -0.31582102 -0.39758942 0.06533961 0.099514276 0.12408687 -0.32903987 -0.041848045
YOL027C -0.26814336 -0.231073 -0.011665362 0.7428603 -0.25422403 -0.7155653 1.4398459 -0.3586851 -0.4146254 0.68687606 0.3848241 -0.7864149 0.68297285 -0.3875647 1.0280803 0.050549228 -0.882465 0.1413148 1.0468466 -0.3378123 0.19145374 0.3687912 0.7409956 -0.9155615 -0.29209173 1.231477 -1.132258 -0.36523816 -1.0205641 -0.0077577457 0.25108343 0.5996338
YGL195W 0.6071445 -0.39159536 0.030560698 0.26895937 0.24469152 0.016160898 -0.08863809 0.03688009 -1.1336591 0.35522458 0.1562151 -0.39613315 -0.5051757 -0.2956396 -0.10952176 0.515233 -0.07548582 -0.23417959 -0.056898516 0.66194576 0.01746735 0.94866157 0.053514604 -0.11620912 -0.3667778 -1.0643787 -0.94004697 -0.33386055 -0.023453888 -0.16309011 0.5043757 -0.18840481
YBL004W -0.21701436 -0.97232276 -0.66218597 0.5284766 0.69652796 -0.38992345 1.2773246 -0.4114182 -0.9247323 -0.20560333 0.18465678 -0.3703826 0.49742424 -0.44208014 0.934014 0.17722492 -0.4259539 -0.027423805 0.3796572 0.15725121 -0.17490458 0.3696896 -0.15258653 -0.61507964 0.20086922 -0.10676946 -0.6241082 0.33055678 -0.9360602 0.12173547 0.59356064 -0.45141917
YMR012W -0.69528276 -0.41149193 0.10629175 -0.23420623 0.46984512 -0.23180895 0.011385287 -0.0021748862 -1.0044124 0.40877804 0.37293938 -0.12889579 -0.3567447 -0.19736457 0.31282935 0.30773392 -0.11758665 -0.26043808 0.6610631 0.020549063 0.35449103 0.86687905 0.43399885 0.31788227 0.50337946 -0.5693564 -1.001539 0.16001143 0.10800705 0.12723354 0.068798855 0.44222543
YLR180W 0.056472488 -0.3576178 -0.36889365 0.047645837 0.57420546 -0.52503335 0.20496865 0.031472772 -0.92286456 0.69247687 0.1190503 -0.19503218 -0.639466 -0.0026900885 -0.008546747 0.13219896 -0.22263569 -0.21062928 -0.031827606 0.29586494 0.3084366 1.4231232 0.1261378 0.35537463 0.04629355 -0.7556008 -0.94475234 -0.04699104 -0.13813627 0.14364 -0.048863396 -0.14659582
YLR026C -0.71463346 -0.15848099 0.73120946 0.8712667 -0.4479625 -0.85581094 0.19314441 -0.26434144 -0.12406471 0.2275633 0.5088895 -0.4414708 -0.30779308 -0.27904204 -0.39128372 0.64821506 -0.8698138 -0.031588923 -0.21094112 -0.21491848 0.22534221 1.1692865 -0.32187435 -1.4354904 -0.04843062 0.20396571 -0.009490452 0.29055437 0.26636946 -0.68356776 -0.39559627 -0.13348359
YLR196W 0.046522066 -0.7983174 -0.26382416 0.27591765 0.7578196 -0.4011001 0.20742488 0.052176278 -0.6761514 -0.62923276 0.23872125 -1.1351898 -0.17959747 -0.6218528 0.9707855 0.057011545 -0.6450699 -0.17265034 -0.2460055 0.89709234 0.3874205 0.30716726 0.14705223 -0.0034776162 0.2953709 0.14441195 -0.3318905 -0.27273574 0.015643906 -0.31518 -0.0013649864 0.17016402
YCR086W 0.005674556 -0.54221225 0.14136717 0.6489233 0.48417753 -0.013981647 -0.5529221 -0.24318369 -0.23989849 -0.25541705 0.22870807 0.16172592 0.35470024 -0.24231784 0.32029906 0.53012586 -0.67509264 0.5881049 0.7310061 0.47473684 -0.065060325 0.7251101 0.63317835 0.2432902 1.3199195 -0.12771139 -0.38206807 -0.73298395 -0.04838358 -0.18091956 0.25361812 -0.026036128
YDR225W 0.53982514 -0.44366822 0.30193844 0.31772947 0.5728448 -0.27304697 0.011134694 0.15546821 -0.19110887 -0.2500445 0.0139558045 -0.23662558 0.52408504 -1.0864458 0.6885889 0.13996519 -0.08576443 -0.26896226 -0.038014222 0.48903108 0.007602175 1.1110437 0.23527588 0.19516678 0.4280182 -0.051644936 -0.98860526 -0.40684295 -0.08039144 0.2008791 -0.39317483 -0.5715046
