YGL122C 0.20449238 0.18629022 0.26386762 0.43296266 -0.018552968 -0.2852281 -0.055372365 0.4881938 -0.17435035 0.051359024 0.087750435 -0.009824492 -0.06851025 -0.22697699 -0.21166101 -0.08245588 -0.22473589 0.076861806 -0.09492897 0.15343308 0.51147306 0.11014246 -0.13232377 -0.16925964 0.03472573 0.33373272 0.0885172 0.04285629 -0.20712548 -0.25629795 0.016032107 0.021330547 0.27813005 -0.0849674 0.08450724 0.2449517 0.059479743 -0.05975744 0.13100295 -0.08259435 0.18905118 0.16134283 -0.43341687 -0.27537867 0.16131602 -0.28067037 -0.08549551 0.033381883 -0.28313377 -0.025435843 -0.17161317 -0.012537347 0.071671195 0.10847105 0.16828339 0.06454877 0.1099218 -0.39383668 -0.032446235 -0.18488744 -0.2117681 -0.06777692 0.05694614 -0.3351091
YLL039C 0.1923919 -0.009383814 0.31551626 0.15119871 0.17544183 -0.006548758 0.122729994 0.15176295 -0.07798986 -0.29098132 -0.03775984 -0.23225658 -0.12280646 -0.27091798 -0.05745531 0.06856092 -0.38885537 -0.19646344 0.23821718 0.09266447 0.29451627 0.11049406 0.23215443 -0.20655492 -0.2964976 0.40800354 -0.28829563 0.36011535 -0.22475396 -0.31400284 0.24578199 0.33293456 -0.48430294 0.12664375 -0.088911474 -0.0457012 -0.18429418 -0.16438702 -0.23531193 0.34954146 0.46282402 0.26541498 -0.10376858 -0.32684898 0.11039224 -0.3267983 -0.0103987735 -0.29551032 -0.19022854 0.06004311 -0.17660949 0.21582094 0.040247086 0.34539485 0.0371926 0.17707087 0.062745035 -0.52635825 -0.080875516 0.16021927 -0.037247982 -0.14803481 -0.2442779 -0.17871621
YBL032W 0.16977707 0.25679305 0.729045 0.21810246 -0.015947973 -0.04768491 -0.31241933 0.44042715 0.039374456 0.19500178 0.19507548 0.33633503 -0.019098101 -0.40111706 -0.12990943 0.8675558 -0.2935771 0.0689728 0.14813557 0.24793443 0.37391984 0.1630653 0.5886947 -0.57051855 0.52057284 0.43803468 -0.3074736 0.1708536 0.28777435 0.41689473 -0.5722179 0.61636543 0.0071762446 0.10409306 -0.3661919 -0.13394554 0.13140005 0.5539411 -0.019182773 -0.21347007 0.011778499 0.04246475 -0.10018169 -0.1369874 0.39901045 0.06540084 -0.10934436 0.08884699 -0.04643257 -0.06063851 -0.0317555 -0.18754944 0.2571528 -0.025286319 0.319997 0.059801254 0.22920722 -0.061882462 -0.14070524 -0.40557307 0.031803213 -0.38772702 0.020079693 0.08271322
YNL255C -0.026109183 0.064843975 0.30929142 0.45443052 -0.087496415 -0.0731602 0.36294898 0.31687322 -0.11972236 0.12960096 -0.012537049 0.051660646 0.1641658 0.16698197 -0.091397256 0.29984263 -0.31873295 0.06088418 -0.27775192 0.33204952 0.37014306 0.14028136 -0.12502584 -0.4310966 0.17713188 0.63697803 0.004612932 0.034659192 0.0050324094 -0.15386079 -0.1678432 -0.20536028 0.5217431 0.048902098 -0.005671149 0.17578496 0.09154431 0.22639215 0.30101955 -0.011070099 -0.09371499 0.1723376 -0.32369477 0.024410933 -0.072222784 -0.08490939 -0.018365102 0.23780183 -0.3103953 -0.7704671 0.14647202 0.0784808 0.26627842 0.30761492 0.009315936 -0.41862547 0.17999396 -0.77559924 0.15015137 -0.094597735 -0.1750887 -0.24194011 -0.15600745 -0.5475384
YFR004W 0.06412991 -0.35547367 0.15375206 0.13045879 0.036644243 -0.26879776 0.45442325 -0.3322112 -0.22986628 -0.18957038 0.25383052 -0.06073587 -0.23098071 -0.024075883 0.013196568 -0.067390524 -0.12678032 -0.0047123255 -0.22962856 0.6202627 -0.08135164 0.26232067 -0.14013456 -0.27919877 -0.05547862 0.16032827 -0.39400005 -0.029132556 -0.09290597 -0.52483577 0.27379656 0.19026223 -0.30143312 0.14325409 -0.036942072 0.43323728 0.18116325 -0.36041784 0.26674256 0.079225436 0.79544675 0.14147784 0.07541158 -0.30249405 0.21870159 -0.225842 -0.23622772 -0.3600763 -0.12878914 -0.20709081 0.12540628 0.6043893 -0.30722663 0.16907929 0.38376704 0.2601757 0.24789481 -0.7834053 0.006819397 0.24361818 -0.16596726 -0.14906861 -0.32000196 0.172372
YDR510W -0.42893213 -0.3711737 0.6693097 0.09272148 -0.028798943 0.24912979 0.11031972 -0.08243274 -0.3507399 0.0063988143 0.82864517 0.39899006 -0.21127668 -0.49468017 0.5639896 0.37764874 0.23660943 0.13852686 -0.14951131 0.40406302 0.3490549 0.3388326 0.21679765 -0.082007706 0.023121048 0.30235636 -0.29059103 -0.16195506 0.11539548 0.031495504 0.5134907 -0.18647778 -0.27292395 -0.18219842 -0.053212546 -0.038454372 -0.14116842 0.22126795 0.2537607 0.020131402 0.2527691 -0.22347559 0.23158377 0.07770843 0.29441044 -0.40862206 -0.34813648 0.24253336 -0.091577895 -0.3265026 0.31306976 0.5992346 0.1908553 0.30176347 0.37006623 -0.097484216 0.12348221 -0.43814248 -0.72142947 0.22395736 -0.38201788 0.4923262 -0.12499772 0.11170773
YIR010W 0.19968954 0.18559553 0.08748709 0.19486466 0.14390373 -0.18958968 -0.19545174 -0.091113344 -0.12268357 -0.10065775 0.553861 -0.025713334 -0.55127597 -0.26311907 0.503563 0.31021065 -0.03737938 0.14136666 -0.64952135 0.43431094 0.1849422 0.12293902 -0.18228886 -0.05241368 -0.11620225 0.23784852 -0.4484557 -0.1376064 0.21494073 0.2908181 0.27748403 -0.3410692 -0.2630564 0.20075977 0.35436556 -0.10825784 -0.053945433 -0.28954598 0.20725425 0.53290313 0.31113523 0.12316085 0.21395332 0.53200793 0.105670206 -0.33312827 -0.6630361 0.25668615 0.08672555 -0.6996405 0.45490888 0.14920239 0.19213022 0.28982863 -0.0052271252 0.04026573 0.09427458 -0.79789793 -0.6012898 -0.09260473 -0.14887454 -0.30137792 -0.023671564 -0.24974293
YPL031C 0.6730729 -0.0022234349 1.1301907 0.10669743 -0.14946209 -0.22593597 -0.70062596 -0.23356985 -0.716022 -0.18127245 -0.18456179 -0.03441879 0.06657994 -0.4067431 0.057200804 -0.060171887 -0.5356362 0.12902956 -0.33023533 0.6922307 0.02916022 0.12130723 -0.09547752 -0.18841007 0.1414337 0.4265122 0.22449614 -0.23300135 -0.28014004 0.13879043 0.23577912 -0.518301 -0.36622265 0.04062343 0.29251873 -0.23911396 -0.18547113 -0.47375265 0.035874076 -0.09632081 -0.12387744 0.082200915 0.27261755 -0.5221085 0.25258756 -0.047741834 0.31298694 -0.5090802 0.20547295 0.35590366 0.35944587 0.47063327 -0.09298456 0.5010489 0.4587599 0.19043781 -0.23401451 -0.13065879 -0.20981932 0.1668292 -0.22120954 -0.33319786 -0.0552224 0.027146583
YER151C -0.016887255 -0.07045133 -0.15130393 0.2917694 0.0713697 -0.09347282 0.16225836 -0.7660781 -0.34054115 -0.111257434 0.24777631 0.20841527 -0.5697827 -0.49018273 0.28639498 0.27535483 0.24430725 -0.17187032 -0.74463093 0.32068402 0.07898013 0.38152835 0.1027307 -0.38114285 0.2551715 0.24308845 -0.13407251 -0.2701304 0.07887507 -0.33746213 -0.09248674 -0.17444903 -0.07939046 0.17189223 0.2086957 0.30108064 -0.28932092 0.16338761 0.29680398 0.09618097 0.4742957 0.46426663 -0.09988938 0.21621291 0.25287956 -0.38844848 -0.3814629 -0.026752848 -0.26620948 -0.28795454 0.2007498 0.13191171 0.04862132 0.3771981 0.15447463 -0.18199168 -0.23430452 -0.9682961 -0.16410807 0.107248336 0.015072259 -0.3765573 -0.39234796 0.08233547
YHR027C -0.19594611 -0.22229984 0.32878193 0.33669 0.5287849 -0.11749213 0.35022083 -0.61723614 -0.22980252 -0.20499498 0.43312117 -0.033147078 -0.18655981 -0.10973925 0.37131202 0.15857962 -0.12990662 0.045826837 -0.17257354 0.7493211 -0.35336235 0.18972735 -0.12651269 -0.2914483 -0.085609525 -0.012143048 -0.6335473 0.02579506 0.13278 -0.5899143 0.48829874 0.0798425 -0.23341757 -0.2487911 -0.092027895 0.28618878 0.63210475 0.047371004 0.096868366 0.16756363 0.7620606 0.38189957 0.08735489 -0.38737068 0.16345802 -0.21923319 -0.23363964 -0.4558363 -0.081248224 -0.07196794 0.19350494 0.1465906 -0.1290929 0.27836385 0.18883093 0.15004416 0.3424611 -0.5704479 -0.19656102 0.5039811 -0.044712387 -0.11999279 -0.5770661 0.26456887
YDL229W 0.6787084 0.21367402 0.6229695 -0.41873926 0.48637688 0.35009304 -0.10762679 -0.4335489 -0.35873574 -0.39320418 -0.2926586 -0.6391025 -0.49169186 -0.060082257 -0.18643826 -0.10726421 0.15767659 -0.054624315 -0.35692716 0.1023138 0.1495387 0.15687026 -0.22251885 -0.23390764 -0.15495196 0.48527724 -0.66138285 0.13028538 -0.13366228 -0.2816516 -0.25144657 0.32875982 0.22571135 -0.03793448 0.18680422 -0.40397546 0.08219412 0.44275427 0.5685072 0.087403715 0.11604644 0.043640513 -0.03414371 -0.08436948 0.0016065744 -0.99812895 -0.013089291 0.059132937 -0.048630282 0.35948676 -0.26974738 0.1278453 -0.061535943 0.21308343 0.321616 -0.21495278 0.38255653 -0.70836407 -0.25652653 0.3386168 -0.14477156 -0.076058745 0.7664326 -0.08980629
YHR200W -0.033817068 -0.12598099 0.20499338 0.31431267 0.3067866 -0.26834372 0.34207654 -0.65963763 -0.40231857 -0.2910881 0.5419813 -0.014446372 -0.32262263 -0.4150672 0.23823425 -0.12965058 -0.23623322 0.20104016 0.032912344 0.62644255 -0.15820158 0.45288143 -0.33227116 -0.09498877 -0.20088561 0.16902159 -0.3846163 0.06351068 0.069420464 -0.8291125 0.44437167 0.08423093 -0.19494204 -0.04616125 0.064978205 0.3035348 0.4622345 -0.05261334 -0.09203059 0.12052947 0.83497477 0.46420273 0.033854406 -0.15701105 0.10076294 -0.37516478 -0.175247 -0.6344304 0.07270315 -0.17452134 0.11776437 0.20307548 -0.19916923 0.273345 0.1075573 0.20139655 0.11572856 -0.6573653 0.04539956 0.5279392 -0.10529901 -0.22182153 -0.37917137 0.29022115
YPL240C -0.08986743 -0.5404313 0.093166046 0.09998268 0.7748011 -0.14415984 0.06397803 0.2284906 0.055673905 0.17792387 0.44265568 -0.46387324 -0.84733695 0.102242574 -0.17693932 0.38351905 -0.13464919 -0.40049914 0.24003482 0.83327365 0.2668258 0.059793707 0.48634478 -0.6137484 -0.6240806 0.39097115 0.20962663 0.044834066 0.0827267 -0.6529297 0.090546 -0.6952936 -0.5107129 0.32237107 -0.12558392 -0.08563143 0.040614136 -0.06159443 -0.117934994 0.029220836 -0.06575356 0.0098389955 0.22484523 -0.054718196 0.47751263 -0.88258886 0.36746636 -0.28368422 0.27937627 0.06760777 -0.2575332 -0.06583353 0.22771335 0.40113357 0.8126725 -0.35466987 0.31272966 0.36328688 -0.5692162 -0.67736447 0.36921597 0.028635897 0.3898498 -0.40169176
YNR051C -0.05164519 0.06392115 -0.14317364 0.4919118 0.21878147 -0.090590924 -0.08650882 -0.58830446 -0.25287342 -0.050851196 0.31314477 0.0044536903 -0.40127885 -0.6095422 0.22986062 0.37667906 0.10012507 -0.096072555 -0.74700755 0.4708637 0.023806797 0.34496966 -0.035261896 -0.44130647 0.49866635 0.28325254 0.0018716638 -0.2750084 -0.0059617357 -0.41746894 0.036065582 -0.28633615 -0.24232334 0.36674914 -0.008593319 0.26035908 -0.24752334 0.09463953 0.15495947 0.06322523 0.32389233 0.61482465 -0.04513116 0.26219302 0.25613335 -0.36655936 -0.5964698 -0.053823702 -0.015841449 -0.49223343 0.032989554 0.2967051 -0.15989956 0.46305665 0.06006247 -0.30407652 -0.19710657 -0.96895844 -0.22395392 -0.05979586 0.08837715 -0.42268473 -0.37955865 -0.0058746715
YNL197C 0.20062138 0.49201673 0.25327498 0.09694515 -0.07805118 -0.1857881 -0.29277647 0.6452802 -0.75544286 -0.5220967 -0.23998426 0.24050663 -0.27548054 -0.23654534 0.11845911 0.30417663 -0.23210342 0.31773746 -0.3455437 0.60666203 0.35278836 -0.42927557 0.4806221 -0.6203723 -0.08220707 -0.092402734 -0.6796153 0.08361128 0.47772798 -0.39908573 -0.4565588 0.5931392 0.012461585 -0.53584844 0.62094176 0.3757376 0.0111543555 0.434056 -0.2467507 -0.20398028 0.1685119 -0.046884004 0.49879694 0.13012399 0.2559868 0.19797145 -0.21851113 -0.42480403 -0.51002777 0.2721868 -0.1822623 0.019672146 0.61051214 0.72817034 0.022340205 0.76284117 0.21494989 0.61293685 -0.66031146 -0.38857436 -0.27058655 -0.45365426 0.039820872 0.39548188
YHR135C -0.08649553 -0.423625 0.22358938 -0.027430937 0.27233067 -0.34928772 -0.4303923 -0.55178314 -1.0583012 0.23722887 0.23092788 0.26525795 -0.11731169 -0.09133312 -0.24340585 0.43068343 -0.07654919 -0.17186232 -0.26992634 0.45143598 0.7025578 0.12916657 0.23930302 -0.30923796 0.33883452 -0.031696334 0.035133593 -0.31325606 -0.07105271 0.23830202 0.14672732 0.22700994 0.27976194 -0.076715134 0.6383152 -0.10421635 -0.40871844 0.0026074047 0.006217021 -0.52671283 0.080206804 0.060411114 0.40960178 -0.32282597 -0.011889774 -0.07336153 0.5522455 0.061732303 0.4349069 0.6344227 0.9187866 0.31811428 0.26077795 0.22248378 0.46462446 0.025636937 0.15223233 -0.49693182 -0.0571523 0.04116859 0.15134987 -0.24737497 0.12861313 -0.2749621
YBR160W -0.46316814 0.2953898 0.6148496 -0.028825076 0.4897813 -0.1422511 -0.44833302 0.0840473 -0.08216283 0.11471539 0.6545978 -0.33299795 -0.34038374 -0.43497172 0.1558685 0.52853394 -0.6563582 0.05918841 0.035013903 0.4285884 0.09497726 -0.5261875 -0.17263854 -0.8873825 -0.2431062 -0.16738059 -0.5718688 -0.1661647 -0.12801188 0.29516602 -0.17421047 0.20875897 0.018752426 0.24295986 -0.089775056 0.36813423 -0.44679475 0.0021210057 0.450101 0.10414119 -0.5046645 0.16311751 -0.14925988 0.011901526 0.060623925 -0.07408744 0.34764174 -0.446749 0.35158083 0.3341507 0.3075878 0.44132942 0.35498828 0.3119894 0.04707696 0.36885425 0.5763581 0.13987476 0.15429969 0.27875936 -0.9020015 0.20921375 -0.11424403 0.2766401
YKL049C 0.60074073 0.119571485 0.14643672 0.6669706 0.33922783 -0.11980969 0.05083089 -0.16185938 0.03517653 0.2158144 0.2795788 0.23647882 -0.3030745 0.34828785 0.35055286 0.6720705 0.087373175 -0.09562779 -0.5765235 0.64697707 0.076387264 0.0207333 -0.20437247 -0.114835635 0.3150573 0.17449392 -0.47994453 -0.09505682 -0.5314726 -0.09970179 -0.14404711 0.12666248 -0.22553645 -0.5110044 -0.2517608 -0.14725879 -0.46856803 -0.006901829 -0.013185546 0.73072255 0.30307227 0.70177954 0.26509616 -0.09495437 0.24662717 -0.5180459 -0.15931614 0.23339474 0.36981037 -0.47936004 -0.38772917 0.08735941 -0.3374497 0.47065607 0.33415416 0.35152128 0.36930215 -0.46413177 -0.22942117 0.46957815 -0.09625015 -0.23538859 0.4616867 0.11604895
YML065W -0.19415295 0.3744886 -0.05055903 0.5595246 0.22971812 0.05201334 -0.050284877 -0.53770846 -0.1326226 0.22494066 0.29936427 -0.43287042 -0.15125936 -0.2947956 0.16429017 0.5379294 0.2644345 0.19347169 -0.34404263 0.60108584 0.71287423 -0.12715004 -0.06713291 -0.3427089 -0.13173713 0.31103626 0.18184608 -0.43746975 0.17344733 -0.28820866 0.18750368 -0.08363121 0.18632743 0.12274969 -0.23386177 -0.104504086 -0.04075348 0.3010938 0.549454 0.21097118 -0.19018011 -0.21796283 0.12947898 0.53884834 0.047347292 -0.5279915 0.33583456 -0.3444183 -0.29431129 -0.80904657 0.36799365 0.06051841 0.71899205 0.096188374 -0.082428426 -0.44590223 0.6114913 -0.85292614 -0.34265468 -0.14205869 -0.716999 -0.22238408 -0.080931455 -0.11053483
YJL164C 0.055684023 0.038048588 0.81098235 -0.3444962 0.315158 -0.1917787 -0.11152614 -0.16576192 -0.86019176 0.49273086 0.06446352 0.48057675 -0.3017063 0.23178676 -0.4389787 0.7392219 -0.26951933 -0.12300074 -0.03454379 0.27807033 -0.06424325 -0.20903073 0.065137066 -0.39431754 0.44773892 0.30883178 -0.37101164 -0.2855503 -0.14198138 -0.398361 0.37295184 -0.3498293 0.069834076 0.24759164 0.34199783 -0.069690004 -0.34602788 -0.6567125 0.30312034 -0.46102515 -0.2993973 0.14183865 0.1128313 0.15403365 0.13869473 0.01802301 0.27934855 -0.14032258 0.22768769 0.40248924 0.3048719 0.0012095082 -0.034818783 0.2169991 0.12375507 0.30028868 0.35523114 -0.6569379 -0.5891202 -0.009219122 0.047115944 -0.60015285 0.103895344 -0.20938952
YOR117W -0.18489826 -0.10964844 0.33559895 0.24576911 0.53542167 -0.112649 0.506575 -0.76822114 -0.22612847 -0.12959723 0.5052821 -0.030021068 -0.29730374 -0.23432846 0.22922428 0.053298634 -0.14393465 0.05930196 -0.13439599 0.606459 -0.2788738 0.6574085 -0.2371298 -0.35336673 -0.092272766 0.09657026 -0.63059413 0.011184042 0.14730641 -0.70261085 0.42332882 0.04134918 -0.2250204 0.05995786 0.18530859 0.14208034 0.54906934 0.05219262 0.3502078 0.07040434 0.6668109 0.2950042 0.08223195 -0.21072556 0.084552296 -0.08534851 -0.30060756 -0.2695948 0.14776851 -0.33439568 0.25976983 0.19753712 0.041318927 0.19555981 0.27989563 0.2583402 0.038771387 -0.55404276 -0.34010932 0.36740184 -0.08021496 -0.27355653 -0.050964307 0.39531356
YNL154C 0.021507747 -0.2799175 0.5299976 -0.30489627 -0.18599157 -0.43375492 0.06959004 -0.07279622 -0.6892824 0.24929124 0.24050613 0.0045127217 0.2615161 -0.24782059 0.13170443 0.20931555 -0.14373717 0.3727889 -0.5150754 0.3090504 0.79767734 -0.032883793 0.52567124 -0.68202573 0.1683209 0.029559448 -0.3844911 -0.6135494 -0.20972939 0.21497071 0.6008928 0.3178099 -0.01213155 0.38889018 0.7796409 -0.007340346 -0.36956748 -0.07301845 0.463582 0.031942558 -0.2870527 0.5455993 0.1921735 -0.052127253 0.22286718 -0.7266295 0.20495027 0.6443038 0.10754976 0.23434171 0.45903125 0.43587473 -0.0003827113 0.27667072 -0.20964284 0.49189368 0.25590172 -0.19413684 0.18153574 -0.47463968 0.1485739 -0.239078 -0.10879274 0.19175895
YHR082C 0.6333672 -0.5925141 0.7311291 -0.050717417 -0.4159736 -0.31793243 -0.17012742 -0.29095104 -0.29660013 0.060020365 0.30597386 -0.08737375 -0.08885673 -0.16066636 -0.14016722 -0.01743618 -0.053052288 0.49865553 -0.09926564 0.72262 0.35697988 -0.34349728 -0.17391329 -0.7603986 -0.057096317 0.55305463 -0.69940263 -0.51319 -0.23457971 0.046359286 0.46878615 0.15301326 0.2634228 0.16514008 0.43085316 0.2772963 -0.14549796 -0.0076271594 -0.30772153 0.21760187 -0.45236522 0.09475393 0.44744447 0.27321115 0.3840742 -0.53029674 0.50663143 0.057739235 0.08878522 0.40399873 0.2317608 0.45105645 -0.115470216 0.14941923 -0.004329311 0.46813488 0.4124367 0.18799336 -0.08074673 0.12050846 0.403339 0.0074325437 -0.49329174 -0.5087206
YDR381W 0.24330309 -0.2805341 0.19977254 -0.26910374 0.089806244 0.38142392 -0.021491602 0.22220181 -0.82193315 0.35711738 -0.13654976 -0.18746462 -0.3240942 0.027157946 0.31541395 0.14446716 -0.1316281 -0.062467963 -0.18180162 0.21192536 0.1005048 0.10865757 -0.084358685 -0.53518826 -0.18740524 0.99432886 -0.050145447 0.23458198 -0.3940923 0.49390277 0.5823912 -0.30408624 0.17984648 -0.14016242 -0.18472973 0.12919718 -0.22841349 1.0963345 0.21060432 0.21558419 -0.26794562 0.27633268 -0.087618195 0.23935577 -0.2246451 0.011776792 -0.37750995 -0.22497259 -0.1978422 0.26789373 -0.02479185 0.39347485 -0.10722907 0.12279236 -0.06705357 0.021370117 0.5514612 -0.70361286 -0.3388196 -0.46901572 -0.070173636 -0.6340254 0.34836832 0.55592704
YAL005C 0.5321315 -0.0820665 0.094653845 0.05890974 0.33948168 -0.30335408 0.24176306 0.11095296 -0.2960585 -0.22149149 -0.08520275 -0.43590754 -0.4566798 -0.011279914 -0.49427974 0.09286542 0.5654399 0.4370514 -0.20800558 0.30923164 -0.1881086 0.08692473 0.29218918 0.02159219 -0.19650894 0.6353179 -0.6330072 -0.704425 0.17011711 -0.2293824 -0.16445398 0.49474993 0.21161264 -0.041719887 -0.052255187 -0.03605568 0.23511367 0.2244464 0.29216874 0.20683269 0.061290115 0.31001312 0.21009748 0.08071058 -0.2405891 -0.50164497 -0.23662086 0.003913214 -0.10860287 0.5521134 -0.21808863 0.6215178 0.7880367 0.7833113 0.20864089 -0.06346085 0.25858003 -0.59636176 -0.4937294 0.23589452 0.3876837 -0.094190545 0.66501385 0.1611593
YJR059W 0.037943564 -0.39694458 0.863719 -0.32104912 0.5671451 -0.857473 -0.26216847 0.43340185 -0.92044264 0.09683897 -0.022048796 0.03040334 -0.35691953 0.09366812 -0.33928722 0.8923565 -0.24020381 -0.17858836 -0.5176668 -0.11761041 0.1148091 -0.22869074 0.02347107 0.12666209 0.23426469 0.18357162 -0.4237215 -0.0683913 -0.31865424 -0.39831293 0.5198999 -0.24473034 -0.07012135 -0.29898703 0.416922 0.07554564 -0.107696004 0.0076564862 -0.3622433 -0.61970466 -0.08435519 -0.1565541 -0.21202762 0.39349988 0.49877545 -0.18347487 0.2341066 -0.32599136 0.08684057 0.15106966 0.10022369 0.18659276 0.050956182 0.24641126 -0.6294545 0.20545277 0.3411701 -0.5978458 -0.10763803 0.059396435 -0.11957113 -0.4509961 -0.06819758 -0.00083494146
YBL003C 0.14697331 -0.32868758 0.3668014 0.46152017 0.0022941127 0.30195177 0.13213482 0.16696143 -0.44358194 0.14690556 0.2567015 -0.37833026 -0.5328153 -0.29997605 0.48585537 0.22180587 0.076754026 -0.082509875 -0.7012583 0.0045085005 0.49664694 0.27826163 -0.40811333 0.02677316 0.13789955 0.11965444 -0.35074937 -0.03462221 -0.2624989 0.13425252 0.16623509 0.39705467 -0.24929199 -0.21619512 -0.33756968 0.22513151 0.16556081 0.5165121 0.25750792 0.25320828 0.12872216 0.1701653 0.7741502 0.6703986 -0.1356938 -0.30132294 0.13687773 0.17415065 0.3038702 0.034275476 0.18943495 -0.2516038 0.28120324 0.3605759 0.28667367 -0.032883413 0.24910036 -0.7119875 -0.8547937 0.13277176 -0.11128305 -0.44293532 -0.2484346 -0.0734918
YGL180W -0.0033424378 -0.7290642 0.34387347 0.32685795 0.2558618 -0.20746823 -0.4339694 -0.22818616 -1.3444866 0.35544914 0.274907 0.21630386 -0.28962612 -0.08656178 -0.16926274 0.53094745 -0.08461906 0.20630482 -0.32281113 0.5563542 0.50600886 0.018596923 0.46077812 -0.38461393 0.3988659 -0.18273546 0.04109632 -0.3280214 -0.015729772 0.44679016 0.34334362 -0.020286515 0.06336303 0.02371948 0.45389345 -0.2724989 -0.23466292 -0.19819619 0.103621446 -0.5052194 -0.09345698 -0.19640584 0.47108617 -0.06647737 0.13936588 0.113764994 0.43377817 0.11405038 0.51605237 0.8252284 0.65712094 0.168796 0.13075766 0.37102458 0.22893211 0.072993055 0.036244914 -0.42933962 -0.05015033 0.07566041 -0.038839307 -0.31842643 0.0926821 -0.2891988
YNL189W 0.27888697 -0.22568265 0.6961811 0.5766366 0.565264 -0.23331314 -0.14415869 -0.121796414 -0.16322008 -0.80803454 0.09091748 -0.10276247 0.15100934 0.43036488 0.4576246 0.22872248 -0.17197168 -0.27107775 -0.23610616 -0.30246267 0.3770511 0.5619684 -0.064197056 -0.33485824 -0.014227298 0.69059443 -0.04005154 -0.11804502 -0.07355188 0.37349847 -0.29656702 -0.25514266 0.23379661 0.31173193 -0.19058378 0.30367246 0.2581402 0.13306955 0.22268888 0.5819694 -0.35980874 0.4985551 0.2876144 0.2839905 0.8985173 -0.16082174 0.34960765 -0.23073159 -0.13698411 0.37238926 0.22527091 0.553134 0.36216062 0.6302752 0.4297303 -0.027234085 0.9016857 -0.29893392 -0.2544651 0.03543913 0.20478609 0.33424953 0.0249803 0.10352145
YBR009C 0.19092448 0.15003951 0.7948975 0.5154621 0.51396304 0.24821486 0.13537794 0.15556163 -0.6138859 0.38984868 -0.040165022 -0.12134802 -0.25230554 -0.7081347 0.2218408 0.33572963 0.40252814 -0.15146187 -0.086089134 -0.07374834 -0.09012917 0.32525703 -0.6024329 -0.63364935 -0.2822128 0.34640694 -0.44306853 -0.3752385 0.5689599 -0.1505948 0.2130354 0.059535924 -0.17292757 -0.22782408 0.09845036 0.2547673 -0.36344603 0.42338935 0.14454351 0.59490055 0.22527371 0.2451867 0.6678348 0.6517242 0.18710093 -0.27101007 0.34130284 0.20649742 0.0644136 0.0077031977 0.5706258 -0.20808509 -0.0797293 0.28165153 0.1709324 -0.26982597 0.31266445 -0.046632357 -0.15640229 0.61442286 -0.22528738 -0.12462875 0.050379265 0.108960226
YPL204W 0.27373993 0.35787556 -0.3231156 0.17543907 0.23047593 -0.19848739 -0.20488736 -0.39070764 -0.6778397 0.16322178 0.39467755 -0.93629855 -0.26068446 0.04019978 -0.44762722 0.29886582 -0.25380835 -0.2629527 -0.3592377 0.32094258 0.08035799 0.56744415 -0.0023390714 0.12265632 0.3769847 0.25208807 -0.8412172 -0.5284481 0.037464045 -0.4011991 0.06357527 -0.064734906 -0.4527714 -0.3929256 0.03860925 -0.06712519 -0.5854401 0.2513822 0.0363754 0.040106077 -0.15713812 0.39565066 -0.104181446 -0.025847787 0.6016198 0.47284067 -0.036146972 -0.42328674 -0.37855455 -0.0708324 0.6999559 0.5054354 0.47147512 -0.368775 0.63460165 0.33739474 0.6007966 0.04102187 -0.24226144 -0.11820291 -0.42827836 0.017885553 -0.017548176 -0.10442572
YFR014C 0.43329844 -0.60860926 0.3631701 -0.38057718 0.31222883 -0.46526212 0.023474747 0.36938593 -0.91128165 0.4375752 -0.008818862 -0.59450006 0.390333 -0.069543295 0.010452929 0.27007547 -0.4824644 0.06253133 -0.21603097 0.6848784 0.41769138 -0.16571878 -0.12940365 -0.3530103 0.5678508 -0.28151652 0.023996862 0.07738231 -0.24887829 0.09702438 -0.029619122 -0.304513 0.17036062 0.18554154 0.050744534 -0.4508781 0.3142424 0.01697087 -0.05677207 0.0026721396 0.30779156 -0.30032557 0.059910137 -0.11468635 -0.11083699 -0.5118674 0.051297344 -0.48259833 0.17879386 0.34199873 0.59915507 0.04185473 0.42029494 0.1947687 0.4760419 0.119162865 -0.04485474 -0.87107027 -0.54727584 0.18804753 0.09781801 -0.44395337 -0.74080735 -0.13719706
YDR388W -0.13738829 0.22813405 0.5322635 0.32519105 -0.18676794 -0.8643211 0.32202157 0.10255629 -0.46385214 0.15468565 0.08372098 0.16379035 -0.7873984 0.550142 0.25588405 -0.15970507 -0.10263201 0.34919074 -0.297933 0.269795 -0.1407162 0.75355875 0.007826528 -0.32030708 -0.693348 0.60386336 -0.26890695 0.2146547 0.053982176 0.6522797 0.35605964 0.01168377 -0.41867414 -0.50679785 0.59250605 0.28244585 -0.42168713 0.33833218 0.33007938 -0.32042992 -0.18853483 0.16274138 0.09065477 -0.27600262 0.22394525 -0.19006835 0.23979732 -0.19644462 0.10659276 -0.31816038 0.04113906 0.06673841 -0.0554962 0.37553656 0.27131906 0.47352052 -0.16771361 -0.59992874 0.14444986 0.011784181 -0.26739377 -0.68686396 0.5695054 0.026819352
YPR152C 0.084715486 -0.004299086 0.17754398 0.16358636 -0.011439778 -0.10547221 0.5113341 -0.5361662 -0.9630727 -0.48432603 0.28752366 -0.10901048 -0.42802668 0.4905451 -0.11066367 0.25802082 -0.15466198 -0.49078697 0.079895705 0.42788672 0.4337982 -0.2776246 -0.60783625 -0.5207143 -0.14154455 0.10278752 -0.48250687 -0.40948397 0.24827021 0.24658489 -0.24209362 -0.04495197 0.23826143 -0.017564926 0.08261614 -0.7242557 -0.6474083 -0.06502485 0.4860611 0.5226381 0.2093559 0.45896944 -0.057406645 0.11544352 0.5712313 -0.46471468 -0.39165637 -0.08582857 0.25279734 -0.44915345 0.28773648 0.0787714 -0.25235838 0.4729814 0.14891991 -0.44941646 0.07153609 -0.38041273 -0.007573536 0.2420431 0.2747037 -0.3632439 -0.32696095 0.49139902
YDL014W -0.092297226 0.18629748 0.49883482 0.23475309 0.328487 0.12430943 0.032258354 0.079337366 -0.6231189 -0.27761674 0.038527198 -0.58922356 -0.44283113 -0.103602685 0.59377503 0.034731854 -0.14434168 -0.6843175 -0.48571154 0.6979665 0.14656428 0.1625579 0.12919569 -0.5644688 -0.19521724 0.72124577 -0.1622641 0.15826939 -0.04669256 -0.091731295 0.4679378 0.2144212 -0.27206245 -0.20483637 -0.3635614 -0.60707194 0.0163436 0.21573335 0.34859055 0.13555793 -0.36734647 0.1156433 0.117247835 0.5061634 -0.08098665 0.038482152 -0.5981969 0.4429664 0.11755939 0.17932096 0.3749187 0.0061910623 0.2966919 0.30139363 0.04797993 0.046201017 0.3958271 -0.71427464 0.14965408 -0.090788625 0.015097877 -0.45641434 -0.08444919 0.0074651344
YNL307C 0.7618654 -0.36150426 -0.14157452 0.03235573 0.34265786 -0.35015336 -0.5538584 0.09974969 -0.66143084 -0.149176 0.5994392 -0.58654195 0.14482123 -0.27598363 -0.13025041 0.3708049 -0.44929498 -0.46945685 -0.42724535 0.8779585 0.4784691 -0.41812548 -0.007457554 0.33120295 0.19800419 0.57830304 -0.24764629 -0.34868154 -0.09927248 0.13549194 0.3539732 0.55471474 -0.101907395 -0.63378894 -0.41872516 0.36067063 -0.75052875 -0.34405816 -0.31045672 0.13610047 0.09735852 0.001344491 0.08799803 -0.31537023 0.114357166 -0.6364275 0.3172814 -0.063248634 0.32021305 0.17791522 0.43254945 0.15636349 -0.116875246 0.5168209 -0.45414674 0.045975823 0.21360901 0.29945028 -0.1969357 -0.07060815 0.50899535 -0.26823273 -0.22215992 -0.56768
YDR477W 0.20167303 -0.2881386 -0.14756264 -0.3760604 0.52945465 -0.6622188 -0.1996849 0.15211679 -1.160776 0.30029708 0.2884447 0.035517026 -0.17724438 -1.0123622 0.054336235 0.322795 -0.09592151 0.28154156 0.40527138 0.66413254 0.3238039 0.40450245 0.13938867 -0.23116645 0.34596774 -0.06492995 -0.38270926 -0.43117547 0.20539342 0.12933904 -0.15670751 -0.12331056 -0.17056541 0.48445117 -0.14441845 -0.12808909 0.039572343 0.14285539 0.10190476 -0.28153998 -0.5711549 0.48892012 -0.19472869 0.16420323 -0.34788388 0.040655773 0.40970013 -0.2970506 -0.085425176 0.4671731 0.11957278 0.16277699 0.24576959 0.36507526 -0.22265768 0.42539096 -0.064585 -0.7421463 -0.14533186 0.32976553 0.2622645 -0.1764969 0.5168049 -0.12235276
YBL007C 0.5598144 0.5716871 0.019976703 0.2547785 0.118187696 -0.7612728 0.5760416 0.13097733 -0.011274386 0.15597558 0.8071104 -0.58526665 -0.39549726 -0.20725673 0.26984757 0.25601187 -0.13211258 0.21532793 0.2689441 0.14451076 0.44267842 0.82911927 0.67166173 -0.30260745 0.272267 0.1786878 -0.60653085 0.37818882 0.32030162 0.41928178 -0.101115435 0.50148094 -0.37232065 0.020456173 0.47981787 -0.0031342374 -0.4910556 -0.17300099 0.5302342 0.19385496 0.3366251 0.18648863 0.3873969 0.2848791 0.25967243 -0.088720255 0.51028615 -0.34561634 -0.3421869 0.094358034 -0.19206429 -0.36948872 -0.6365105 0.034372367 -0.11175664 -0.0031023452 0.12453735 -0.42854428 0.2757873 -0.017872399 -0.2638551 -0.10191232 -0.074973956 0.051536545
YOR063W 0.38640916 -0.02987522 0.059399854 -0.03171078 0.14172806 0.3071668 0.026111586 -0.13179284 -0.6018875 0.16980049 -0.07457764 -0.5110289 -0.5929307 -0.4318972 -0.01132388 0.4630999 -0.018069511 -0.58031034 -0.4720973 0.6942129 0.38579357 0.4732194 -0.073227026 -0.6102506 0.21579003 0.6756966 -0.17657864 0.13836755 0.58890486 0.048339173 0.41119665 0.045530684 -0.30129474 -0.030918397 -0.08472455 -0.107087255 0.11459252 -0.066548005 0.0058905287 -0.029183745 0.20961764 0.47095874 0.14612816 0.65274656 0.17115918 0.22871567 -0.052075725 -0.034331147 0.044853326 -0.106144905 -0.43743658 0.21396491 0.4559335 0.25206396 -0.07601556 -0.40150335 0.049754463 -0.93281144 0.07957531 0.09149874 -0.054891896 0.029930029 -0.3626387 -0.10288798
YFR034C 0.1558508 -0.15509829 0.22197574 -0.16226555 0.46333283 -0.17248523 0.039631184 -0.3940203 -0.72671396 -0.23392245 0.4911065 0.09490715 0.0020826287 -0.6034355 -0.1550818 0.04058637 -0.05427548 -0.16265486 -1.0244699 0.364909 -0.0092016505 0.674555 -0.3943866 -0.4695836 -0.426318 0.8652614 -0.28837955 0.09998668 0.36457425 -0.8264531 -0.6695109 0.011754813 -0.45644975 0.106174015 -0.18274091 -0.040680323 -0.5044069 -0.07694779 0.20487095 -0.018209536 0.26486415 -0.23175165 0.32969618 -0.29864642 -0.036372367 0.1524559 0.3086074 -0.08780281 0.12645335 -0.69006884 0.25987625 0.106383026 -0.35434902 0.1165207 -0.19663006 -0.23518117 0.22673947 -0.82324207 -0.07122549 -0.43272996 -0.22598374 -0.08422604 -0.27177826 0.29135355
YFR028C -0.55807346 -0.09243499 0.8550585 0.34038502 0.5144446 -0.097487785 0.31572995 -0.19197059 -0.755291 0.2259785 0.36678174 -0.20470242 0.269695 -0.84740436 -0.29364017 0.085661635 -0.44079772 0.1197854 -0.41658947 0.81298584 0.02080916 0.013150707 -0.11275511 -0.49445453 -0.41787288 0.023551196 0.14692606 -0.27093524 0.31133768 0.71699214 -0.39554286 0.29263604 0.33567294 -0.26072204 -0.4639401 0.26651433 -0.453695 0.062769815 -0.20072839 0.16495176 -0.51740426 0.21413663 -0.37189442 0.48263443 0.0009120753 -0.62172943 -0.14192095 -0.497948 0.07001286 0.20960136 -0.2740475 -0.12496146 0.27003384 0.0065022022 -0.087708496 0.5930531 -0.024413045 0.08598073 -0.22892435 0.31234324 -0.033301923 -0.39901772 0.23290306 -0.7406328
YJL187C -0.10782485 -0.3593011 0.16639954 0.3101305 0.655749 0.33010545 0.2791474 -0.20925784 -1.1569316 0.4659536 -0.2429653 -0.21716578 -0.03613941 -0.5448172 0.18873739 0.23750946 -0.31830844 0.18553326 -0.46309137 0.5050273 0.646519 -0.15473272 -0.095192544 0.13412733 0.5267015 -0.13186502 -0.39116 0.23654431 -0.063422665 0.5138253 -0.11400917 -0.32705238 -0.025928076 -0.12974848 0.51324886 -0.41308063 -0.7479695 -0.22291434 0.34368694 -0.13700515 0.20967895 -0.10133994 0.41521522 -0.51529425 0.007788058 -0.22041719 -0.4623662 -0.07320604 -0.25239334 0.44569907 0.34489107 0.102985255 0.36443123 1.0116687 0.47382563 0.3837622 0.039503276 -0.07236272 -0.49252644 0.5738494 -0.040383816 -0.1877455 -0.14384533 -0.021862432
YER125W -0.3186648 0.13376185 0.4374496 0.07248029 -0.2967623 -0.24306847 -0.28014448 0.25374407 -1.2256464 0.1464979 0.38843116 0.04756034 -0.38750693 -0.12412727 -0.0841091 0.28521428 0.053574342 0.5350456 0.43792865 0.217633 0.22491716 0.25458527 0.5910984 -0.3592822 -0.590739 0.42339602 -0.25460032 -0.44220495 -0.02976337 0.32160798 -0.16513011 0.20251448 -0.35400778 0.31475177 -0.1259409 -0.033592414 0.13538799 -0.5200554 -0.3570252 0.0011757714 -0.13337497 0.4300067 -0.5422861 -0.07017313 0.2244546 -0.61186624 0.12139694 -1.3087865 0.2576511 0.083942816 0.38097447 -0.33891815 -0.5131622 0.49139667 -0.67013955 0.15428211 -0.30297667 -0.7194685 -0.34710896 -0.30217156 -0.3007068 0.5134443 0.059469536 -0.27123386
YGL120C -0.17913792 -0.44501865 0.31975865 0.37064248 0.2778979 -0.12953304 -0.0015785199 -0.14474045 -0.669909 0.007368046 0.31463063 -0.52191615 -0.5941742 -0.46555382 0.3632869 -0.080267474 0.159682 -0.894868 -0.4040046 0.3765274 0.24504411 0.06897105 -0.11890813 -0.4470492 0.014505261 0.28903913 -0.4614813 -0.6177569 -0.10213821 0.2870432 0.026391286 0.08656978 0.3701518 -0.31942514 -0.30653659 -0.7414515 -0.18940517 0.47400686 0.4324638 -0.20989946 0.24442984 0.30166197 0.20101579 0.5571065 0.14844114 0.37782323 0.06463084 0.074324 0.11568105 0.24790838 -0.19884683 -0.056395743 0.2834499 0.65409887 -0.053844124 -0.71811855 0.44735545 -0.7211288 -0.13650076 -0.4110816 -0.13704093 0.17320064 -0.3102356 -0.43542165
YNL110C 0.35578144 -0.046771996 0.050539657 0.53117234 -0.19070637 0.11587778 0.1049381 -0.3381822 -0.381086 0.360988 0.10314358 -0.687771 -0.7840709 -0.4791058 0.31253663 0.23520947 0.12349019 -0.17613523 -0.8741652 0.90061915 0.17671715 0.34531584 -0.008454518 -0.5322948 0.11192453 0.73345906 0.14056365 0.08759234 0.24189106 -0.08163202 0.3452846 -0.23736775 0.01891417 0.11470505 0.17061609 -0.251769 -0.37133622 -0.03176964 -0.17833035 -0.35447577 -0.1894093 0.6659303 0.017477723 0.5921609 0.06615222 0.0046345554 -0.04235719 0.28990534 -0.13912627 0.02479266 -0.034341812 -0.20637546 0.5131787 0.7543702 0.03628369 -0.28985205 0.2656918 -0.70499706 -0.023076374 -0.17351763 -0.24898645 -0.0031467 -0.4675885 -0.20216247
YBR194W 0.30661416 -0.004999039 -0.03751814 0.28910917 -0.15682907 -0.12501593 0.52197796 -0.38882416 -0.9450831 -0.47665176 0.22139014 -0.0606319 -0.47975346 0.43517694 -0.21985526 0.21107145 -0.16571261 -0.55836505 0.060006004 0.4938372 0.38089615 -0.3209302 -0.6341346 -0.4789722 -0.3147036 0.14039181 -0.5491148 -0.45544195 0.24585254 0.17617765 -0.37858284 -0.008369233 0.12103294 -0.046424568 0.024571398 -0.717093 -0.5172978 -0.16015214 0.28088915 0.649989 0.34035832 0.4482851 -0.16200086 -0.05897355 0.65174735 -0.41506287 -0.32115915 0.00070241303 0.24919103 -0.5260398 0.20014958 0.085957296 -0.15339355 0.4611303 0.19819166 -0.37567183 -0.16048992 -0.46976146 -0.1299921 0.14113937 0.1390633 -0.19938685 -0.20568714 0.39983463
YER133W 0.29871082 0.08468821 -0.12593783 0.046163443 0.080789015 -0.015284829 0.39272994 -0.3698086 -0.2738481 -0.007147006 0.20383859 -0.48627105 -0.17840822 -0.12620915 0.54847014 0.15110058 -0.32103086 -0.05503271 -0.02012727 1.3456801 0.34988418 0.18198077 -0.030966355 -0.537341 0.55491716 0.40019634 -0.56221944 0.014769265 0.031045841 0.37334853 0.0730676 0.21888952 -0.6098522 0.5258729 0.21996932 0.3978252 -0.3968668 0.215602 -0.01654026 -0.20773551 0.044069517 -0.4855592 -0.5219569 0.687695 0.47108048 -0.30807686 -0.19924791 -0.19605319 -0.3092866 0.34625074 -0.0060263863 0.41135398 0.40231714 -0.2068937 -0.2863731 0.14836136 0.32500947 -0.72032464 0.08945114 0.26361844 -0.12037493 0.40875572 0.42778388 -0.33724928
YIL035C 0.17814298 -0.4752522 0.09457114 0.35581958 0.3035667 -0.0043697394 0.028059196 0.19798203 -0.95329106 0.1344398 0.3764142 0.060655273 -0.5843062 -0.20723175 0.3030558 0.4775646 0.4447269 -0.20090042 -0.02531221 0.7305642 0.08943518 -0.3508809 -0.08119407 -0.09870923 -0.048624713 0.49888733 0.1673698 -0.28797638 0.0739605 -0.118642844 0.050016694 0.37913987 -0.3857338 -0.1620381 0.25779256 -0.01098568 -0.2591367 0.30993053 0.44744432 0.4993068 -0.23283789 0.09496677 0.49027124 0.600215 0.1601792 0.23539852 -0.25007898 -0.09368563 0.1602038 0.40325713 0.18414108 0.121283315 -0.48858458 -0.24516787 0.6831955 0.17119014 0.053800955 -0.7592115 0.045394197 0.344087 -0.47107834 0.054130033 0.16229275 -0.4868728
YBR106W 0.5110089 -0.2171548 0.26965147 0.29533875 0.26596698 0.24348901 0.0698167 0.29583582 -0.6370416 0.5670809 0.04286716 0.37590113 -0.888941 -0.66547453 -0.15761934 0.55180776 -0.3710033 -0.043893386 0.22542274 0.5611295 0.96447676 0.044801574 0.93578637 -0.22270985 -0.34577835 0.08863974 0.11588872 0.10803433 -0.40501973 -0.29477772 0.4273049 0.276334 -0.19495364 -0.28437975 -0.103495754 0.07314632 0.36390623 -0.31636214 0.08098022 -0.08212934 0.24535121 0.8897239 -0.026285311 -0.3475894 0.31362405 -0.08157734 0.07264545 -0.1416265 -0.96895415 -0.07698398 0.2434439 -0.26324585 0.22611019 0.16540602 -0.038548708 0.2397523 0.1910218 0.054167703 -0.25634912 0.2999244 0.55702454 -0.18580244 0.26285896 0.30169174
YGL158W 0.5224599 -0.29228276 0.317116 -0.11527066 0.51789343 -0.56855106 -0.307922 -0.02297047 0.13533536 0.017122906 0.42722785 -0.0008645638 -0.30954567 -0.52094114 0.489158 0.37374645 -0.646898 0.21667266 -0.18765342 0.77583855 0.4275908 0.5333163 -0.3986478 0.29213396 0.5223033 0.1455938 -0.46167594 -0.4114889 0.37041417 -0.34303728 0.26299366 0.38731587 0.55895174 -0.34434766 -0.08139582 -0.5171368 -0.13998465 0.20692533 0.37031546 0.19126947 -0.3595383 0.20262866 -0.139137 0.58523667 -0.23263943 -0.609434 0.11338384 -0.19830869 -0.55482924 -0.036490403 0.6968446 0.18326688 -0.48871908 0.29379523 0.5454677 -0.09772187 0.1877097 0.25960585 -0.049327977 -0.12349914 -0.39879072 -0.21096236 0.06085852 -0.06446509
YDL140C 0.2937501 -0.3355471 -0.16635989 0.6232417 0.3582347 0.21079677 -0.06032258 -0.009792272 -0.37809792 -0.56546754 -0.022310095 0.21662459 -0.7882785 0.33847356 0.40495467 0.55473197 -0.06743152 -0.20592122 0.25556058 0.17670366 0.22580709 0.30247062 -0.27467635 -0.5345491 0.18279661 0.47186103 -0.44529942 -0.42470568 0.02311777 0.25233385 0.0025120056 0.22164598 -0.041237295 -0.19328955 -0.22979568 -0.2939104 -0.36631528 -0.28965238 -0.06741214 -0.082007654 -0.023720019 0.13257861 -0.53414565 0.056754418 -0.5460575 -0.39435184 -0.3689723 -0.39411527 0.19906226 0.24379824 0.5432555 0.553196 0.37526235 0.051476922 0.06964185 0.26023513 0.3733281 -0.314268 -1.1204758 -0.22814742 -0.8006561 -0.10418574 0.13745658 -0.18710832
YMR229C -0.01635323 0.09721489 0.3562995 0.017579677 0.21929497 0.12593064 0.23951906 -0.5337747 -0.59092766 0.25407973 0.4047245 -0.43932325 -0.677404 -0.34805587 0.23164599 0.000414015 0.13777983 -0.14543024 -0.61546654 0.455657 0.12348056 0.3813934 -0.033381585 -0.4576843 -0.0052613206 0.9847115 -0.43489793 0.010469681 -0.03097606 -0.07161689 0.34015018 0.19819945 0.12321938 0.030207915 0.11480845 -0.33726138 -0.06893122 -0.35040078 0.23114412 0.17595577 -0.6371192 0.3741747 0.09733446 0.5923763 -0.062218267 0.33599222 -0.19123584 -0.06248583 0.4943019 0.3128039 0.2749714 -0.18526562 -0.07337307 0.106760874 0.0046513863 -0.34109274 0.61930275 -0.26477432 0.018251073 -0.0046148705 0.1062062 -0.32639778 -0.06780906 0.07223037
YOR181W 0.46925384 0.7108048 0.20501767 0.23761591 0.024385093 -1.0274214 0.34941313 -0.27960417 -0.8008833 0.33037567 0.43533683 -0.09615039 -0.8056799 -0.10984357 0.030009754 1.0026263 -0.1690302 0.7508187 -0.31586775 0.026087325 0.29849443 0.13144097 0.07887783 -0.21133184 -0.18605213 0.0762056 -0.4716482 0.25388086 -0.30828243 0.36280426 0.40750816 -0.06145763 0.06948109 -0.4438118 0.3667832 -0.066919304 -0.34794617 -0.3852319 0.16746044 -0.15372312 -0.047369976 0.25983682 -0.04452998 -0.16321144 0.0017665336 -0.35520378 -0.19066243 -0.38875118 0.11949689 0.1025883 -0.26435664 0.24474691 -0.18711795 0.59198564 0.5627624 -0.670693 0.14653492 0.17372605 0.17697935 -0.049493216 0.37041235 0.34364825 -0.13232534 0.04478505
YER148W -0.1300964 -0.2887819 0.16157569 0.82616764 0.089665055 -0.20501083 -0.046199605 0.33326176 -0.32159922 -0.03506084 0.17646703 0.14620201 -0.6724982 -0.3205823 0.40324467 0.5726334 0.07865438 -0.12295044 -0.5181541 0.42269465 -0.030125707 0.66690236 -0.7173615 -0.6827586 -0.14529487 0.21617016 -0.21968044 -0.57627076 -0.03306375 -0.3806542 -0.07163943 0.3264648 0.046339907 0.21379179 0.046254188 -0.22742961 -0.6250484 -0.2829763 0.10196249 0.087365806 0.25871637 -0.17967916 0.34276676 0.33755577 -0.11034762 0.07611104 -0.4972619 -0.42645976 -0.45539272 -0.5461555 0.25288275 -0.18750203 0.2129367 0.4130458 0.19722912 -0.10585157 0.15561156 -0.2399671 -0.2769002 -0.31423417 0.10233698 0.34473214 0.61025345 -0.035634145
YJL095W -0.108464815 -0.66124487 0.46768036 -0.09637538 -0.14251128 -0.21618989 0.053019393 -0.568952 -0.10872195 0.5352076 0.6556975 -0.23972893 -0.40562487 0.09885917 0.5403174 -0.06976516 -0.13836592 0.40092877 -0.63140446 0.5133345 0.3020186 -0.34520707 -0.051767666 -0.5153667 0.12396213 0.5932714 -0.5570887 -0.16450863 -0.033704598 0.6359972 0.3594896 0.5276496 -0.05262749 -0.050770953 0.14629516 0.18244255 -0.44108218 -0.18875287 0.34206524 0.24732234 -0.7717283 0.060834095 0.045338087 0.20295842 0.5757463 -0.3301147 0.017916832 -0.006721838 -0.013371664 0.24660328 0.262865 0.22428128 -0.040965293 0.30014962 -0.0856635 0.03830917 -0.0025650698 -0.2929085 0.2593715 -0.095641665 -0.04633475 -0.6079622 -0.49667197 -0.34433275
YBR010W 0.22954388 -0.4023293 0.67614245 0.20192528 0.7056785 0.18479995 0.32682982 0.36609936 -0.69894576 -0.061815437 0.13827576 -0.30412766 -0.40565965 -0.3255804 0.46317953 0.26021516 0.12115979 -0.4326831 0.03626368 -0.28482628 0.4616955 0.20852555 -0.56427497 -0.5142372 0.34761882 0.31341118 0.04285324 -0.23926304 0.7377787 0.16628581 0.10399165 0.30560318 -0.35802624 -0.32131884 0.08252884 0.29266232 -0.1520471 0.78768486 0.23767518 0.28726876 -0.2056393 -0.057882592 0.41695017 -0.05184054 -0.28259236 -0.7581153 0.03650888 0.10389504 0.48558715 -0.15580611 0.42853674 -0.2127689 0.14311497 0.115680166 0.1162575 0.278238 0.48318034 -0.5045209 -0.4447916 -0.03473339 -0.4366788 -0.35589492 0.31781438 -0.13421784
YOL127W 0.27043822 -0.18625589 -0.099178 0.06550703 0.17686215 0.24308269 -0.40520588 -0.39969212 -0.6497633 0.24791789 0.09224406 -0.44780874 -0.7943552 -0.13141836 0.12225411 0.0009454782 -0.006261744 -0.19082735 -0.5131693 0.70051134 0.39668214 0.40524626 -0.26556107 -0.8339311 0.09252994 0.62775725 -0.21326137 0.31020457 0.61722535 -0.24504638 0.45455515 -0.21254925 -0.16695343 -0.16661534 -0.046056457 -0.032294437 -0.030480362 0.013958586 -0.015803332 0.092127144 0.4935787 0.40475836 0.21090911 0.59524757 0.26154113 0.09609933 -0.045047127 -0.09900424 -0.066222586 -0.012311246 -0.20876619 0.19660768 0.1779908 0.26040414 -0.20702504 -0.25130567 0.09259936 -0.9287219 -0.06534384 -0.09689454 -0.37289935 -0.013708203 -0.15449913 0.10503009
YMR242C 0.3462902 0.18255654 0.090953045 0.17145118 0.28084067 0.5112225 -0.49228942 -0.37890753 -0.55207926 0.021170778 0.040972304 -0.29272965 -0.6794561 -0.39663842 0.06479959 0.2124495 -0.098362 -0.38766795 -0.69316375 0.7847608 0.13035525 0.6040603 -0.29819053 -0.70553625 0.026963074 0.6030772 -0.18571469 0.020284384 0.73980737 -0.07294869 0.49505487 -0.0017694508 -0.15721314 -0.05059797 0.035505716 -0.069128156 0.15953232 -0.2330778 0.028870352 0.006168278 0.14221388 0.35774145 -0.10296992 0.6972964 0.056231584 0.017987298 -0.2661727 -0.110450886 -0.35335577 -0.12270578 -0.15581205 0.11244462 0.3005103 0.24468924 -0.03135095 -0.5129355 0.11975054 -0.6217716 0.093921445 -0.16394885 -0.31037706 -0.10536354 0.05359787 0.059528336
YBR031W -0.05216838 0.100033864 -0.0029114855 0.13926885 0.47203505 0.49513018 -0.017694915 -0.5650932 -0.4528192 -0.019247683 -0.003812019 -0.4267187 -0.68708616 -0.24162178 -0.22182472 0.13096248 -0.2031826 -0.5178787 -0.24643758 0.7659019 0.30646798 0.39035004 -0.019869993 -0.8651298 0.01407595 0.39822987 -0.280477 0.5951499 0.62907815 -0.097922586 0.33473936 0.07286812 0.06790324 -0.35305977 0.01306723 -0.45285082 -0.022796335 0.017647775 -0.13910545 -0.060032845 0.21749814 0.32695585 -0.10269755 0.46810272 0.2347384 0.19185157 -0.12688887 0.0024849875 0.2129391 -0.17497538 0.1863275 0.09789923 0.4023708 0.57264405 -0.41044176 0.12831207 0.24038935 -0.72028834 -0.027769819 0.6020299 -0.29150355 -0.13924897 -0.24286991 0.17705141
YMR290C -0.30699778 -0.14705357 0.31785896 0.24091214 0.22003023 0.16409701 -0.09908572 -0.25082272 -0.45717666 0.05866339 0.10920295 -0.44899678 -0.45958886 0.0061561787 0.17907174 0.029465448 -0.18536559 -0.3495208 -0.49074918 0.8551708 0.6482688 0.5331298 -0.041244943 -0.4808452 0.028147124 0.7415521 0.09061554 0.0006033175 0.20149298 -0.11353527 0.052685708 0.16757074 -0.2405596 0.40467444 -0.069970965 -0.2983195 0.074629724 -0.14643882 0.059296373 -0.004974268 -0.17309669 0.70906156 0.3596115 0.7024444 0.01213667 0.4444092 -0.012755562 0.008154224 0.09078749 0.3456093 -0.25522292 0.1324078 0.3653213 0.3184406 -0.32719073 -0.36298838 0.6027616 -0.6469355 0.11673808 0.15491045 -0.062296007 -0.21301591 -0.25909895 -0.063384384
YDR064W 0.2324603 0.101883255 0.07886014 0.6052056 0.12980275 -0.07335258 -0.29724395 -0.18089613 -0.55962104 0.0076088766 0.2998523 -0.42842028 -0.5697341 -0.42042148 -0.015104734 -0.21584052 -0.11524905 -0.6950099 -0.6434401 0.60778636 0.2314417 0.4122752 0.17376432 -0.7455074 -0.018463079 0.5666093 -0.34454858 0.07750409 0.3259273 -0.11679449 0.8174815 -0.24539943 0.0565597 -0.33434743 -0.1392927 -0.5458822 0.33684853 0.33224392 -0.18787663 0.2706601 0.18445024 0.4815039 0.3545281 0.406643 -0.13103491 -0.14547776 -0.1727547 -0.08203167 -0.05863601 0.04682414 -0.07246568 0.26570302 0.19775805 0.3609596 0.058486924 -0.29899848 0.24654905 -0.86193436 0.32112747 0.11048089 -0.17746945 -0.09705505 -0.25753137 0.06560336
YLL045C 0.28459355 -0.15949367 -0.06980108 0.48494625 0.2911453 0.5000693 -0.11321622 -0.5215176 -0.62836003 -0.23467396 0.059275247 -0.41054395 -0.6211087 -0.041086327 0.22151284 0.18995143 -0.09599965 -0.12611148 -0.596392 1.0229748 0.26579338 0.5307636 -0.19639878 -0.7167636 0.13567 0.67708045 -0.46604118 -0.009581926 0.7125409 0.095330074 0.37786758 0.2772943 0.1009309 0.06553096 -0.20316522 -0.15736327 0.17119269 -0.1985706 -0.062524624 0.12277988 0.07138978 0.3896921 -0.07596348 0.5786723 0.13814397 0.14773431 -0.03218003 -0.0692232 -0.10000648 0.17174187 -0.28631344 0.046437114 0.4999002 0.05912601 -0.14472859 -0.29051796 0.09326625 -0.95090353 0.19870433 0.14474382 -0.29736418 -0.17190869 -0.2733692 0.18896113
YGR040W -0.27101108 -0.10852524 0.5372367 0.21051624 0.47151947 -0.31365198 -0.42898357 0.15268415 -0.04351101 0.9414759 -0.018837791 -0.28619313 0.13323885 0.08623571 0.45681137 1.0773581 0.023505723 -0.40982363 0.07820198 1.1137123 0.20827702 0.21305439 -0.38725948 -0.3808859 0.12099212 0.003010845 -0.36813605 -0.526716 0.16541803 0.23628813 0.16265257 0.3684401 -0.15250686 0.0024817556 0.40790978 -0.61341596 0.19584301 -0.26922673 0.36364174 -0.3355962 0.50473255 0.44930074 0.14344953 0.6343702 0.30030578 -0.59793913 -0.41920617 -0.43072498 -0.31095406 0.31713024 0.24626952 0.42068487 -0.5038174 0.7785998 0.14794363 -0.47525582 0.34244594 0.73673373 0.14155413 0.42237404 -0.17219166 -0.40727046 0.3557252 -0.40257818
YBR159W 0.5875605 -0.58323234 0.35766998 0.3324583 0.30191624 -0.114100575 0.029178642 0.41734564 -0.37611663 0.81707984 -0.023938848 0.55483407 -0.39810973 -0.5665135 0.00062425225 0.5279265 -0.22422406 0.3490268 0.17527853 0.52039963 0.5537444 -0.44863972 0.464996 -0.3493221 -0.61543447 0.45806435 -0.27825886 0.2803285 -0.50589013 -0.19854097 0.18879984 0.18352798 -0.3626797 -0.0906369 0.030350672 0.6064699 0.25951883 -0.46824744 0.18969399 0.17656308 0.22054747 0.7330372 0.013481644 0.03153131 -0.09824276 -0.1612383 0.33472803 -0.24698299 -0.7160418 0.45772558 -0.27012452 -0.052327313 0.25575432 0.024548419 -0.12989339 0.04576501 0.50224656 -0.50200576 -0.054341525 0.059952203 0.69064647 -0.1610521 0.16120628 0.6037618
YMR186W -0.055905223 -0.3385294 -0.54374117 -0.25423357 -0.09000995 -0.14497185 0.48354712 -0.17387229 -0.14592387 -0.26603466 0.17300539 -0.39546782 -0.3791175 -0.2307391 -0.37881422 0.7037017 0.24563497 -0.1722675 0.25982496 0.48486212 0.4953288 0.07492914 -0.20720904 -0.7689081 -0.39464936 0.50629336 -0.41067252 -0.33543044 0.14752695 -0.16286531 0.37032053 -0.37763447 0.18999904 -0.5174297 0.016131151 0.4213141 -0.4855271 -0.06228749 -0.27953085 -0.03810759 0.13897724 0.054735407 0.19870861 -0.13357054 0.068095915 -0.9277452 -0.5623922 -0.3939096 0.2321142 0.24699865 0.07845807 -0.31963623 -0.03437694 0.5028196 0.45624065 0.017181657 -0.29589128 -0.3243884 -0.7021869 -0.15517785 -0.13620694 -0.13063523 0.15942448 0.2576259
YGR092W -0.3219714 -0.34470138 0.39069557 -0.28784305 0.3831783 -0.38805506 -0.10892158 0.071378626 -0.15484484 0.4030576 0.2657933 -0.23122504 -0.25782472 -0.75011927 -0.3925531 0.14089362 0.053196076 -0.09589069 -0.46043023 0.75394386 0.5265241 0.5696763 0.2310532 -0.28724453 0.22693446 -0.5423177 -1.0852927 0.28913283 -0.22371112 -0.37989658 0.18853024 0.32269186 0.20855445 0.14849815 -0.19368543 0.2427102 -0.18358713 -0.23929839 0.18027993 -0.014976289 -0.42732397 -0.034654684 -0.28052875 0.24112613 0.5564185 0.028986685 0.09277927 -0.26133612 0.38636512 0.47892243 0.49760073 0.42249495 -0.701316 0.566812 0.19713816 0.28651062 0.27945358 0.04522583 -0.214395 -0.005085747 0.06341445 -0.45011908 0.02647966 0.2382526
YHR052W 0.019774526 -0.18394916 -0.022772282 0.22524422 -0.06481656 -0.42074066 0.21113832 -0.30741137 -0.6198858 0.28947756 0.04820808 -0.55448776 -0.5651074 -0.14738011 0.36745295 0.36096805 0.22181006 -0.13465245 -0.5103118 0.9979525 0.47460815 0.37249312 -0.5110898 -0.23450929 0.16958237 0.6003345 -0.020635862 0.4443023 0.23757878 -0.17319155 0.009900214 0.038555935 -0.015380871 0.1803214 -0.29482567 -0.028684067 -0.112947784 -0.09464827 -0.09448976 0.08898575 -0.15335104 0.65697664 0.07436591 0.5982322 0.020168943 0.022250015 -0.15324408 0.040764585 -0.2090071 0.2241651 -0.3264684 -0.18690544 0.19149438 0.3849851 -0.27454555 -0.3970448 0.3348057 -0.89934677 -0.105035976 0.112682864 -0.6683448 -0.21649587 -0.28773442 -0.050074495
YLR150W 0.13131173 -0.46450028 -0.058500346 0.18782517 -0.1279157 -0.22439334 0.053799577 -0.042807207 -0.44873187 -0.16322187 0.099133596 -0.25260982 -0.85814786 -0.46342096 0.32450312 0.12873703 -0.30653927 -0.28385243 -0.3707776 -0.018477041 0.47278482 -0.13876691 0.055797987 -0.8443727 0.7133308 0.5636595 -0.31455177 0.020927869 0.1714639 0.1463265 0.32076466 -0.5324091 0.0064755282 -0.1626916 -0.20596859 0.15717791 -0.10981665 0.252922 0.40343535 -0.22971593 -0.07778922 0.38340667 0.33355653 0.33699685 -0.60105634 0.32015508 0.3218727 -0.0127416905 -0.6182566 -0.07973277 0.09487069 -0.05604321 -0.12309079 -0.040748198 -0.026962642 -0.08210316 0.341862 -0.62912124 -0.18141714 0.41358125 -0.8005462 -0.39986777 0.08155593 0.8713211
YNL178W 0.37929276 -0.10716012 0.19689149 0.35591066 0.38193786 0.30636236 0.084151596 0.037976224 -0.24628884 -0.28467035 0.23163122 -0.41368443 -0.4731902 -0.53602797 -0.31732783 0.4068106 -0.122382306 -0.49672773 -0.37694606 0.65950733 0.42327088 0.7486319 0.027807947 -0.7275196 0.31274745 0.6904817 -0.43159124 -0.07873822 0.72741187 -0.31937546 0.47184932 -0.25366372 0.16211356 0.0020914103 -0.17289135 -0.4037938 0.28253296 0.12350843 -0.036864236 0.42855582 0.3127699 0.3117649 0.108655944 0.6213364 -0.13671395 0.02923683 -0.20469674 0.18673669 -0.15906781 -0.4760125 -0.46197674 0.46265656 0.21310279 0.17092444 0.14760122 -0.29550773 -0.07123746 -0.5801286 0.28768593 0.4408031 -0.055453975 -0.0893825 -0.32426685 -0.18806517
YBL072C 0.22478747 0.023527576 -0.1112477 0.52354276 0.13382858 0.14527532 -0.30692917 -0.2002808 -0.66441923 0.048455592 0.22686516 -0.12615858 -0.27372694 -0.09641488 -0.23657787 -0.24912146 -0.019498175 -0.78576154 -0.46952313 0.84703755 0.2929494 0.3942882 0.14980394 -1.0744756 0.080711074 0.49454546 -0.58122987 0.06924001 0.36592615 -0.018044358 0.3595125 -0.19035782 -0.16495368 -0.28164425 -0.18384282 -0.42322594 -0.07984538 0.248251 -0.33404255 0.38817063 0.12516929 0.3953375 0.020828832 0.3472047 -0.15168436 -0.07329048 -0.39800525 0.046993345 0.099053174 -0.26808393 0.073101394 0.22647901 0.23756509 0.14352106 0.35859835 -0.25643754 0.24750166 -0.6762827 0.30452242 0.10956851 0.018926673 -0.27486432 -0.39941317 0.10247577
YFL039C 0.81765246 -0.31056696 0.1726383 0.78402054 -0.37227988 -0.45302695 0.24737887 0.03920944 -0.89175016 0.031766973 0.19546248 -0.004555277 -0.5378509 0.02171684 0.41021803 0.6048006 -0.17339687 0.13711737 -0.3562449 0.105040126 0.12537986 0.5875196 -0.0074664243 -0.3880294 -0.96284103 -0.4210493 -0.5578235 0.053830918 0.5895825 -0.28191143 0.018302627 -0.4176532 0.3168904 0.20228444 -0.33459282 0.47093922 -0.059105754 -0.015335058 0.51688933 0.05698771 -0.3284685 0.33942086 -0.16216059 0.033653423 0.22242974 -0.59776723 0.022501685 -0.20118353 0.46629444 0.2798665 0.055003844 0.072805375 0.17093515 0.05186514 0.36564863 -0.19216321 0.049152732 -0.21977174 -0.4062683 0.09954606 0.108778425 0.3689205 -0.22933857 0.17064053
YLR291C 0.13059282 0.27025384 0.68894887 0.06223396 0.6360414 -0.7539551 -0.01894547 0.14292611 -0.7686163 -0.9900734 0.36754698 0.109710835 0.7662758 0.09476133 0.03360264 0.2329357 0.2395626 -0.1801389 -0.5364662 0.28189862 0.3104098 0.41768843 0.35904494 0.28858355 -0.31108662 0.393509 -0.2454794 -0.028510284 0.27896184 0.2818469 0.28934345 0.36480767 0.27696955 -0.23168091 -0.3690342 0.5590186 -0.41952226 0.03702945 0.42179677 0.27558798 -0.050311923 0.28593776 -0.14754166 -0.16521738 0.4001042 -0.005722098 -0.36555752 -0.6247786 -0.5227907 0.26667798 0.473386 -0.29615355 -0.50518835 0.52550024 0.45327526 -0.5150268 0.29579657 -0.32836497 -0.48088235 0.2130334 0.2959012 0.14407134 0.03363078 -0.3939593
YLL036C 0.16510743 -0.2074852 0.050841942 0.8375957 0.06781967 0.20729356 0.0154868495 -0.49216992 -0.64980346 -0.70739096 0.906889 -0.5775772 -0.011296884 -0.6451624 -0.106116414 0.22132808 -0.5156026 -0.6540323 -0.0007964784 0.42466056 -0.19529998 -0.1841451 0.113908656 -0.5434023 0.096645094 -0.16894425 -0.6778258 -0.37355244 0.48668292 0.00028098348 0.10093459 -0.51368386 0.33340633 -0.06822269 0.32455918 0.12940124 0.102146335 0.28795254 0.15298936 0.36970776 0.13826597 0.5145643 0.22928512 -0.16705902 0.26199383 -0.22144371 0.016381316 0.53447545 -0.23135789 0.28866807 0.16581891 0.16365723 0.20983759 0.53020126 -0.45115867 -0.7602841 0.40752366 -0.8130225 -0.14831364 -0.39815408 0.03741094 -0.085276924 0.24420229 0.14620017
YLR075W 0.4542216 0.086932674 -0.19139211 0.015218595 0.09364708 -0.06640149 -0.2684307 -0.37928584 -0.67318225 -0.056990657 -0.4989014 -0.19056745 -0.86151415 -0.7393147 -0.30646133 0.4687485 0.024525015 -0.32373157 -0.45669636 0.72504234 0.40440363 0.27179042 -0.14482781 -0.73502415 -0.22138336 0.52957493 -0.49486947 0.18393128 0.5427206 -0.31643257 0.43211135 -0.1924542 -0.03532974 -0.27492884 -0.08972757 0.060943376 0.12511946 0.12562789 -0.13243872 0.22393411 0.5133165 0.25980526 0.16791609 0.7058099 -0.35088232 0.08795768 -0.18411455 -0.100758195 -0.37804237 -0.16893716 -0.062370997 0.2279344 0.04518704 0.21452753 -0.13522403 -0.37770265 0.12569417 -0.7030634 -0.037286315 0.420386 -0.15457803 -0.20540842 -0.26650262 0.16155
YBL016W 0.12035522 -0.44946313 0.2164185 0.049238555 -0.0856552 -0.48956916 0.0646653 -0.16234918 -0.72386634 0.57173777 -0.35710937 0.065896615 -0.05144844 -0.096098766 -0.20912589 -0.014496139 -0.28385618 -0.24461702 0.4180501 0.5097769 0.4034642 0.21296433 0.08089175 -0.7425516 -0.068275765 0.2321575 0.040848024 -1.0443808 0.18216206 0.031975906 0.12459832 0.17103574 0.22926143 -0.012248802 0.04066092 0.21748877 -1.0619 -0.34436938 0.3293851 -0.6560713 -0.21338879 0.6226767 0.2817615 0.59727365 0.45451936 -0.6677005 -0.32265988 -0.0110329 -0.20601746 -0.3175689 0.18038887 1.0074233 -0.08550405 0.79437006 -0.15360361 0.47319397 -0.006334052 -0.10020511 0.19818003 0.37759864 -0.43254235 -0.1656542 0.21283975 0.07986706
YOR096W 0.15883426 0.22819439 0.15236025 0.6009216 0.09572744 0.13422833 -0.02888417 -0.2650319 -0.45625475 -0.108289845 0.42569095 -0.18808717 -0.405121 -0.38688228 0.03207812 -0.12592259 0.03237485 -0.71606 -0.749337 0.61782086 0.4761079 0.26361513 0.36515957 -0.90986305 -0.029028632 0.591903 -0.42172456 0.27134964 0.55814487 -0.21220534 0.65098155 -0.20270415 0.19688456 -0.12343126 -0.16887115 -0.5461423 0.047444973 0.14849442 -0.086986564 0.09494719 -0.04411852 0.2328194 0.18871461 0.51047295 -0.038315676 0.14035219 -0.2681882 -0.042578626 -0.04221498 0.06322441 0.09910808 0.1203896 0.33351287 0.16317938 0.29012617 -0.16905294 0.13938996 -0.9126541 0.048439525 0.08470871 -0.11727021 -0.27302125 -0.32301095 0.10298775
YJR123W 0.21148361 0.062274802 0.13270615 0.38574967 0.111870445 0.11167261 -0.42984056 -0.43999454 -0.35945117 -0.12997241 0.4251177 -0.096840866 -0.2444442 -0.53010917 -0.20820944 0.04245396 -0.15064363 -0.69870234 -0.51852286 0.57894945 0.2075689 0.5461816 -0.10664943 -0.8583654 -0.22722699 0.36044082 -0.38418722 0.023777822 0.5303326 -0.18366699 0.4602993 -0.23905194 -0.28788334 -0.15755877 -0.15444277 -0.33214808 0.03910288 0.16504003 0.13863707 0.40548906 0.29357046 0.4048314 0.09405047 0.5331328 -0.23110723 0.06757077 -0.11412027 -0.22161806 -0.0031647899 -0.40677473 0.058838576 0.1566847 0.35141137 0.26802424 0.03087645 -0.14398743 -0.15355451 -0.9585672 0.07672346 0.1504338 -0.29594973 -0.09997819 -0.49130818 0.1504296
YGL030W 0.3423403 -0.050839078 0.07826225 0.4782241 0.27436423 0.09123094 -0.022853132 -0.2776425 -0.5353378 -0.020964634 -0.03263542 -0.094274454 -0.63657343 -0.21161877 0.14004685 0.31008175 0.04664433 -0.49686164 -0.56127316 0.66414446 0.2426797 0.58576137 -0.5365938 -0.75464773 0.26406834 0.46633154 -0.34232286 0.08697939 0.69782764 -0.14268413 0.8253975 -0.09830751 -0.13287473 -0.2192721 -0.1376589 -0.50453556 0.093189664 -0.23207158 0.034966186 0.2510641 0.2023076 0.4990332 0.12606369 0.6128373 0.33906496 0.18674155 -0.40536603 -0.087058626 -0.23463476 0.056596424 0.113181464 0.029532818 0.21471867 0.42118043 -0.395421 -0.3757383 0.06301594 -0.55638 0.105767004 0.115048796 -0.3605458 0.006638172 -0.31606445 0.03227306
YGL137W -0.30399707 -0.57294655 0.17203163 0.45949844 0.48359498 -0.6141913 0.25784642 -0.095295 0.044422418 0.04490244 -0.00719135 -0.13009344 -0.116932705 -0.61584103 0.50158465 0.32003582 -0.43361932 0.5628188 -0.1060534 0.51566523 0.13860692 0.28520587 0.62394655 -0.5654957 -0.2654032 0.1628529 -0.6038842 0.1788736 -0.35651517 -0.04728212 0.2726516 -0.09555719 0.019546578 -0.8726153 -0.049636237 0.31485352 -0.07680381 0.0864313 -0.46952367 0.69455266 0.26482645 0.2129209 0.0072335233 0.11392135 0.47143826 0.42098194 0.3207161 -0.27122504 0.71399134 -0.17917818 0.3041534 0.47034112 -0.6383241 -0.07985882 0.17584838 -0.3410396 0.09580868 -0.4164991 -0.4901481 0.2794918 0.48723498 -0.7119679 0.18867259 -0.22040384
YML010W 0.5026107 0.2902875 0.1788737 0.22099178 0.29086953 0.49483952 -0.109916955 0.10867378 -0.48382214 -0.22310404 0.41459757 -0.03348267 -1.1995507 0.21104069 0.13716353 0.51045114 0.23800491 -0.44381288 -0.05022401 0.8233584 0.08578749 0.4243465 -0.041577406 -0.35111612 0.1478955 0.8270746 -0.1568765 -0.05030541 -0.62475306 0.39500982 0.12227479 -0.0077851457 -0.10447096 -0.22896586 0.044190954 -0.25018921 -0.5117004 -0.22166766 0.18189201 -0.31870654 0.22909923 0.08234697 0.10011511 0.6054958 -0.30494958 -0.12801677 -0.25391263 -0.047870226 0.51667726 0.18314686 0.39605203 0.43380207 -0.29994 0.10121265 -0.25410497 -0.18449646 0.0826903 -0.5299651 -0.64562196 -0.1265193 -0.39122626 0.116609395 -0.045973204 -0.24782534
YPL153C 0.81417876 0.08522391 0.5034886 -0.06760951 -0.07648142 -0.09581046 -0.11128603 0.4736661 -0.51071066 0.10456072 0.10528112 -0.6773899 -0.7042819 -0.6953026 0.19767666 0.6880887 -0.39377627 -0.475797 0.054177947 -0.14244404 0.34646288 0.51843894 0.48769444 -0.17642474 0.2868373 -0.06077859 -0.15143375 0.22665435 -0.43501556 0.6176912 0.26366493 0.05337094 0.025977366 -0.10276926 -0.17159536 0.33899742 -0.08293422 0.5097413 0.28946838 0.13085802 -0.17818601 0.19391379 0.2095486 0.17212744 0.35330293 -0.78769565 0.04794083 0.042809226 0.33250463 0.13396473 0.32858863 0.6741657 0.19355564 0.66840184 0.4055659 0.06776636 0.65031976 0.43635753 0.562493 0.48580527 -0.43242016 -0.48665777 0.015319501 -0.13868135
YJR145C 0.1427868 0.03610242 0.10283876 0.5468723 -0.16107525 0.2657136 -0.29066098 -0.42869303 -0.46947613 -0.059696205 0.26738688 -0.04174257 -0.38798556 -0.17416625 -0.22331549 0.087433666 -0.19982317 -0.7893168 -0.5348829 0.5123201 0.25235018 0.4137182 0.102543905 -0.86413354 -0.15978408 0.75650036 -0.52468747 -0.1223753 0.41483408 -0.1906701 0.40637842 0.13490474 -0.0025588127 0.07849612 -0.17030205 -0.53898716 0.48609582 0.23623496 0.053946722 0.1769246 -0.087471776 0.59714806 0.378874 0.7050634 -0.1723426 0.01848504 -0.11285371 -0.055585723 0.0956645 0.17742498 -0.11936355 0.073549196 0.21889617 0.053833738 0.27298844 -0.17940132 0.110608816 -0.64987093 -0.21704665 0.13292988 -0.21531352 -0.36631912 -0.24852996 0.017916117
YPL093W 0.17348915 -0.12623401 0.3516412 0.07612948 0.07535662 0.049978364 0.05076904 -0.4217263 -0.8525536 0.18629567 0.056677945 -0.42833933 -0.6546009 0.05896435 0.31169686 0.48103812 0.09251917 -0.048321232 -0.44627723 1.1043193 0.6355035 0.382595 -0.2136848 -0.34228495 0.018783828 0.7989139 -0.0062005497 -0.10000926 0.29058447 0.27912462 0.035027448 0.034664817 0.089488305 -0.09036993 -0.56130403 0.13681819 -0.27480385 -0.11407447 -0.048685994 0.102258235 0.26499668 0.3358906 0.257465 0.98966306 0.33469468 0.21698798 -0.032241195 0.097702876 -0.20021297 0.10583986 -0.4853861 -0.10848612 0.2707499 0.3642675 -0.15792616 -0.21173215 0.3525146 -0.5032325 0.3594821 0.0018115578 -0.5932184 -0.13516931 -0.27033255 -0.1463325
YOR244W 0.08862298 -0.055154283 0.9395153 0.702083 0.08973104 -0.24478897 0.25071383 0.43136027 -0.925736 0.013856371 -0.012510003 -0.67181814 -0.24199595 0.08065242 0.32858765 0.50712144 -0.62103254 -0.10550485 -0.7132644 0.07297121 0.27287182 0.24460274 -0.74020976 -0.24273214 0.8065235 0.008900286 -0.5904931 -0.76720726 0.2313595 -0.4688031 0.16879669 -0.07006169 -0.24738452 0.43129805 -0.50124764 0.0006867572 -0.017285114 0.542786 0.22072208 -0.10622153 -0.19443294 0.34272695 -0.04013067 -0.20364289 -0.3325398 -0.27748507 0.48221856 -0.036127277 0.45440406 0.56121063 -0.41374215 0.18023567 0.23290993 0.40218168 0.07037864 0.02276015 -0.09119689 -0.46369237 -0.1037161 0.39224532 0.17440277 -0.02111293 0.13116498 -0.32440412
YHL007C 0.35856357 -0.44473535 -0.040523376 -0.3118587 0.3829157 0.26472846 -0.077431835 -0.1991582 -0.43329272 0.44602787 0.34571582 -0.14115392 -0.1774056 -0.5046854 0.03739275 0.31418756 -0.1898355 0.15639055 -0.17050149 0.08860221 0.31253013 -0.08379164 0.038779415 -0.22967765 -0.80113435 0.46489397 -0.8199446 -0.110631675 -0.4794246 -0.1717557 0.052248217 0.8695202 0.11831553 -0.020371092 0.6214285 -0.11109014 -0.8891794 -0.20481457 0.119216524 -0.54744333 -0.018919019 0.13717422 0.5454169 -0.24186067 0.46599472 -0.38247827 -0.08172322 0.17386696 0.67608464 -0.013067389 0.5025614 -0.06087058 0.19007464 0.45332548 0.021529086 0.45485395 0.17854136 -0.4034416 0.33251035 -0.016729362 -0.21767211 -0.65074503 -0.07099678 -0.20152453
YLL024C 0.15745896 0.5090635 0.32220533 -0.13421465 0.32336643 -0.06252423 0.3910732 0.02432403 -0.43120223 0.1447252 0.30109465 -0.7190702 0.043045543 -0.014882993 -0.021633215 0.19223936 0.12277706 0.263744 -0.12704189 0.3987354 -0.04808983 0.4048449 0.18847816 -0.3686727 0.08881044 0.64519364 -0.3527617 -0.4484243 -0.0463389 -0.28271618 -0.060519442 0.15505603 0.32661608 -0.15543962 -0.15161045 -0.3150351 0.20542407 0.41306892 -0.34818032 0.26149273 0.14222053 0.029012268 0.15134023 0.07632591 -0.03602911 -0.30803904 -0.1277226 -0.5583039 0.4992182 0.27983314 -0.12597743 0.2920349 0.6025884 0.8183696 0.10288774 0.13683133 -0.062676705 -0.72910464 -0.8669331 0.2896688 0.26009482 -0.05605428 0.7557267 0.24029523
YGR090W 0.081230454 -0.12546493 0.21463928 0.2655539 -0.0478102 -0.2520329 -0.48552585 -0.1799305 -0.44021797 0.40116248 0.45368674 -0.38921922 -0.9023006 -0.36892498 0.03415104 -0.07768185 0.19008623 -0.86048144 -0.2949656 0.31299 0.038954295 0.1008948 0.14716609 -0.72207266 -0.19288121 1.0534917 -0.12098825 -0.14933482 0.07368293 0.1694075 0.13000418 -0.16256148 -0.22718647 -0.21405677 -0.0176378 -0.556572 0.052961353 0.27849182 0.38988373 0.5035679 -0.5836585 0.31931764 0.34156105 0.4508786 -0.026673878 0.04976576 -0.3359209 -0.0477455 -0.0058961064 0.3925271 0.15731874 0.014141643 0.1825267 -0.056241617 0.24576737 -0.1942315 0.5262897 -0.57443553 0.17799711 0.44419125 -0.3926049 -0.17209978 -0.15938021 -0.20677234
YPL141C 0.10778411 -0.29402298 -0.21373971 -0.2152321 0.08618129 -0.25000805 0.16991584 -0.05902841 -0.6488496 0.3459988 0.36834523 -0.31612507 -0.7249659 0.5228899 0.7504854 0.2611611 -0.2518137 -0.03195386 -0.7866214 0.8978289 0.34408644 0.41101998 0.09513777 -0.21710664 0.24208507 0.47191852 -0.40939602 -0.3827211 0.28518337 -0.38079628 -0.092248134 0.38216302 0.19284259 -0.0074312035 0.41072413 0.2835658 -0.11798465 -0.46443322 0.6921117 0.3113098 0.09539368 -0.010492101 0.008549229 -0.21061458 -0.0076576145 -0.2559101 0.5470869 0.19646351 -0.22684515 0.72473633 0.5892436 -0.65265185 0.04352567 0.41017684 0.015596563 -0.22571951 0.0149692 0.6741631 -0.23984845 0.2095437 -0.35325325 -0.72022086 -0.2707637 -0.1105677
YNL132W -0.15025188 0.31780925 0.36329523 0.52471215 0.16897132 0.19155267 -0.1803244 -0.2416635 -0.38108507 0.120733134 0.30768967 -0.29444504 -0.61390704 -0.5723524 -0.006345539 0.12387647 0.014178799 -0.54031557 -0.8405199 0.76101273 -0.06327239 0.45861295 0.20707203 -0.55593956 -0.14476238 0.9314643 -0.30837673 0.12946534 0.13519241 -0.16196503 0.2615094 -0.19207059 -0.061111614 -0.19241734 0.10169531 -0.29540214 -0.059103977 0.35046142 -0.11862871 0.6796345 -0.3903529 0.42460045 0.019667996 0.52779007 -0.4883854 -0.1268119 -0.124903485 0.014683692 -0.07225803 0.6095921 0.25563756 -0.12881418 -0.11549134 0.3136816 -0.085549034 -0.48469266 0.38923085 -0.39649948 0.14318734 0.38814452 -0.18025489 -0.17867997 -0.35874885 0.032806795
YML063W 0.17462584 0.2436434 0.24418809 0.3688754 0.34741613 0.010062799 -0.24672385 -0.48730195 -0.23644392 0.052313577 0.20466536 -0.16728644 -0.6362559 -0.038726434 -0.32346237 0.15101773 -0.12198835 -0.41461676 -0.52742445 0.61543816 0.4586021 0.21726307 0.15109761 -0.92085534 0.17822237 0.6546229 -0.6765342 0.08180996 0.5596976 -0.24535796 0.64770216 -0.18724285 0.026230428 -0.2073892 -0.009473195 -0.16883984 0.232398 0.1939672 -0.20982853 0.16093639 0.56314206 0.0066531617 0.44577974 0.67125887 -0.14003696 0.028558644 -0.0788841 -0.13655004 -0.15584055 -0.06606529 0.015769765 0.2205755 0.22340049 0.09560029 -0.13341843 -0.21278094 0.3478964 -0.6607909 0.20004293 0.13037176 -0.2546611 -0.26142278 -0.3885771 -0.009364546
YBL002W 0.30982244 -0.18730482 0.1489546 0.584178 0.49397168 0.372575 0.3928103 0.37730128 -0.44354856 0.09301744 -0.114218615 -0.21961753 -0.39276233 -0.26946947 0.25646967 0.26741695 0.043830343 -0.25739166 -0.441988 -0.109295815 0.25855243 0.06830709 -0.5770148 -0.2640805 -0.42994356 0.15160353 -0.6680377 -0.24596256 -0.12774661 0.09186263 -0.27944055 0.6989567 -0.24369317 -0.32397765 0.062291153 0.3840702 -0.41866174 0.31987855 0.17935513 0.029139457 0.28720975 0.22180875 0.61617225 0.9040067 -0.1985921 -0.5471168 0.5553434 -0.15509608 0.38916442 -0.05249757 0.20900439 -0.15857907 0.0682094 -0.11338139 0.28610504 -0.33680496 0.27099642 -0.69972026 -0.56316507 -0.11348283 -0.40020305 -0.41295454 0.17325553 -0.08906575
YDR099W 0.5167909 0.19273669 0.33887786 0.18254973 0.52337617 -0.41174614 0.08665951 -0.15611932 -0.56964993 -0.060371485 0.12495957 -0.86082554 -0.109179795 -0.14024651 -0.17092818 0.7167514 -0.07384388 -0.05651084 0.1897447 0.11618756 0.42469966 -0.12926067 0.055883363 -0.6876081 0.42676246 -0.2542659 -0.6290496 0.108134 0.11231412 0.13674769 -0.038101677 0.27995107 -0.4945378 0.3102532 -0.037182253 0.25611994 -0.08882119 0.542778 -0.16522753 -0.14615104 -0.10603427 0.0033422282 0.3816801 0.15710324 0.035044514 -0.56623507 -0.53609616 -0.65229744 0.43085256 0.10904748 0.42993173 -0.3410358 0.49669066 0.10057636 -0.23040813 0.43247446 -0.08212341 -0.74020463 0.24082465 0.4731396 0.027942771 0.073925704 0.1330853 0.5054243
YBR109C 0.72531724 -0.001657508 0.54806 0.6715398 0.6243533 -0.41163203 0.5323683 0.24918795 -1.0538138 -0.09413824 0.13904531 -0.48291805 -0.43584636 -0.57244945 0.7972349 0.09896413 0.47758326 0.2775346 -0.24355991 0.30747887 0.02440473 -0.103783876 0.013594534 -0.86930954 -0.027680302 -0.14713539 0.036949404 0.3499109 -0.29460135 -0.16027446 0.08854442 -0.3735387 0.2618677 0.19771332 0.54688644 0.6275482 -0.45345294 -0.59723526 -0.24427105 -0.020407107 0.1891672 0.16021052 -0.4715253 -0.16575937 0.16696726 -0.8237661 -0.82354254 -0.32664943 -0.44196436 0.3346449 0.08623415 0.22359659 0.5711978 -0.43589997 0.59077835 -0.26472253 0.22602372 0.37784338 0.28678852 0.16279031 0.13885781 -0.0018763149 -0.61929256 0.3105844
YGR103W -0.09905123 -0.064972185 0.41390347 0.17533629 0.16103391 -0.109935746 0.2364708 0.012145872 -0.60257137 0.032243084 0.20248143 -0.29360816 -0.8835292 0.00594299 0.51621693 0.5496561 0.11865313 -0.126036 -0.42928413 1.120526 0.49193648 0.030690314 -0.3874565 -0.25627685 0.14069217 0.6629514 0.22697973 0.024774818 0.4910593 -0.15691215 0.09692733 0.31862745 0.11933966 -0.08536788 -0.3844299 0.12178994 -0.20227963 -0.20065664 -0.057526316 0.52168924 -0.108174555 0.31470805 -0.10488897 0.6340862 -0.011350039 0.38881856 0.063720375 0.09370417 -0.19898166 0.3863691 -0.1980678 0.15483025 0.6229364 0.3763046 -0.3438212 -0.21887489 0.15815441 -0.7695203 0.40515146 -0.0042201313 -0.40456417 -0.09615054 0.10030668 -0.062561296
YOR061W 0.048364796 -0.54013044 0.09139945 0.4251277 0.45332614 -0.039526235 0.0794605 0.10783572 -0.874412 0.08881822 0.44928858 -0.18764274 -0.70498765 -0.35353652 0.37443703 0.59795904 0.39936617 -0.1662531 -0.14670664 0.94503313 0.030238666 -0.4255567 0.026888704 0.00574851 -0.034035806 0.6010231 -0.16750638 -0.059567943 0.018369937 0.0056141648 -0.31842923 0.2869833 -0.40121785 -0.21657684 -0.15350308 -0.009862774 -0.40373343 0.31727853 0.5668787 0.33332407 -0.37703854 -0.13662456 0.32398534 0.07489807 -0.057758864 0.10773564 -0.5953552 -0.18025966 -0.030129982 0.25750998 0.16188212 -0.21691573 -0.14079772 -0.22808072 0.2914101 0.13978791 -0.04854098 -0.5476723 0.07358966 0.5515289 -0.26436254 0.2419883 0.455184 -0.6134344
YER165W 0.42465985 0.07608332 -0.08055055 0.5308653 0.3764413 -0.037987497 0.19144751 -0.49987838 -0.37255642 -0.31619486 0.34788865 -0.57270384 -0.4052266 -0.08893267 -0.14801739 0.53902274 -0.28174224 -0.18646592 -0.17988604 0.4332165 0.23470204 0.32697967 0.15678969 -0.4015093 -0.1605354 0.41673592 0.024931861 -0.6739429 -0.09801376 0.60342836 -0.20185384 0.23323411 0.3236235 0.30664232 -0.38234487 0.1594174 0.09519743 0.44902146 0.14996749 -0.32311928 0.0180359 -0.17002285 -0.019661756 0.3122091 -0.102180526 0.09463544 -0.071818545 0.37952983 0.038908202 0.2551725 0.030694546 0.35003996 -0.4853982 0.5660764 0.08120519 -0.5053625 0.63455385 -0.49467927 -0.3578634 -0.4101822 -0.40280092 -0.47232458 -0.026897946 0.82051
YML073C 0.22699271 -0.2578585 0.06511027 0.26372898 0.08414429 0.10771735 -0.3548278 -0.30329826 -0.20559275 0.06964577 0.13822818 -0.46487737 -0.7568169 -0.40552348 0.06622107 0.22359027 -0.19624929 -0.39768505 -0.58033043 1.1332054 0.10808858 0.16421875 0.06165853 -0.8158666 0.036649708 0.5960042 -0.3608355 0.046493985 0.668832 -0.10486234 0.6872946 -0.36156312 -0.17347544 -0.06592329 0.07107232 -0.06108458 0.33909383 -0.360398 -0.041288458 -0.088981986 0.4872399 0.2892309 0.040286843 0.6053847 0.0930088 0.09988648 -0.16906813 -0.14777756 -0.26630905 -0.30932623 0.03499149 0.08728674 0.034270428 0.16616653 0.041113123 -0.30734017 -0.10177438 -0.5411139 -0.1113927 0.10833523 -0.33285594 -0.13239366 -0.22981784 0.21685575
YPR016C 0.06595334 0.58476895 0.19893192 -0.114417106 0.10885168 0.14926477 0.24911 -0.10009945 -0.5156636 0.0012644059 -0.036407035 -0.70799726 -0.413812 -0.18945548 0.21790515 0.33277777 0.27390113 0.3103383 -0.30459076 1.5046761 0.19515689 0.29752952 -0.162533 -0.14623575 0.116841234 1.0073994 -0.23937911 -0.08247633 0.3343784 -0.1325757 0.0280051 -0.22532792 0.22650757 -0.13344839 -0.39772657 0.06031074 -0.09130992 -0.15857415 -0.18322128 -0.13981058 -0.25949585 0.41787753 0.16000219 0.4865078 0.43792513 0.0864452 -0.20281214 -0.15791065 0.021529987 0.23206526 -0.41456738 -0.15217824 0.24936609 0.23840563 0.15990107 -0.7497196 0.27567866 -0.9237005 -0.24360634 -0.034040306 -0.45775294 -0.24824545 0.14129756 -0.030684466
YMR001C -0.17160058 -0.11266629 0.62090033 0.14578646 0.5110067 -0.29270738 0.078999825 0.07522988 -0.5328291 -0.3616995 0.23008731 -0.32027256 -0.40845537 -0.28132278 -0.040660527 0.4311042 -0.8347286 -0.5533488 -0.8589808 0.595746 0.0068972562 0.54238003 -0.3073538 0.013109103 -0.11571146 -0.41801253 -0.3024241 0.3228819 -0.08269566 0.8088162 -0.30963176 0.34393495 -0.0134359 0.0717847 0.1350198 0.15112488 0.094636366 -0.34056044 0.41688153 0.18940097 0.07194885 1.0758865 -0.12042904 0.38159502 0.47889113 -0.10999528 0.22080864 -0.56788033 0.048971083 0.115251504 0.21042114 0.44743624 0.738138 -0.19404504 -0.18112527 0.4584403 -0.15066436 0.0601013 -0.13981041 0.15580676 -0.028450733 -0.29484782 0.8403506 0.19687414
YDR328C -0.41456127 -0.41616398 -0.06411526 0.35748494 0.71616626 -0.24741788 0.03570479 -0.20897444 -0.586681 0.3458008 0.39988497 -0.35276762 0.2506438 0.6748143 -0.9665323 -0.13923526 -0.47805062 0.5128738 0.07454532 1.0670395 0.17170984 0.26509395 -0.089563146 -0.4500212 -0.04880221 -0.34660918 -0.7815959 0.21377349 0.03850491 -0.25316978 0.060319174 -0.113106765 -0.7280382 -0.4856521 0.18404977 0.308824 -0.37635806 0.35655925 0.14364856 0.12978981 0.3525088 0.044429526 -0.106455594 0.029974299 -0.5083495 -0.74294037 0.011954701 0.23042853 0.72062457 -0.2830191 0.17592305 -0.008975237 0.6525758 0.5332839 0.42659754 -0.65961474 -0.16383606 -0.5507577 -0.4852812 0.1828452 -0.15904629 -0.19078112 -0.11293579 0.5407468
YLR096W 0.035419177 -0.59953564 0.20111676 0.31231225 0.33339003 -0.8210113 -1.0034761 -0.3736481 -0.5155605 0.029467814 0.7015488 -0.6166857 -0.78016 0.042042505 -0.32116303 0.05387298 -0.36495075 0.16109891 0.05711015 0.25647312 0.41054362 -0.45673633 -0.12772387 -0.06135258 0.329199 0.49132577 -0.475871 -0.33317432 -0.21203585 0.26378393 -0.5098814 -0.18671525 -0.20922294 -0.019791953 -0.0338455 0.6485 -0.5992312 0.14997755 0.16548203 -0.1997024 0.41551 -0.30322376 0.42228866 0.13174802 -0.24725182 -0.52569586 -0.21108662 -0.54063725 -0.81414115 0.48418412 -0.41938704 -0.12004683 -0.04375703 0.32083637 0.058171995 0.3204621 0.52671796 0.01042783 0.102139644 0.5390507 0.21717435 -0.35280547 0.14168653 -0.35654062
YJL092W -0.5407023 -0.27661556 -0.31731075 -0.021401374 -0.034659475 -0.19845462 -0.7512854 0.5605173 -0.45502353 -0.1822637 0.8411688 -0.13661155 -0.27429157 -0.31787482 0.2677082 0.15379503 -0.012703728 0.09978789 -0.14935756 0.2989566 0.90939635 0.6757981 -0.5052718 -1.3908854 0.25420627 0.17485388 0.022890365 0.12591302 -0.0050113862 0.284259 -0.08566643 0.6650906 0.23519279 -0.65360373 -0.021726863 0.15703115 -0.22017998 0.14450218 -0.027474787 0.091642864 0.08767776 0.31927362 0.14385095 -0.3969924 0.34525964 -1.1061689 0.14254175 0.465446 0.18446717 0.41698962 -0.5888881 0.8428326 -0.27839348 -0.13826126 -0.401546 0.028347922 -0.012344103 0.08551358 -0.63978595 0.37673044 -0.018550146 0.18408851 0.0675972 0.15388052
YFR031C-A 0.5588208 -0.019056449 0.11012796 0.45109737 0.0578011 0.15918446 -0.05787775 -0.33318698 -0.4601961 -0.19154298 0.009897094 -0.55239856 -0.68533623 -0.67469406 0.0098060705 -0.22366978 -0.026217807 -0.14038028 -0.50276744 0.69469804 0.395456 0.5259655 0.06717496 -0.7296835 0.2002173 0.9623026 -0.20941927 0.12757933 0.7137249 -0.048247114 0.28413627 -0.16070497 0.37753987 0.06032984 -0.11240202 0.071839765 0.17339472 0.26675287 -0.18987635 0.106566936 0.54450005 0.24208961 0.16770828 0.548272 0.20989779 0.23935142 0.045912325 -0.04590528 -0.38799265 -0.09479791 -0.14847636 0.39470717 0.41921073 0.19662611 -0.11489142 -0.25762787 -0.04423752 -0.72926325 0.09180547 0.2628129 -0.3369406 -0.23997769 -0.5204432 0.057291806
YGL103W 0.5128464 -0.0152603695 0.018584535 0.33149898 -0.04905428 0.09351629 0.09191596 -0.28417432 -0.41568604 0.10402311 0.41109386 -0.41831356 -0.60012794 -0.23411281 0.06119731 0.09538624 -0.0897421 -0.4468725 -0.5268913 0.59047234 0.10922543 0.20173989 -0.038239207 -0.75931656 -0.021525204 0.5658995 -0.39843047 0.284685 0.844672 0.031026246 0.34429622 -0.27764162 0.008355283 -0.2911461 -0.012818709 -0.22854483 0.009085587 -0.29234397 -0.27383167 0.41934496 0.3858643 0.42218876 0.21841754 0.5475754 0.24182273 0.10325395 -0.11975987 -0.0898867 -0.6341853 -0.25268334 -0.010887658 -0.07106714 0.1871268 0.5220619 -0.147782 -0.618608 0.008908232 -0.8062625 0.1687421 0.06226689 -0.12822898 -0.015667204 -0.40389922 0.000990289
YJR066W 0.5988357 0.039337367 0.31170273 0.30713484 0.33733642 -0.5007349 -0.08068616 -0.45445052 -0.8573169 0.1869897 0.516348 0.15243718 -0.47533873 -0.23622914 0.12463494 0.3730904 -0.5567049 0.26568478 0.25313437 0.19082524 0.1854542 -0.24836092 -0.26908627 -0.14906384 -0.5114285 0.5471289 -0.9458517 0.23466465 0.39927748 0.57037276 0.2584569 0.12140366 -0.22761631 0.4680162 -0.08798723 0.4210463 0.37557045 0.39648774 0.016390266 0.31166932 0.04539449 0.4299778 0.31092912 -0.322047 0.22658114 0.07814466 -0.36308038 -0.6018017 -0.7728367 -0.030530505 0.079018846 -0.24387921 0.21249186 0.20724295 0.15511191 0.17989181 0.2606857 0.47029588 -0.23627561 0.13646571 0.39799193 0.24746591 -0.14295395 -1.0955774
YPR080W -0.02400092 0.21653612 0.05167014 0.7385758 0.6207619 0.38360876 0.30089554 -0.39152047 -0.41385606 -0.007067271 0.24504434 -0.40543422 0.32116026 0.019454788 -0.077629425 0.99338955 -0.4870796 -0.23877199 -0.40903392 0.4654336 0.4104741 0.3174247 0.28876284 -0.26079738 0.045655012 0.64768213 -0.36398888 -0.5300264 0.02632714 -0.32743558 0.34331924 -0.10734974 0.71860427 -0.2372977 -0.33509555 0.2691216 -0.061729338 0.5334028 -0.68695706 -0.47562057 0.41011533 0.15071613 0.31041452 -0.08765266 0.74093395 -0.29955792 -0.4283372 0.11031511 0.163837 0.47689155 0.16585363 0.28885868 -0.068113655 0.20731492 -0.46815094 -0.18657355 -0.046778597 -0.17038603 -0.5769439 0.24015169 -0.25332808 -0.07970608 0.12470742 0.6777502
YPL082C 0.23469377 -0.22111255 0.33539158 0.4703233 -0.17785431 0.30683362 -0.04200683 0.18240903 -0.43199664 -0.31492904 0.612977 0.22696581 0.02325763 -0.31169435 0.4108114 1.1567403 -0.52349895 0.09724478 -0.253976 -0.13701609 0.46103317 0.44279546 -0.8999693 -0.68857557 0.0018361004 0.22470184 -0.38285896 -0.28384408 0.06414887 0.2903225 0.5105815 0.2433893 0.033906315 0.004347266 0.0473193 -0.47489467 -0.18505123 -0.066072054 0.11308054 0.484455 -0.104959875 0.058784787 0.5580884 0.758748 -0.4085954 -0.44856074 -0.18684593 -0.05470593 -0.0022574991 -0.4403107 0.09003013 -0.16570471 0.13150483 0.34497774 0.44089785 -0.08311995 0.23967846 -0.4258978 -0.924634 -0.14508362 -0.08006805 0.35453004 0.33156142 -0.08914167
YPL131W 0.12366225 -0.11416594 0.07623262 0.008997325 0.0027652017 0.30777067 0.31361127 -0.67038417 -0.8016484 0.024530472 0.23142162 -0.5383026 -0.4795202 -0.13341287 0.121509984 0.15959117 0.11547666 -0.18739717 -0.5944947 0.6841381 0.509089 0.15279838 -0.2878072 -0.71327174 0.2112217 1.0764693 -0.44477484 -0.0027302569 0.50136054 -0.07667111 0.30878046 0.26825684 -0.19914742 -0.3481257 -0.54592806 -0.436684 -0.12567995 -0.035543 -0.01820599 0.113720864 0.1625622 0.35350752 -0.09264587 0.24306044 0.30367637 0.15079577 0.113596566 0.03265437 0.19962049 -0.017502379 -0.24072838 -0.027946852 0.3949953 0.13370366 -0.3752448 -0.07813901 -0.0017324012 -0.6733675 -0.12527528 -0.14174595 -0.1067051 -0.025777506 -0.18236122 0.1756225
YMR047C 0.0709743 -0.01748357 0.09326907 0.35557723 -0.1534676 -0.94589835 -0.1445059 -0.5094561 -0.46978074 0.50207716 -0.07160634 -0.8223834 -0.26161906 0.14732145 0.14165466 0.048462864 -0.3502155 -0.1812601 -0.1395 0.798417 0.3487438 0.5149438 -0.44167802 -0.33714923 0.024436599 0.48590428 0.29239774 -0.08458341 -0.026241379 0.3521537 0.0711624 0.532955 0.50416833 -0.16864008 0.012395358 0.38603976 -0.16708905 0.20471942 -0.11477873 0.5939874 0.15064278 -0.17389493 0.43546674 0.17091632 0.34361398 0.48132253 -0.4500655 0.3352499 0.12935579 0.25257832 -0.04912421 0.14332089 0.22558454 0.7244398 0.42894313 0.37493473 0.055412985 -0.86304057 -0.6841783 0.21547507 0.25685075 0.13104023 -0.07275454 0.696609
YNL209W -0.053560328 0.06352626 0.17547941 -0.0480771 0.4947389 -0.103867754 0.31803825 -0.01679084 0.042814936 -0.19719999 0.06219154 -0.79450464 -0.17909807 -0.3945801 -0.010894929 0.34947184 0.18621807 0.34365863 -0.74654645 0.2948417 0.6828339 0.19657995 -0.019687138 -0.6056037 -0.25138354 0.47507745 -0.35717312 0.028176893 -0.2193239 0.027870093 -0.065041736 0.004172245 0.07151556 -0.07496226 -0.25100857 -0.24244206 0.036635306 0.8310745 -0.2345218 -0.62952346 -0.308034 0.814308 -0.01902459 0.38623878 -0.12443655 -0.44175708 -0.48700228 -0.6350943 0.35949644 0.29134077 -0.1758264 -0.16598193 0.22782284 -0.42106265 0.33064523 0.07479521 0.096420914 -1.0464096 -0.2051339 0.039035928 0.36780444 -0.009767516 0.3647567 0.21611013
YBR189W 0.3452343 -0.030853638 -0.010242138 0.53232664 0.21881677 0.3920452 -0.24444917 -0.39922854 -0.61478174 -0.054157637 0.2820363 -0.6442885 -0.40244636 -0.34707287 -0.3059572 -0.14390497 -0.08006523 -0.7166172 -0.47441268 0.44136697 0.2937325 0.34239283 0.17940232 -0.61210954 -0.52975315 0.7722387 -0.6022527 0.03807838 0.38463244 -0.04013551 0.39546213 -0.21337155 -0.47967115 -0.16155994 -0.19634745 -0.5408855 0.13540299 0.15390486 0.07872722 0.20434551 0.21598001 0.38241392 0.14018923 0.33489826 -0.056145985 0.056125008 -0.1323194 0.055667188 -0.16870551 -0.17273384 0.48880944 0.24904525 0.23734982 0.23924074 -0.14082278 -0.14917839 0.37867245 -0.69870204 0.29730886 0.23028071 0.067611575 0.0095982095 -0.18698981 0.26946166
YMR308C 0.11241118 0.13080055 0.91953474 -0.08307684 0.7055504 -1.038479 -0.09814909 -0.031377178 -0.109691106 -0.001310354 -0.249386 -0.06864479 -0.2916461 0.5471356 0.086181454 0.33297417 0.81925225 -0.37226555 -0.014993509 0.18563622 0.7072529 0.8671594 -0.35686782 -0.15469454 -0.36528823 0.85368305 -0.034332454 0.12109675 0.16380306 -0.23743266 -0.15501054 -0.05894975 -0.17647825 0.061807364 0.19220527 0.023451265 -0.898858 0.26250988 0.032203708 0.72293156 0.41480663 0.7842639 0.08886697 -0.02911913 0.31475922 -0.04130146 -0.0812896 0.19539084 0.3512587 -0.029508749 0.37189487 0.0768896 0.54437065 0.41607082 -0.06642444 -0.1756833 0.30688757 -0.20889692 -0.38031945 -0.46141848 -0.46957225 0.12737364 0.11555753 0.50231993
YGL076C 0.3702282 -0.0020886199 0.056873675 -0.10991279 0.10739317 0.2809017 -0.54849935 -0.38882968 -0.7166719 -0.089869 -0.011151949 -0.20178668 -0.86854607 -0.34005925 -0.023732526 0.35443386 -0.07034489 -0.4528945 -0.6600635 0.78120446 0.25026864 0.53288394 -0.1823431 -0.51960117 -0.24228756 0.5322572 -0.35883707 0.2307015 0.7404098 -0.39672986 0.41176105 0.18796512 0.09735117 -0.25297293 -0.211586 0.06852302 0.005854575 -0.27377 0.06917409 0.12401951 0.25424007 0.15180889 -0.2691189 0.5192251 0.09640708 0.4171907 -0.22532459 0.032665636 0.09817025 -0.09330728 -0.06360564 0.009838402 0.14762628 0.09540962 -0.27690202 -0.49321598 0.3512333 -0.7659094 0.053945463 0.29666033 -0.34823173 -0.14814046 -0.21753651 0.3693159
YKL101W 0.46115816 -0.34532773 0.3317802 -0.02915813 0.24685988 -0.008436287 -0.012614293 0.2730763 -0.49997392 0.07273477 0.9040575 -0.33075052 0.14321043 -0.21106309 0.25112098 0.56106657 -0.3487136 0.06518386 -0.9580051 0.40179706 -0.2076879 0.3472663 -0.051984858 -0.3123183 -0.0019197199 0.19189514 -0.12314358 -0.31906074 -0.035959613 -0.30550638 0.6479461 0.2914107 0.9180617 0.171566 0.26241666 0.0075721196 -0.66479284 -0.67380255 -0.3506288 0.3910327 -0.2925617 0.44136658 -0.39868572 -0.21190219 -0.3617183 -0.42188373 0.30222434 -0.3060141 0.18991166 0.38949955 0.26680446 -0.047823675 -0.18406662 1.1226147 0.30035725 -0.2738352 0.22648388 0.38637334 0.26020646 0.13683492 0.24738586 -0.6316797 0.29331118 -0.11392112
YER012W -0.53035295 -0.35998878 0.33202398 0.3700843 0.14555639 -0.36127806 0.3731904 -0.41990563 -0.037482083 0.07863352 0.5905489 -0.1831764 -0.027342187 0.08687326 -0.056164913 0.6092469 0.13969365 0.43767837 -0.19212386 0.5688308 0.26262537 0.08618577 -0.39931566 -0.8572081 0.08519927 0.37137532 -0.08236764 0.3401211 0.012013286 -0.3259799 0.22592661 0.22121131 -0.15879321 -0.040174577 -0.19906418 -0.11617356 0.02133847 0.35369802 -0.52854 0.10069945 0.45769182 0.55546296 -0.010977737 -0.1435012 -0.16195814 -0.42317373 -0.37662953 0.14159882 0.44932583 0.3458345 0.16183361 0.66471165 0.40173253 0.535679 -0.54285544 0.55267185 -0.04850969 -0.6265886 -0.51238763 0.3057234 -0.82106644 -0.12247705 0.10710479 -0.13565895
YHR114W 0.5586589 0.36418408 0.36412105 0.26555163 0.8439792 -0.37565178 0.6271088 0.11923734 0.04218724 0.032738846 0.18655472 0.15803447 -0.7281796 -0.29774177 -0.21788165 -0.24774787 -0.14453456 0.103600636 0.0035078614 0.40246186 1.0084976 0.005292305 -0.30728373 -0.27950227 -0.46302187 -0.2032524 -0.393105 0.5492481 -0.10281133 0.9096358 0.16714814 0.73001444 -0.32476142 -0.63398093 0.76041055 -0.63069737 0.1788893 -0.28552765 0.7271896 -0.5410679 -0.2788481 -0.37535942 0.36534524 0.09932943 0.32918105 -0.13978443 0.038471878 -0.13822061 -0.007368313 0.39927843 -0.52824014 0.49849752 -0.6479601 0.38737926 -0.17102468 -0.23205054 0.31900933 -0.8672732 -0.062268283 -0.37980163 0.33617613 -0.07594228 -0.48496804 -0.13360932
YLR340W 0.36100474 0.18643187 -0.4862908 0.14219733 0.15775724 0.1810072 0.23233455 -0.30637643 -0.31868404 -0.27795145 0.07370765 -0.19378832 -0.51399463 -0.48141024 -0.23816247 0.2456389 -0.38207027 -0.16652276 -0.2143334 0.4238141 0.32709143 0.5709795 -0.20842496 -0.6055793 -0.24943492 0.9319844 -0.23176293 0.009465015 0.5716946 -0.08877653 0.3654665 0.29632673 0.2410194 0.024987254 0.14612567 -0.013246913 -0.24980092 0.051234376 -0.33617693 0.35075837 0.3159766 0.32535967 -0.024057802 0.5959003 -0.12615466 -0.15626149 -0.21037455 0.049222197 -0.21486373 -0.41738728 -0.27729294 0.50586814 0.24796887 0.5281613 -0.35463318 -0.18747324 0.54585004 -0.71127665 0.32214054 0.4911914 0.10179485 -0.12183329 -0.3081729 0.124608144
YIL133C 0.11617416 0.12810451 0.180762 0.37957987 0.1496385 0.29061654 -0.12835523 -0.29344636 -0.5791188 -0.19017777 0.23939614 -0.3054677 -0.5990486 -0.48918253 0.18294975 0.22808316 -0.09458849 -0.40082216 -0.67201686 0.8935148 0.5302073 0.50830793 -0.15222427 -0.62648517 0.1297313 0.75048697 -0.4388025 0.16168971 0.83461314 -0.24780571 0.28866094 -0.1274024 0.07621616 0.102055445 -0.23026884 -0.210607 0.07676108 -0.15289491 -0.08447522 0.079246566 0.31211415 0.20065686 -0.021480618 0.5057271 0.0013233015 0.13414139 -0.021364389 0.11150723 -0.109746225 -0.06378993 0.17663002 0.13854301 0.26346537 0.13594384 -0.12363686 -0.29727793 0.23154528 -0.7086521 0.1357692 0.099376194 -0.17825864 0.04213667 -0.28290212 0.23682499
YLR347C -0.35643625 0.18927146 0.5295029 0.45998406 0.21878992 -0.20229404 -0.049119283 -0.29506662 -0.60180837 -0.22522563 0.02623869 -0.50020134 -0.3529427 0.38965064 0.49981117 -0.11391255 -0.28351882 -0.7035518 -0.038016055 -0.091076314 0.7819393 0.56497616 -0.30302474 -0.31327772 -0.45423678 0.5258244 -0.27092025 -0.08604929 0.5410632 0.13224623 -0.43510222 -0.19571297 0.68264544 0.26140383 -0.11378493 0.2576252 0.02380244 0.05479823 -0.20259807 0.37641782 0.37572637 0.45830157 -0.34470725 0.31965056 0.14978996 -0.29156885 0.1467839 0.27553818 -0.39013678 0.10681128 0.3269892 0.15106551 0.42441332 0.69585186 0.21755879 0.1911697 0.39343932 -0.29651707 -0.6141336 0.1608815 -0.3305678 0.2544595 0.29954 0.54472345
YOR204W 0.2479507 0.17357051 0.40039757 0.917349 0.07296817 -0.033852134 -0.621408 -0.20500353 -0.27872553 -0.4431562 0.20207469 -0.69034547 -0.4135653 0.08849136 -0.11240293 0.15485184 0.022073066 -0.18124352 -0.49655846 0.7780776 0.6043385 0.020227062 0.2793172 -0.40676454 -0.5210219 0.6566886 -0.48128226 -0.28656375 0.42862585 -0.017662711 0.28068826 -0.42188293 0.46365312 0.5672185 -0.170632 0.09070348 0.06671299 0.23399425 -0.12034468 0.024513675 0.22644128 0.27981186 0.44032118 0.39332777 0.28740123 0.5780752 -0.23117141 -0.13188988 -0.077616744 0.07461023 0.3315623 0.024685966 0.072693825 -0.21950275 -0.59360266 -0.06260593 0.2506486 -0.4922385 -0.054939564 -0.21140735 -0.36736724 -0.9986542 0.25537673 0.08343815
YLR429W -0.3204493 -0.1391345 0.3461471 0.80352217 0.32745764 -0.6450044 0.2478155 -0.2573899 -0.96970946 0.49238947 -0.09272211 0.09058853 -0.7404189 0.25051174 0.50276303 0.03885739 -0.14516895 0.6006846 -0.27668792 0.07106983 0.69915897 0.087263845 0.3139429 -0.16991003 -0.30361292 0.25761822 -0.5936979 0.47496253 0.07552895 0.17926861 0.5538741 0.41061118 -0.017488232 -0.21264485 -0.020395614 0.3733407 -0.38632664 -0.061684366 0.08125318 0.2619295 -0.13573487 -0.04701077 -0.0890774 -0.2286233 -0.29742366 -0.6234832 -0.09863767 0.0010247731 0.40373778 0.39217055 0.25497952 0.43670613 0.15512112 -0.4909708 0.34272647 -0.6111011 0.23498255 -0.51493883 0.041815005 -0.19890067 0.42696783 -0.441709 0.21290137 0.46622887
YLR175W -0.38097566 -0.1332192 0.5052695 0.37841544 -0.084537864 -0.065789126 0.4092655 0.36182472 -0.41751543 -0.23314396 0.072837986 -0.44199115 -0.4922955 -0.2534929 0.16672038 0.18955109 -0.047720592 -0.71226 -0.21913217 0.46467084 0.090161726 -0.029438889 0.5600619 -0.52768666 0.04899737 1.1065929 -0.27105656 -0.019002626 -0.03763236 0.19918987 0.112218276 -0.11716098 -0.083663896 0.32993048 -0.36944655 -0.25395367 0.23670076 -0.46394634 0.14841472 0.12363182 -0.0778201 0.42683876 0.0128714405 0.71448857 0.25972274 0.15233919 -0.20007658 0.2593661 0.5035946 0.09131251 0.36001104 0.048118524 0.33000425 0.568158 0.031247841 -0.08336411 0.047495134 -0.7893276 -0.04418545 0.05845237 -0.026167218 -0.270284 -0.105000906 0.12616068
YLR423C 0.76867306 -0.4655249 0.071963914 -0.12619698 0.52930486 -0.3322623 0.094701216 -0.18177962 -0.53398126 -0.36951044 0.059887152 0.2478213 -0.18777977 -0.18330613 -0.5716364 0.49634945 -0.43812746 0.6004782 -0.22791122 0.5991063 0.6343488 0.44667116 0.09605068 -0.04842986 -0.6514148 -0.07800395 -0.03416254 -0.08836616 0.2696653 0.42272386 0.72153974 0.14726381 0.07029467 0.26803002 0.38917744 -0.028971005 -0.26977557 0.8519868 0.53535855 -0.10918053 0.022090882 -0.30896288 0.14802004 0.15189776 0.79671377 0.47913906 -0.55718917 -0.16398302 0.80000186 0.4783246 -0.0023066034 -0.68609154 0.32455403 0.23005794 0.18804145 -0.2017462 0.7034797 -0.36462006 -0.30707553 -1.125438 -0.17503832 0.107001536 0.35404474 -0.036243822
YER177W 0.37967438 0.06898283 0.5595606 0.020524736 0.65478855 -0.44864404 0.18595484 -0.3757862 -0.6793134 0.31914064 0.36097497 -0.78714865 -0.21153142 -0.07473757 -0.1957414 0.42042357 -0.1422777 -0.18583319 -0.230186 0.16547792 -0.06675914 0.066828474 0.02438569 -0.4315611 0.12430075 -0.045832623 -0.17194362 -0.138842 0.06497018 -0.0640921 -0.3906947 0.55633354 -0.7819095 0.039016023 -0.18137711 -0.28455684 -0.39527082 0.49775714 -0.06159323 -0.109941155 -0.19587585 0.025901008 -0.37322062 0.24126992 0.161536 -0.9392589 -0.5970147 -0.4928736 0.34649166 0.08132102 0.38715762 -0.19107276 0.08958986 0.28830206 -0.13563871 0.32245487 -0.26429796 -0.76032454 0.03737363 0.109888464 0.18697177 0.34139836 -0.054073755 0.5428706
YNL031C 0.23839028 -0.35645035 0.812038 0.43620583 0.652973 0.4243151 0.3905596 0.11498799 -0.9503813 -0.038578216 0.31661218 -0.31325597 -0.54121447 -0.14190395 0.8130642 0.31557354 0.28493136 -0.25121176 -0.02006002 -0.22742864 0.24237652 0.10290876 -0.35777152 -0.44474673 0.28227714 0.21924625 -0.12521207 0.12979338 0.8160931 -0.12996835 0.058964875 0.36183688 -0.24927305 -0.53921956 0.20593153 0.32502988 -0.41070053 0.6774246 0.19102664 0.49469483 -0.30112094 0.057315964 0.2117676 -0.14730552 -0.2023652 -0.7272335 0.044324614 -0.06417129 0.1260916 -0.25927472 0.57440984 -0.39327356 0.106584355 0.041255105 0.29392657 0.28846025 0.37609133 -0.31338686 -0.28562897 0.039558277 -0.48611355 0.008070664 0.2978901 0.17672525
YMR049C 0.11636673 -0.25128892 -0.029340796 -0.3154931 0.060260545 0.32589266 0.20425893 -0.55807656 -0.74514836 0.15953 -0.12903786 -0.43831617 -0.82768464 -0.49631843 0.5255396 0.15193956 0.007891533 -0.010935839 -0.45095155 0.9484469 0.9395419 0.23275019 -0.313837 -0.21882387 -0.05961041 0.27066135 -0.13017415 -0.06454722 0.2848067 0.12441344 -0.28644353 0.3694965 -0.38976568 -0.24043155 -0.12065614 -0.10915716 -0.39039412 0.20885123 0.03559654 -0.10859851 -0.08663783 0.55936545 0.17120655 0.4834618 -0.39814094 0.294527 -0.4970844 -0.27304643 0.14966032 0.3453657 -0.062179204 -0.20346385 0.2288241 0.27132753 0.25563765 -0.17488036 -0.029248096 -0.49714503 -0.06583912 -0.19766605 -0.44053653 -0.19645804 -0.19691406 -0.47641787
YLR197W -0.12453854 -0.068917096 0.17753388 0.5010457 -0.05405114 -0.0798702 0.014274424 -0.16922279 -0.55116814 0.026616545 0.27917194 -0.91004264 -0.29262838 0.16540034 0.21407302 0.11980806 0.21367402 -0.8121491 -0.9118546 0.5050648 0.2886102 0.13602355 0.32922477 -0.95203775 -0.19619317 0.2987039 -0.21479662 0.19831344 -0.3679912 0.106101565 -0.116522476 0.16758107 -0.05373795 -0.11268778 -0.21498838 -0.6562374 0.04255375 0.09559093 0.07084414 0.38123494 -0.4853846 0.2269742 -0.041040216 0.6051064 0.10472869 -0.3110784 0.11194416 0.28921187 0.20723598 0.12191133 0.40264624 -0.22426635 0.30021918 0.19877177 0.25257298 -0.00031025306 0.3859194 -0.8297646 -0.16666193 0.112236135 0.12958252 -0.34078413 -0.20393112 0.13937134
YDR412W 0.17714816 0.36533242 0.32776272 0.12938833 0.03812824 -0.23967321 -0.14511022 -0.4090453 -0.46813488 0.35796848 -0.23749484 -1.0318079 -0.63042647 -0.332995 0.0533873 0.16613884 -0.20405485 -0.2538953 -0.44685635 0.821577 0.55830604 0.463645 -0.4225829 -0.387514 0.27829653 0.85546803 -0.19809581 0.30140072 0.24356376 0.34866968 0.29665953 -0.1803637 0.21584699 0.3500365 -0.41129178 0.46118325 0.044477772 -0.11840601 -0.21491453 0.2781911 0.38318565 0.19733556 -0.18634975 0.7681487 0.19709879 0.1968731 0.08329765 0.0038117317 -0.17131825 0.20712265 -0.011584411 0.49323538 0.47584555 0.4212103 -0.09551329 -0.28493991 0.07207428 -0.8477259 -0.3075642 -0.5260925 -0.22827314 0.06494084 -0.580152 0.20268276
YFR024C-A 0.48090446 0.22833912 0.3059785 0.7985225 0.34167972 -0.75969225 0.33968705 0.12844367 0.029275412 0.055474855 0.5673096 -0.28313702 -0.7311755 0.3222975 -0.16606018 0.6243173 0.007876279 0.34880298 0.21503209 0.45912537 0.51210284 0.22218086 0.42248183 -0.16372891 -0.7198877 0.47554004 -0.41134444 0.35741487 0.22220388 0.6083231 0.10732847 0.030078376 -0.08756986 -0.042703584 0.60747486 -0.21188454 -0.24413975 -0.03480751 0.097229525 0.62336934 -0.4913506 -0.13095182 0.6201995 -0.28162652 -0.011397107 -0.26923683 0.7230392 -0.73313135 -0.10891817 0.1401083 -0.29272962 -0.039125286 -0.30632013 0.18486437 -0.21450184 0.1608986 0.18756665 -0.16753374 -0.0470234 0.17550674 -0.09184167 -0.13778806 -0.2588834 0.24010111
YGL207W 0.28256223 -0.3004568 0.24179359 0.30074242 0.15562798 0.22403657 0.4767756 0.28876805 -0.70868725 0.050374616 0.47873396 -0.20955965 -0.45401797 0.076615155 0.38363272 0.90048885 -0.010773663 -0.15370995 -0.16796134 0.06448657 0.30018985 0.08068373 -0.24456899 -0.29532573 -0.13875505 0.36671776 -0.58930284 -0.36405584 -0.13931903 -0.42568812 -0.33868948 0.11291321 0.19685562 0.35422215 0.22891277 0.11483725 -0.4259208 0.06592218 0.086923815 0.17167705 -0.16530208 0.5209332 0.316091 0.19693528 -0.94269407 -0.027827011 -0.04390593 0.16685228 -0.12012022 0.15373063 0.46564472 -0.115418196 0.049860686 -0.12373088 0.34545127 0.330291 -0.39804912 -0.4445375 -0.44815376 0.17454222 -0.7811313 -0.29818174 0.48266098 -0.31772617
YPL235W 0.34440744 -0.2342035 0.17244892 0.5875159 -0.27759516 0.2460347 0.53735924 -0.17762262 -0.6017005 0.074808106 -0.113291316 0.026721872 -0.41303483 -0.48600414 -0.5673929 0.67808807 0.14486928 -0.13301201 -0.21457176 0.09466643 0.24918959 0.98801506 -0.30643883 -0.31930378 -0.33585376 -0.49273136 -0.21390907 -0.008151965 0.10900191 -0.032888655 0.35906258 -0.49916217 0.047062114 -0.266443 -0.19878395 0.42029166 0.01866187 -0.1264541 0.11450927 0.8017661 -0.2946502 0.55044705 0.67312586 0.3764877 0.70337623 -0.31672865 -0.08357153 -0.58001775 -0.26800722 -0.035334997 0.65825075 0.049241316 0.12137806 0.42141393 -0.016152311 0.11960106 0.06284216 -0.34443513 -0.77200437 -0.18406017 -0.0445756 0.22588201 0.07542819 -0.22726801
YDR447C 0.15862627 0.101534985 0.22943349 0.4393556 0.4914742 0.10990817 -0.10844053 -0.21792056 -0.28564948 -0.0066968906 0.17181854 -0.5298071 -0.50639313 -0.30498722 -0.15083179 -0.18011586 0.023861473 -0.3892319 -0.67972726 0.67356944 0.28149834 0.534312 0.13100724 -0.9291419 0.123229235 0.5820289 -0.3206633 0.10127968 0.6169968 -0.11216217 0.58524966 -0.4380757 -0.15976469 -0.15503223 -0.19438465 -0.4068119 0.074383736 -0.057795204 -0.24980636 0.23563217 0.29735568 0.56574315 -0.018499857 0.502737 -0.15887356 0.041982744 -0.23022994 -0.22216058 -0.5598039 -0.1589634 0.25466508 0.15386409 0.4055536 0.10026273 0.035593558 0.0569548 0.14051796 -0.70305336 -0.010202572 0.083116785 -0.07313683 -0.20476508 -0.29299238 0.32652596
YKL180W 0.3670645 -0.0065335156 0.061017867 0.13694485 -0.1044837 0.13308066 -0.105843686 -0.14655651 -0.48947862 0.07319365 0.2654163 -0.18049778 -0.56987923 -0.5663068 -0.030233948 0.44090155 -0.093573615 -0.2789972 -0.7498101 0.59941906 0.4393243 0.2765284 0.010464443 -0.672269 0.5084839 0.53353935 -0.2638712 0.31786445 0.63485944 -0.2002961 0.7657685 -0.3631998 -0.017463887 0.0052943225 0.157764 -0.16907412 0.2572205 0.06376417 -0.08119865 0.53930646 0.49266848 0.2784124 0.11168607 0.6093378 0.063194565 -0.07237998 -0.15630823 -0.2686233 -0.031540446 -0.15660097 -0.16617724 -0.07345148 0.37981293 0.25126413 -0.008259455 -0.5120866 0.2952873 -1.0810629 0.3773727 0.053096708 -0.5853591 0.115662344 -0.24673733 0.07697783
YDR188W 0.29049027 -0.14234388 0.22482981 -0.20734498 0.12977457 -0.2384182 -0.01199128 -0.66799396 0.24560426 0.52348477 0.10130946 0.10438709 -0.85342234 -0.31789422 0.49260336 0.44690198 0.023468226 -0.2964624 -0.52074295 0.59223914 0.9182404 0.54080194 -0.009393395 -0.4010787 -0.17569236 -0.09514326 -0.6207905 -0.4494169 0.2551358 0.085518844 -0.38494733 -0.4875349 0.07046138 0.13038978 0.25529414 0.17341496 0.119363815 0.10111093 -0.18176773 0.38522193 -0.29917046 0.35204625 -0.5571609 0.0076809693 -0.34292412 -0.02469059 -0.0030165464 -0.07943828 0.37892735 0.010283118 -0.1888439 0.918014 0.21823856 0.3571766 0.18267825 -0.017440543 0.29210618 -0.60183346 -0.33301723 0.2793078 0.28329816 -0.23696075 0.07687208 -0.19268386
YKL166C 0.07270661 -0.4456032 0.06350019 -0.0029893299 0.7201478 0.2750268 0.077675454 -0.05955032 -0.7386107 -0.015750391 0.3210212 -0.35273448 -0.23675916 -0.5217129 0.061214473 0.71175116 -1.0268943 -0.056375727 0.43030822 0.20566915 -0.23900536 0.40111366 0.022962324 -0.9614331 0.9877256 0.14115553 -0.14468402 0.1915467 -0.40561098 -0.49584725 -0.05698749 -0.009063863 0.30127913 -0.026462331 0.80939156 -0.21065634 -0.38317776 -0.37571296 -0.057556905 -0.26517 -0.2691528 -0.15708776 -0.48822865 0.5846691 0.70153475 0.06937155 0.38168767 -0.6183805 0.44799328 -0.29767656 -0.21879898 -0.19277334 -0.08692403 -0.3389737 0.66402966 0.292144 0.07909486 -0.53641635 0.015764557 0.10015563 0.15691249 -0.303258 0.12563606 -0.60155416
YJL190C 0.05414824 -0.02990801 -0.12491002 0.33560947 0.14671321 0.04845144 -0.03598513 0.13461077 -0.46787107 -0.3112863 0.2306476 -0.44626182 -0.37979573 -0.26377395 0.047376495 -0.0061986046 -0.0013541103 -0.90772575 -0.33254787 0.68199396 0.44267902 0.5810747 0.06839698 -0.85187644 0.017907035 0.6350779 -0.6474817 0.1674953 0.44361642 -0.12743242 0.5309472 -0.13491333 0.01685503 0.03188209 -0.26887667 -0.053066503 0.07580774 0.039817903 -0.03355786 0.14096916 0.33654165 0.3801352 0.16534202 0.6987944 0.16727585 0.06520518 -0.37787953 -0.059160274 -0.3304167 0.014408395 0.058071412 0.19237278 0.27556753 0.0014646641 -0.01878643 -0.16739063 0.05597524 -0.8266276 0.3334791 0.031053593 -0.10167063 -0.4325574 -0.2434667 0.23981567
